digraph Tree {
node [shape=box] ;
0 [label="X[44] <= 0.07\ngini = 0.798\nsamples = 567\nvalue = [63, 12, 41, 141, 34, 137, 139]"] ;
1 [label="X[2] <= 0.206\ngini = 0.798\nsamples = 477\nvalue = [59, 12, 40, 68, 34, 136, 128]"] ;
0 -> 1 [labeldistance=2.5, labelangle=45, headlabel="True"] ;
2 [label="X[133] <= 0.053\ngini = 0.808\nsamples = 424\nvalue = [56, 12, 40, 63, 33, 95, 125]"] ;
1 -> 2 ;
3 [label="X[43] <= 0.112\ngini = 0.823\nsamples = 347\nvalue = [49, 11, 36, 59, 31, 87, 74]"] ;
2 -> 3 ;
4 [label="X[14] <= 0.097\ngini = 0.817\nsamples = 332\nvalue = [36, 9, 36, 59, 31, 87, 74]"] ;
3 -> 4 ;
5 [label="X[54] <= 0.273\ngini = 0.807\nsamples = 311\nvalue = [23, 9, 30, 59, 31, 86, 73]"] ;
4 -> 5 ;
6 [label="X[81] <= 0.145\ngini = 0.816\nsamples = 290\nvalue = [23, 9, 30, 58, 31, 69, 70]"] ;
5 -> 6 ;
7 [label="X[36] <= 0.138\ngini = 0.819\nsamples = 274\nvalue = [23, 9, 28, 57, 31, 69, 57]"] ;
6 -> 7 ;
8 [label="X[136] <= 0.119\ngini = 0.819\nsamples = 264\nvalue = [23, 9, 27, 57, 31, 69, 48]"] ;
7 -> 8 ;
9 [label="X[66] <= 0.374\ngini = 0.824\nsamples = 168\nvalue = [21, 7, 23, 45, 18, 35, 19]"] ;
8 -> 9 ;
10 [label="X[51] <= 0.381\ngini = 0.82\nsamples = 162\nvalue = [21, 7, 17, 45, 18, 35, 19]"] ;
9 -> 10 ;
11 [label="X[13] <= 0.334\ngini = 0.815\nsamples = 156\nvalue = [15, 7, 17, 45, 18, 35, 19]"] ;
10 -> 11 ;
12 [label="X[39] <= 0.229\ngini = 0.808\nsamples = 151\nvalue = [10, 7, 17, 45, 18, 35, 19]"] ;
11 -> 12 ;
13 [label="X[77] <= 0.298\ngini = 0.81\nsamples = 145\nvalue = [10, 7, 17, 45, 18, 29, 19]"] ;
12 -> 13 ;
14 [label="X[50] <= 0.435\ngini = 0.803\nsamples = 139\nvalue = [10, 7, 12, 45, 18, 29, 18]"] ;
13 -> 14 ;
15 [label="X[75] <= 0.111\ngini = 0.798\nsamples = 135\nvalue = [10, 7, 12, 45, 14, 29, 18]"] ;
14 -> 15 ;
16 [label="X[122] <= 0.213\ngini = 0.793\nsamples = 131\nvalue = [10, 7, 12, 45, 14, 29, 14]"] ;
15 -> 16 ;
17 [label="X[5] <= 0.673\ngini = 0.747\nsamples = 97\nvalue = [10, 1, 7, 41, 12, 19, 7]"] ;
16 -> 17 ;
18 [label="X[80] <= 0.153\ngini = 0.736\nsamples = 94\nvalue = [7, 1, 7, 41, 12, 19, 7]"] ;
17 -> 18 ;
19 [label="X[132] <= 0.436\ngini = 0.726\nsamples = 90\nvalue = [4, 1, 7, 40, 12, 19, 7]"] ;
18 -> 19 ;
20 [label="X[106] <= 0.197\ngini = 0.709\nsamples = 86\nvalue = [4, 1, 4, 40, 12, 18, 7]"] ;
19 -> 20 ;
21 [label="X[84] <= 0.181\ngini = 0.715\nsamples = 68\nvalue = [4, 1, 4, 32, 12, 9, 6]"] ;
20 -> 21 ;
22 [label="X[114] <= 0.418\ngini = 0.691\nsamples = 61\nvalue = [3, 1, 4, 31, 8, 8, 6]"] ;
21 -> 22 ;
23 [label="X[68] <= 0.407\ngini = 0.677\nsamples = 59\nvalue = [3, 1, 4, 31, 8, 6, 6]"] ;
22 -> 23 ;
24 [label="X[99] <= 0.179\ngini = 0.663\nsamples = 57\nvalue = [3, 1, 4, 31, 6, 6, 6]"] ;
23 -> 24 ;
25 [label="X[94] <= 0.194\ngini = 0.634\nsamples = 54\nvalue = [3, 1, 3, 31, 4, 6, 6]"] ;
24 -> 25 ;
26 [label="X[93] <= 0.526\ngini = 0.598\nsamples = 51\nvalue = [3, 1, 2, 31, 3, 5, 6]"] ;
25 -> 26 ;
27 [label="X[35] <= 0.409\ngini = 0.569\nsamples = 49\nvalue = [2, 1, 2, 31, 2, 5, 6]"] ;
26 -> 27 ;
28 [label="X[38] <= 0.25\ngini = 0.541\nsamples = 44\nvalue = [2, 1, 2, 29, 2, 5, 3]"] ;
27 -> 28 ;
29 [label="X[27] <= 0.184\ngini = 0.5\nsamples = 42\nvalue = [2, 0, 2, 29, 2, 5, 2]"] ;
28 -> 29 ;
30 [label="X[33] <= 0.265\ngini = 0.46\nsamples = 39\nvalue = [0, 0, 2, 28, 2, 5, 2]"] ;
29 -> 30 ;
31 [label="X[8] <= 0.184\ngini = 0.434\nsamples = 38\nvalue = [0, 0, 1, 28, 2, 5, 2]"] ;
30 -> 31 ;
32 [label="X[121] <= 0.532\ngini = 0.403\nsamples = 37\nvalue = [0, 0, 0, 28, 2, 5, 2]"] ;
31 -> 32 ;
33 [label="X[111] <= 0.513\ngini = 0.372\nsamples = 36\nvalue = [0, 0, 0, 28, 1, 5, 2]"] ;
32 -> 33 ;
34 [label="X[90] <= 0.463\ngini = 0.336\nsamples = 35\nvalue = [0, 0, 0, 28, 0, 5, 2]"] ;
33 -> 34 ;
35 [label="X[122] <= 0.039\ngini = 0.299\nsamples = 34\nvalue = [0, 0, 0, 28, 0, 5, 1]"] ;
34 -> 35 ;
36 [label="X[106] <= 0.059\ngini = 0.542\nsamples = 12\nvalue = [0, 0, 0, 7, 0, 4, 1]"] ;
35 -> 36 ;
37 [label="X[25] <= 0.5\ngini = 0.594\nsamples = 8\nvalue = [0, 0, 0, 3, 0, 4, 1]"] ;
36 -> 37 ;
38 [label="X[101] <= 0.28\ngini = 0.49\nsamples = 7\nvalue = [0, 0, 0, 3, 0, 4, 0]"] ;
37 -> 38 ;
39 [label="X[144] <= 0.212\ngini = 0.444\nsamples = 6\nvalue = [0, 0, 0, 2, 0, 4, 0]"] ;
38 -> 39 ;
40 [label="X[142] <= 0.314\ngini = 0.32\nsamples = 5\nvalue = [0, 0, 0, 1, 0, 4, 0]"] ;
39 -> 40 ;
41 [label="X[126] <= 0.5\ngini = 0.375\nsamples = 4\nvalue = [0, 0, 0, 1, 0, 3, 0]"] ;
40 -> 41 ;
42 [label="X[9] <= 0.302\ngini = 0.444\nsamples = 3\nvalue = [0, 0, 0, 1, 0, 2, 0]"] ;
41 -> 42 ;
43 [label="gini = 0.5\nsamples = 2\nvalue = [0, 0, 0, 1, 0, 1, 0]"] ;
42 -> 43 ;
44 [label="gini = 0.0\nsamples = 1\nvalue = [0, 0, 0, 0, 0, 1, 0]"] ;
42 -> 44 ;
45 [label="gini = 0.0\nsamples = 1\nvalue = [0, 0, 0, 0, 0, 1, 0]"] ;
41 -> 45 ;
46 [label="gini = 0.0\nsamples = 1\nvalue = [0, 0, 0, 0, 0, 1, 0]"] ;
40 -> 46 ;
47 [label="gini = 0.0\nsamples = 1\nvalue = [0, 0, 0, 1, 0, 0, 0]"] ;
39 -> 47 ;
48 [label="gini = 0.0\nsamples = 1\nvalue = [0, 0, 0, 1, 0, 0, 0]"] ;
38 -> 48 ;
49 [label="gini = 0.0\nsamples = 1\nvalue = [0, 0, 0, 0, 0, 0, 1]"] ;
37 -> 49 ;
50 [label="gini = 0.0\nsamples = 4\nvalue = [0, 0, 0, 4, 0, 0, 0]"] ;
36 -> 50 ;
51 [label="X[41] <= 0.316\ngini = 0.087\nsamples = 22\nvalue = [0, 0, 0, 21, 0, 1, 0]"] ;
35 -> 51 ;
52 [label="gini = 0.0\nsamples = 21\nvalue = [0, 0, 0, 21, 0, 0, 0]"] ;
51 -> 52 ;
53 [label="gini = 0.0\nsamples = 1\nvalue = [0, 0, 0, 0, 0, 1, 0]"] ;
51 -> 53 ;
54 [label="gini = 0.0\nsamples = 1\nvalue = [0, 0, 0, 0, 0, 0, 1]"] ;
34 -> 54 ;
55 [label="gini = 0.0\nsamples = 1\nvalue = [0, 0, 0, 0, 1, 0, 0]"] ;
33 -> 55 ;
56 [label="gini = 0.0\nsamples = 1\nvalue = [0, 0, 0, 0, 1, 0, 0]"] ;
32 -> 56 ;
57 [label="gini = 0.0\nsamples = 1\nvalue = [0, 0, 1, 0, 0, 0, 0]"] ;
31 -> 57 ;
58 [label="gini = 0.0\nsamples = 1\nvalue = [0, 0, 1, 0, 0, 0, 0]"] ;
30 -> 58 ;
59 [label="X[50] <= 0.183\ngini = 0.444\nsamples = 3\nvalue = [2, 0, 0, 1, 0, 0, 0]"] ;
29 -> 59 ;
60 [label="gini = 0.0\nsamples = 2\nvalue = [2, 0, 0, 0, 0, 0, 0]"] ;
59 -> 60 ;
61 [label="gini = 0.0\nsamples = 1\nvalue = [0, 0, 0, 1, 0, 0, 0]"] ;
59 -> 61 ;
62 [label="X[78] <= 0.219\ngini = 0.5\nsamples = 2\nvalue = [0, 1, 0, 0, 0, 0, 1]"] ;
28 -> 62 ;
63 [label="gini = 0.0\nsamples = 1\nvalue = [0, 1, 0, 0, 0, 0, 0]"] ;
62 -> 63 ;
64 [label="gini = 0.0\nsamples = 1\nvalue = [0, 0, 0, 0, 0, 0, 1]"] ;
62 -> 64 ;
65 [label="X[35] <= 0.526\ngini = 0.48\nsamples = 5\nvalue = [0, 0, 0, 2, 0, 0, 3]"] ;
27 -> 65 ;
66 [label="gini = 0.0\nsamples = 3\nvalue = [0, 0, 0, 0, 0, 0, 3]"] ;
65 -> 66 ;
67 [label="gini = 0.0\nsamples = 2\nvalue = [0, 0, 0, 2, 0, 0, 0]"] ;
65 -> 67 ;
68 [label="X[108] <= 0.2\ngini = 0.5\nsamples = 2\nvalue = [1, 0, 0, 0, 1, 0, 0]"] ;
26 -> 68 ;
69 [label="gini = 0.0\nsamples = 1\nvalue = [0, 0, 0, 0, 1, 0, 0]"] ;
68 -> 69 ;
70 [label="gini = 0.0\nsamples = 1\nvalue = [1, 0, 0, 0, 0, 0, 0]"] ;
68 -> 70 ;
71 [label="X[83] <= 0.205\ngini = 0.667\nsamples = 3\nvalue = [0, 0, 1, 0, 1, 1, 0]"] ;
25 -> 71 ;
72 [label="X[106] <= 0.055\ngini = 0.5\nsamples = 2\nvalue = [0, 0, 1, 0, 1, 0, 0]"] ;
71 -> 72 ;
73 [label="gini = 0.0\nsamples = 1\nvalue = [0, 0, 1, 0, 0, 0, 0]"] ;
72 -> 73 ;
74 [label="gini = 0.0\nsamples = 1\nvalue = [0, 0, 0, 0, 1, 0, 0]"] ;
72 -> 74 ;
75 [label="gini = 0.0\nsamples = 1\nvalue = [0, 0, 0, 0, 0, 1, 0]"] ;
71 -> 75 ;
76 [label="X[124] <= 0.069\ngini = 0.444\nsamples = 3\nvalue = [0, 0, 1, 0, 2, 0, 0]"] ;
24 -> 76 ;
77 [label="gini = 0.0\nsamples = 1\nvalue = [0, 0, 1, 0, 0, 0, 0]"] ;
76 -> 77 ;
78 [label="gini = 0.0\nsamples = 2\nvalue = [0, 0, 0, 0, 2, 0, 0]"] ;
76 -> 78 ;
79 [label="gini = 0.0\nsamples = 2\nvalue = [0, 0, 0, 0, 2, 0, 0]"] ;
23 -> 79 ;
80 [label="gini = 0.0\nsamples = 2\nvalue = [0, 0, 0, 0, 0, 2, 0]"] ;
22 -> 80 ;
81 [label="X[106] <= 0.118\ngini = 0.612\nsamples = 7\nvalue = [1, 0, 0, 1, 4, 1, 0]"] ;
21 -> 81 ;
82 [label="X[73] <= 0.167\ngini = 0.5\nsamples = 2\nvalue = [1, 0, 0, 0, 0, 1, 0]"] ;
81 -> 82 ;
83 [label="gini = 0.0\nsamples = 1\nvalue = [0, 0, 0, 0, 0, 1, 0]"] ;
82 -> 83 ;
84 [label="gini = 0.0\nsamples = 1\nvalue = [1, 0, 0, 0, 0, 0, 0]"] ;
82 -> 84 ;
85 [label="X[91] <= 0.539\ngini = 0.32\nsamples = 5\nvalue = [0, 0, 0, 1, 4, 0, 0]"] ;
81 -> 85 ;
86 [label="gini = 0.0\nsamples = 4\nvalue = [0, 0, 0, 0, 4, 0, 0]"] ;
85 -> 86 ;
87 [label="gini = 0.0\nsamples = 1\nvalue = [0, 0, 0, 1, 0, 0, 0]"] ;
85 -> 87 ;
88 [label="X[124] <= 0.269\ngini = 0.549\nsamples = 18\nvalue = [0, 0, 0, 8, 0, 9, 1]"] ;
20 -> 88 ;
89 [label="X[101] <= 0.336\ngini = 0.397\nsamples = 11\nvalue = [0, 0, 0, 3, 0, 8, 0]"] ;
88 -> 89 ;
90 [label="X[72] <= 0.408\ngini = 0.198\nsamples = 9\nvalue = [0, 0, 0, 1, 0, 8, 0]"] ;
89 -> 90 ;
91 [label="gini = 0.0\nsamples = 8\nvalue = [0, 0, 0, 0, 0, 8, 0]"] ;
90 -> 91 ;
92 [label="gini = 0.0\nsamples = 1\nvalue = [0, 0, 0, 1, 0, 0, 0]"] ;
90 -> 92 ;
93 [label="gini = 0.0\nsamples = 2\nvalue = [0, 0, 0, 2, 0, 0, 0]"] ;
89 -> 93 ;
94 [label="X[113] <= 0.686\ngini = 0.449\nsamples = 7\nvalue = [0, 0, 0, 5, 0, 1, 1]"] ;
88 -> 94 ;
95 [label="X[124] <= 0.293\ngini = 0.278\nsamples = 6\nvalue = [0, 0, 0, 5, 0, 1, 0]"] ;
94 -> 95 ;
96 [label="gini = 0.0\nsamples = 5\nvalue = [0, 0, 0, 5, 0, 0, 0]"] ;
95 -> 96 ;
97 [label="gini = 0.0\nsamples = 1\nvalue = [0, 0, 0, 0, 0, 1, 0]"] ;
95 -> 97 ;
98 [label="gini = 0.0\nsamples = 1\nvalue = [0, 0, 0, 0, 0, 0, 1]"] ;
94 -> 98 ;
99 [label="X[122] <= 0.158\ngini = 0.375\nsamples = 4\nvalue = [0, 0, 3, 0, 0, 1, 0]"] ;
19 -> 99 ;
100 [label="gini = 0.0\nsamples = 3\nvalue = [0, 0, 3, 0, 0, 0, 0]"] ;
99 -> 100 ;
101 [label="gini = 0.0\nsamples = 1\nvalue = [0, 0, 0, 0, 0, 1, 0]"] ;
99 -> 101 ;
102 [label="X[95] <= 0.148\ngini = 0.375\nsamples = 4\nvalue = [3, 0, 0, 1, 0, 0, 0]"] ;
18 -> 102 ;
103 [label="gini = 0.0\nsamples = 3\nvalue = [3, 0, 0, 0, 0, 0, 0]"] ;
102 -> 103 ;
104 [label="gini = 0.0\nsamples = 1\nvalue = [0, 0, 0, 1, 0, 0, 0]"] ;
102 -> 104 ;
105 [label="gini = 0.0\nsamples = 3\nvalue = [3, 0, 0, 0, 0, 0, 0]"] ;
17 -> 105 ;
106 [label="X[129] <= 0.368\ngini = 0.801\nsamples = 34\nvalue = [0, 6, 5, 4, 2, 10, 7]"] ;
16 -> 106 ;
107 [label="X[79] <= 0.401\ngini = 0.787\nsamples = 32\nvalue = [0, 6, 5, 2, 2, 10, 7]"] ;
106 -> 107 ;
108 [label="X[90] <= 0.179\ngini = 0.78\nsamples = 30\nvalue = [0, 4, 5, 2, 2, 10, 7]"] ;
107 -> 108 ;
109 [label="X[29] <= 0.644\ngini = 0.784\nsamples = 26\nvalue = [0, 4, 5, 2, 2, 9, 4]"] ;
108 -> 109 ;
110 [label="X[122] <= 0.37\ngini = 0.802\nsamples = 24\nvalue = [0, 4, 5, 2, 2, 7, 4]"] ;
109 -> 110 ;
111 [label="X[124] <= 0.191\ngini = 0.781\nsamples = 13\nvalue = [0, 4, 3, 0, 2, 2, 2]"] ;
110 -> 111 ;
112 [label="X[122] <= 0.296\ngini = 0.56\nsamples = 5\nvalue = [0, 1, 3, 0, 0, 1, 0]"] ;
111 -> 112 ;
113 [label="gini = 0.0\nsamples = 3\nvalue = [0, 0, 3, 0, 0, 0, 0]"] ;
112 -> 113 ;
114 [label="X[129] <= 0.173\ngini = 0.5\nsamples = 2\nvalue = [0, 1, 0, 0, 0, 1, 0]"] ;
112 -> 114 ;
115 [label="gini = 0.0\nsamples = 1\nvalue = [0, 0, 0, 0, 0, 1, 0]"] ;
114 -> 115 ;
116 [label="gini = 0.0\nsamples = 1\nvalue = [0, 1, 0, 0, 0, 0, 0]"] ;
114 -> 116 ;
117 [label="X[122] <= 0.239\ngini = 0.719\nsamples = 8\nvalue = [0, 3, 0, 0, 2, 1, 2]"] ;
111 -> 117 ;
118 [label="X[19] <= 0.44\ngini = 0.444\nsamples = 3\nvalue = [0, 0, 0, 0, 0, 1, 2]"] ;
117 -> 118 ;
119 [label="gini = 0.0\nsamples = 2\nvalue = [0, 0, 0, 0, 0, 0, 2]"] ;
118 -> 119 ;
120 [label="gini = 0.0\nsamples = 1\nvalue = [0, 0, 0, 0, 0, 1, 0]"] ;
118 -> 120 ;
121 [label="X[53] <= 0.266\ngini = 0.48\nsamples = 5\nvalue = [0, 3, 0, 0, 2, 0, 0]"] ;
117 -> 121 ;
122 [label="X[78] <= 0.42\ngini = 0.375\nsamples = 4\nvalue = [0, 3, 0, 0, 1, 0, 0]"] ;
121 -> 122 ;
123 [label="gini = 0.0\nsamples = 3\nvalue = [0, 3, 0, 0, 0, 0, 0]"] ;
122 -> 123 ;
124 [label="gini = 0.0\nsamples = 1\nvalue = [0, 0, 0, 0, 1, 0, 0]"] ;
122 -> 124 ;
125 [label="gini = 0.0\nsamples = 1\nvalue = [0, 0, 0, 0, 1, 0, 0]"] ;
121 -> 125 ;
126 [label="X[9] <= 0.392\ngini = 0.694\nsamples = 11\nvalue = [0, 0, 2, 2, 0, 5, 2]"] ;
110 -> 126 ;
127 [label="X[102] <= 0.457\ngini = 0.66\nsamples = 10\nvalue = [0, 0, 2, 1, 0, 5, 2]"] ;
126 -> 127 ;
128 [label="gini = 0.691\nsamples = 9\nvalue = [0, 0, 2, 1, 0, 4, 2]"] ;
127 -> 128 ;
129 [label="gini = 0.0\nsamples = 1\nvalue = [0, 0, 0, 0, 0, 1, 0]"] ;
127 -> 129 ;
130 [label="gini = 0.0\nsamples = 1\nvalue = [0, 0, 0, 1, 0, 0, 0]"] ;
126 -> 130 ;
131 [label="gini = 0.0\nsamples = 2\nvalue = [0, 0, 0, 0, 0, 2, 0]"] ;
109 -> 131 ;
132 [label="X[103] <= 0.268\ngini = 0.375\nsamples = 4\nvalue = [0, 0, 0, 0, 0, 1, 3]"] ;
108 -> 132 ;
133 [label="gini = 0.0\nsamples = 3\nvalue = [0, 0, 0, 0, 0, 0, 3]"] ;
132 -> 133 ;
134 [label="gini = 0.0\nsamples = 1\nvalue = [0, 0, 0, 0, 0, 1, 0]"] ;
132 -> 134 ;
135 [label="gini = 0.0\nsamples = 2\nvalue = [0, 2, 0, 0, 0, 0, 0]"] ;
107 -> 135 ;
136 [label="gini = 0.0\nsamples = 2\nvalue = [0, 0, 0, 2, 0, 0, 0]"] ;
106 -> 136 ;
137 [label="gini = 0.0\nsamples = 4\nvalue = [0, 0, 0, 0, 0, 0, 4]"] ;
15 -> 137 ;
138 [label="gini = 0.0\nsamples = 4\nvalue = [0, 0, 0, 0, 4, 0, 0]"] ;
14 -> 138 ;
139 [label="X[122] <= 0.052\ngini = 0.278\nsamples = 6\nvalue = [0, 0, 5, 0, 0, 0, 1]"] ;
13 -> 139 ;
140 [label="gini = 0.0\nsamples = 1\nvalue = [0, 0, 0, 0, 0, 0, 1]"] ;
139 -> 140 ;
141 [label="gini = 0.0\nsamples = 5\nvalue = [0, 0, 5, 0, 0, 0, 0]"] ;
139 -> 141 ;
142 [label="gini = 0.0\nsamples = 6\nvalue = [0, 0, 0, 0, 0, 6, 0]"] ;
12 -> 142 ;
143 [label="gini = 0.0\nsamples = 5\nvalue = [5, 0, 0, 0, 0, 0, 0]"] ;
11 -> 143 ;
144 [label="gini = 0.0\nsamples = 6\nvalue = [6, 0, 0, 0, 0, 0, 0]"] ;
10 -> 144 ;
145 [label="gini = 0.0\nsamples = 6\nvalue = [0, 0, 6, 0, 0, 0, 0]"] ;
9 -> 145 ;
146 [label="X[121] <= 0.323\ngini = 0.747\nsamples = 96\nvalue = [2, 2, 4, 12, 13, 34, 29]"] ;
8 -> 146 ;
147 [label="X[49] <= 0.203\ngini = 0.694\nsamples = 83\nvalue = [1, 2, 3, 8, 6, 34, 29]"] ;
146 -> 147 ;
148 [label="X[56] <= 0.128\ngini = 0.661\nsamples = 78\nvalue = [1, 2, 3, 7, 2, 34, 29]"] ;
147 -> 148 ;
149 [label="X[123] <= 0.116\ngini = 0.662\nsamples = 72\nvalue = [1, 2, 3, 7, 2, 34, 23]"] ;
148 -> 149 ;
150 [label="X[108] <= 0.134\ngini = 0.657\nsamples = 68\nvalue = [1, 2, 3, 7, 2, 34, 19]"] ;
149 -> 150 ;
151 [label="X[76] <= 0.159\ngini = 0.64\nsamples = 61\nvalue = [1, 2, 3, 6, 2, 33, 14]"] ;
150 -> 151 ;
152 [label="X[17] <= 0.175\ngini = 0.624\nsamples = 58\nvalue = [1, 2, 3, 6, 2, 33, 11]"] ;
151 -> 152 ;
153 [label="X[124] <= 0.201\ngini = 0.599\nsamples = 56\nvalue = [1, 2, 1, 6, 2, 33, 11]"] ;
152 -> 153 ;
154 [label="X[127] <= 0.162\ngini = 0.518\nsamples = 42\nvalue = [0, 2, 1, 6, 0, 28, 5]"] ;
153 -> 154 ;
155 [label="X[65] <= 0.47\ngini = 0.459\nsamples = 39\nvalue = [0, 2, 1, 5, 0, 28, 3]"] ;
154 -> 155 ;
156 [label="X[98] <= 0.2\ngini = 0.431\nsamples = 38\nvalue = [0, 2, 0, 5, 0, 28, 3]"] ;
155 -> 156 ;
157 [label="X[29] <= 0.446\ngini = 0.402\nsamples = 37\nvalue = [0, 1, 0, 5, 0, 28, 3]"] ;
156 -> 157 ;
158 [label="X[144] <= 0.318\ngini = 0.372\nsamples = 36\nvalue = [0, 1, 0, 5, 0, 28, 2]"] ;
157 -> 158 ;
159 [label="X[24] <= 0.259\ngini = 0.338\nsamples = 35\nvalue = [0, 1, 0, 5, 0, 28, 1]"] ;
158 -> 159 ;
160 [label="X[69] <= 0.466\ngini = 0.299\nsamples = 34\nvalue = [0, 1, 0, 5, 0, 28, 0]"] ;
159 -> 160 ;
161 [label="X[124] <= 0.196\ngini = 0.264\nsamples = 33\nvalue = [0, 1, 0, 4, 0, 28, 0]"] ;
160 -> 161 ;
162 [label="X[50] <= 0.326\ngini = 0.225\nsamples = 32\nvalue = [0, 1, 0, 3, 0, 28, 0]"] ;
161 -> 162 ;
163 [label="X[70] <= 0.533\ngini = 0.179\nsamples = 31\nvalue = [0, 1, 0, 2, 0, 28, 0]"] ;
162 -> 163 ;
164 [label="X[122] <= 0.495\ngini = 0.127\nsamples = 30\nvalue = [0, 1, 0, 1, 0, 28, 0]"] ;
163 -> 164 ;
165 [label="X[120] <= 0.714\ngini = 0.069\nsamples = 28\nvalue = [0, 0, 0, 1, 0, 27, 0]"] ;
164 -> 165 ;
166 [label="gini = 0.0\nsamples = 26\nvalue = [0, 0, 0, 0, 0, 26, 0]"] ;
165 -> 166 ;
167 [label="gini = 0.5\nsamples = 2\nvalue = [0, 0, 0, 1, 0, 1, 0]"] ;
165 -> 167 ;
168 [label="gini = 0.5\nsamples = 2\nvalue = [0, 1, 0, 0, 0, 1, 0]"] ;
164 -> 168 ;
169 [label="gini = 0.0\nsamples = 1\nvalue = [0, 0, 0, 1, 0, 0, 0]"] ;
163 -> 169 ;
170 [label="gini = 0.0\nsamples = 1\nvalue = [0, 0, 0, 1, 0, 0, 0]"] ;
162 -> 170 ;
171 [label="gini = 0.0\nsamples = 1\nvalue = [0, 0, 0, 1, 0, 0, 0]"] ;
161 -> 171 ;
172 [label="gini = 0.0\nsamples = 1\nvalue = [0, 0, 0, 1, 0, 0, 0]"] ;
160 -> 172 ;
173 [label="gini = 0.0\nsamples = 1\nvalue = [0, 0, 0, 0, 0, 0, 1]"] ;
159 -> 173 ;
174 [label="gini = 0.0\nsamples = 1\nvalue = [0, 0, 0, 0, 0, 0, 1]"] ;
158 -> 174 ;
175 [label="gini = 0.0\nsamples = 1\nvalue = [0, 0, 0, 0, 0, 0, 1]"] ;
157 -> 175 ;
176 [label="gini = 0.0\nsamples = 1\nvalue = [0, 1, 0, 0, 0, 0, 0]"] ;
156 -> 176 ;
177 [label="gini = 0.0\nsamples = 1\nvalue = [0, 0, 1, 0, 0, 0, 0]"] ;
155 -> 177 ;
178 [label="X[136] <= 0.181\ngini = 0.444\nsamples = 3\nvalue = [0, 0, 0, 1, 0, 0, 2]"] ;
154 -> 178 ;
179 [label="gini = 0.0\nsamples = 1\nvalue = [0, 0, 0, 1, 0, 0, 0]"] ;
178 -> 179 ;
180 [label="gini = 0.0\nsamples = 2\nvalue = [0, 0, 0, 0, 0, 0, 2]"] ;
178 -> 180 ;
181 [label="X[122] <= 0.512\ngini = 0.663\nsamples = 14\nvalue = [1, 0, 0, 0, 2, 5, 6]"] ;
153 -> 181 ;
182 [label="X[136] <= 0.239\ngini = 0.569\nsamples = 12\nvalue = [0, 0, 0, 0, 1, 5, 6]"] ;
181 -> 182 ;
183 [label="X[106] <= 0.174\ngini = 0.444\nsamples = 3\nvalue = [0, 0, 0, 0, 1, 2, 0]"] ;
182 -> 183 ;
184 [label="gini = 0.0\nsamples = 1\nvalue = [0, 0, 0, 0, 1, 0, 0]"] ;
183 -> 184 ;
185 [label="gini = 0.0\nsamples = 2\nvalue = [0, 0, 0, 0, 0, 2, 0]"] ;
183 -> 185 ;
186 [label="X[106] <= 0.202\ngini = 0.444\nsamples = 9\nvalue = [0, 0, 0, 0, 0, 3, 6]"] ;
182 -> 186 ;
187 [label="gini = 0.0\nsamples = 4\nvalue = [0, 0, 0, 0, 0, 0, 4]"] ;
186 -> 187 ;
188 [label="X[146] <= 0.406\ngini = 0.48\nsamples = 5\nvalue = [0, 0, 0, 0, 0, 3, 2]"] ;
186 -> 188 ;
189 [label="X[64] <= 0.299\ngini = 0.375\nsamples = 4\nvalue = [0, 0, 0, 0, 0, 3, 1]"] ;
188 -> 189 ;
190 [label="gini = 0.444\nsamples = 3\nvalue = [0, 0, 0, 0, 0, 2, 1]"] ;
189 -> 190 ;
191 [label="gini = 0.0\nsamples = 1\nvalue = [0, 0, 0, 0, 0, 1, 0]"] ;
189 -> 191 ;
192 [label="gini = 0.0\nsamples = 1\nvalue = [0, 0, 0, 0, 0, 0, 1]"] ;
188 -> 192 ;
193 [label="X[122] <= 0.65\ngini = 0.5\nsamples = 2\nvalue = [1, 0, 0, 0, 1, 0, 0]"] ;
181 -> 193 ;
194 [label="gini = 0.0\nsamples = 1\nvalue = [0, 0, 0, 0, 1, 0, 0]"] ;
193 -> 194 ;
195 [label="gini = 0.0\nsamples = 1\nvalue = [1, 0, 0, 0, 0, 0, 0]"] ;
193 -> 195 ;
196 [label="gini = 0.0\nsamples = 2\nvalue = [0, 0, 2, 0, 0, 0, 0]"] ;
152 -> 196 ;
197 [label="gini = 0.0\nsamples = 3\nvalue = [0, 0, 0, 0, 0, 0, 3]"] ;
151 -> 197 ;
198 [label="X[143] <= 0.294\ngini = 0.449\nsamples = 7\nvalue = [0, 0, 0, 1, 0, 1, 5]"] ;
150 -> 198 ;
199 [label="X[127] <= 0.24\ngini = 0.278\nsamples = 6\nvalue = [0, 0, 0, 1, 0, 0, 5]"] ;
198 -> 199 ;
200 [label="gini = 0.0\nsamples = 5\nvalue = [0, 0, 0, 0, 0, 0, 5]"] ;
199 -> 200 ;
201 [label="gini = 0.0\nsamples = 1\nvalue = [0, 0, 0, 1, 0, 0, 0]"] ;
199 -> 201 ;
202 [label="gini = 0.0\nsamples = 1\nvalue = [0, 0, 0, 0, 0, 1, 0]"] ;
198 -> 202 ;
203 [label="gini = 0.0\nsamples = 4\nvalue = [0, 0, 0, 0, 0, 0, 4]"] ;
149 -> 203 ;
204 [label="gini = 0.0\nsamples = 6\nvalue = [0, 0, 0, 0, 0, 0, 6]"] ;
148 -> 204 ;
205 [label="X[129] <= 0.306\ngini = 0.32\nsamples = 5\nvalue = [0, 0, 0, 1, 4, 0, 0]"] ;
147 -> 205 ;
206 [label="gini = 0.0\nsamples = 4\nvalue = [0, 0, 0, 0, 4, 0, 0]"] ;
205 -> 206 ;
207 [label="gini = 0.0\nsamples = 1\nvalue = [0, 0, 0, 1, 0, 0, 0]"] ;
205 -> 207 ;
208 [label="X[122] <= 0.217\ngini = 0.604\nsamples = 13\nvalue = [1, 0, 1, 4, 7, 0, 0]"] ;
146 -> 208 ;
209 [label="X[90] <= 0.23\ngini = 0.542\nsamples = 12\nvalue = [1, 0, 0, 4, 7, 0, 0]"] ;
208 -> 209 ;
210 [label="X[58] <= 0.378\ngini = 0.463\nsamples = 11\nvalue = [0, 0, 0, 4, 7, 0, 0]"] ;
209 -> 210 ;
211 [label="X[136] <= 0.19\ngini = 0.42\nsamples = 10\nvalue = [0, 0, 0, 3, 7, 0, 0]"] ;
210 -> 211 ;
212 [label="gini = 0.0\nsamples = 1\nvalue = [0, 0, 0, 1, 0, 0, 0]"] ;
211 -> 212 ;
213 [label="X[1] <= 0.213\ngini = 0.346\nsamples = 9\nvalue = [0, 0, 0, 2, 7, 0, 0]"] ;
211 -> 213 ;
214 [label="gini = 0.0\nsamples = 5\nvalue = [0, 0, 0, 0, 5, 0, 0]"] ;
213 -> 214 ;
215 [label="gini = 0.5\nsamples = 4\nvalue = [0, 0, 0, 2, 2, 0, 0]"] ;
213 -> 215 ;
216 [label="gini = 0.0\nsamples = 1\nvalue = [0, 0, 0, 1, 0, 0, 0]"] ;
210 -> 216 ;
217 [label="gini = 0.0\nsamples = 1\nvalue = [1, 0, 0, 0, 0, 0, 0]"] ;
209 -> 217 ;
218 [label="gini = 0.0\nsamples = 1\nvalue = [0, 0, 1, 0, 0, 0, 0]"] ;
208 -> 218 ;
219 [label="X[112] <= 0.681\ngini = 0.18\nsamples = 10\nvalue = [0, 0, 1, 0, 0, 0, 9]"] ;
7 -> 219 ;
220 [label="gini = 0.0\nsamples = 8\nvalue = [0, 0, 0, 0, 0, 0, 8]"] ;
219 -> 220 ;
221 [label="gini = 0.5\nsamples = 2\nvalue = [0, 0, 1, 0, 0, 0, 1]"] ;
219 -> 221 ;
222 [label="X[122] <= 0.181\ngini = 0.32\nsamples = 16\nvalue = [0, 0, 2, 1, 0, 0, 13]"] ;
6 -> 222 ;
223 [label="X[98] <= 0.406\ngini = 0.133\nsamples = 14\nvalue = [0, 0, 0, 1, 0, 0, 13]"] ;
222 -> 223 ;
224 [label="gini = 0.0\nsamples = 13\nvalue = [0, 0, 0, 0, 0, 0, 13]"] ;
223 -> 224 ;
225 [label="gini = 0.0\nsamples = 1\nvalue = [0, 0, 0, 1, 0, 0, 0]"] ;
223 -> 225 ;
226 [label="gini = 0.0\nsamples = 2\nvalue = [0, 0, 2, 0, 0, 0, 0]"] ;
222 -> 226 ;
227 [label="X[106] <= 0.25\ngini = 0.322\nsamples = 21\nvalue = [0, 0, 0, 1, 0, 17, 3]"] ;
5 -> 227 ;
228 [label="X[89] <= 0.157\ngini = 0.204\nsamples = 18\nvalue = [0, 0, 0, 1, 0, 16, 1]"] ;
227 -> 228 ;
229 [label="X[88] <= 0.167\ngini = 0.111\nsamples = 17\nvalue = [0, 0, 0, 0, 0, 16, 1]"] ;
228 -> 229 ;
230 [label="gini = 0.0\nsamples = 16\nvalue = [0, 0, 0, 0, 0, 16, 0]"] ;
229 -> 230 ;
231 [label="gini = 0.0\nsamples = 1\nvalue = [0, 0, 0, 0, 0, 0, 1]"] ;
229 -> 231 ;
232 [label="gini = 0.0\nsamples = 1\nvalue = [0, 0, 0, 1, 0, 0, 0]"] ;
228 -> 232 ;
233 [label="X[136] <= 0.465\ngini = 0.444\nsamples = 3\nvalue = [0, 0, 0, 0, 0, 1, 2]"] ;
227 -> 233 ;
234 [label="gini = 0.0\nsamples = 2\nvalue = [0, 0, 0, 0, 0, 0, 2]"] ;
233 -> 234 ;
235 [label="gini = 0.0\nsamples = 1\nvalue = [0, 0, 0, 0, 0, 1, 0]"] ;
233 -> 235 ;
236 [label="X[117] <= 0.353\ngini = 0.531\nsamples = 21\nvalue = [13, 0, 6, 0, 0, 1, 1]"] ;
4 -> 236 ;
237 [label="X[16] <= 0.153\ngini = 0.394\nsamples = 17\nvalue = [13, 0, 2, 0, 0, 1, 1]"] ;
236 -> 237 ;
238 [label="X[4] <= 0.23\ngini = 0.231\nsamples = 15\nvalue = [13, 0, 2, 0, 0, 0, 0]"] ;
237 -> 238 ;
239 [label="X[67] <= 0.171\ngini = 0.133\nsamples = 14\nvalue = [13, 0, 1, 0, 0, 0, 0]"] ;
238 -> 239 ;
240 [label="gini = 0.0\nsamples = 13\nvalue = [13, 0, 0, 0, 0, 0, 0]"] ;
239 -> 240 ;
241 [label="gini = 0.0\nsamples = 1\nvalue = [0, 0, 1, 0, 0, 0, 0]"] ;
239 -> 241 ;
242 [label="gini = 0.0\nsamples = 1\nvalue = [0, 0, 1, 0, 0, 0, 0]"] ;
238 -> 242 ;
243 [label="X[40] <= 0.148\ngini = 0.5\nsamples = 2\nvalue = [0, 0, 0, 0, 0, 1, 1]"] ;
237 -> 243 ;
244 [label="gini = 0.0\nsamples = 1\nvalue = [0, 0, 0, 0, 0, 0, 1]"] ;
243 -> 244 ;
245 [label="gini = 0.0\nsamples = 1\nvalue = [0, 0, 0, 0, 0, 1, 0]"] ;
243 -> 245 ;
246 [label="gini = 0.0\nsamples = 4\nvalue = [0, 0, 4, 0, 0, 0, 0]"] ;
236 -> 246 ;
247 [label="X[26] <= 0.185\ngini = 0.231\nsamples = 15\nvalue = [13, 2, 0, 0, 0, 0, 0]"] ;
3 -> 247 ;
248 [label="gini = 0.0\nsamples = 13\nvalue = [13, 0, 0, 0, 0, 0, 0]"] ;
247 -> 248 ;
249 [label="gini = 0.0\nsamples = 2\nvalue = [0, 2, 0, 0, 0, 0, 0]"] ;
247 -> 249 ;
250 [label="X[14] <= 0.277\ngini = 0.536\nsamples = 77\nvalue = [7, 1, 4, 4, 2, 8, 51]"] ;
2 -> 250 ;
251 [label="X[83] <= 0.256\ngini = 0.464\nsamples = 71\nvalue = [1, 1, 4, 4, 2, 8, 51]"] ;
250 -> 251 ;
252 [label="X[136] <= 0.044\ngini = 0.424\nsamples = 68\nvalue = [1, 1, 4, 4, 2, 5, 51]"] ;
251 -> 252 ;
253 [label="X[129] <= 0.202\ngini = 0.726\nsamples = 24\nvalue = [1, 1, 3, 4, 1, 3, 11]"] ;
252 -> 253 ;
254 [label="X[122] <= 0.109\ngini = 0.698\nsamples = 22\nvalue = [1, 1, 3, 2, 1, 3, 11]"] ;
253 -> 254 ;
255 [label="X[133] <= 0.496\ngini = 0.245\nsamples = 7\nvalue = [1, 0, 0, 0, 0, 0, 6]"] ;
254 -> 255 ;
256 [label="gini = 0.0\nsamples = 6\nvalue = [0, 0, 0, 0, 0, 0, 6]"] ;
255 -> 256 ;
257 [label="gini = 0.0\nsamples = 1\nvalue = [1, 0, 0, 0, 0, 0, 0]"] ;
255 -> 257 ;
258 [label="X[124] <= 0.192\ngini = 0.782\nsamples = 15\nvalue = [0, 1, 3, 2, 1, 3, 5]"] ;
254 -> 258 ;
259 [label="X[124] <= 0.066\ngini = 0.719\nsamples = 8\nvalue = [0, 0, 3, 2, 1, 2, 0]"] ;
258 -> 259 ;
260 [label="X[20] <= 0.257\ngini = 0.722\nsamples = 6\nvalue = [0, 0, 1, 2, 1, 2, 0]"] ;
259 -> 260 ;
261 [label="X[36] <= 0.251\ngini = 0.64\nsamples = 5\nvalue = [0, 0, 1, 2, 0, 2, 0]"] ;
260 -> 261 ;
262 [label="X[87] <= 0.192\ngini = 0.5\nsamples = 4\nvalue = [0, 0, 0, 2, 0, 2, 0]"] ;
261 -> 262 ;
263 [label="X[1] <= 0.177\ngini = 0.444\nsamples = 3\nvalue = [0, 0, 0, 1, 0, 2, 0]"] ;
262 -> 263 ;
264 [label="gini = 0.0\nsamples = 2\nvalue = [0, 0, 0, 0, 0, 2, 0]"] ;
263 -> 264 ;
265 [label="gini = 0.0\nsamples = 1\nvalue = [0, 0, 0, 1, 0, 0, 0]"] ;
263 -> 265 ;
266 [label="gini = 0.0\nsamples = 1\nvalue = [0, 0, 0, 1, 0, 0, 0]"] ;
262 -> 266 ;
267 [label="gini = 0.0\nsamples = 1\nvalue = [0, 0, 1, 0, 0, 0, 0]"] ;
261 -> 267 ;
268 [label="gini = 0.0\nsamples = 1\nvalue = [0, 0, 0, 0, 1, 0, 0]"] ;
260 -> 268 ;
269 [label="gini = 0.0\nsamples = 2\nvalue = [0, 0, 2, 0, 0, 0, 0]"] ;
259 -> 269 ;
270 [label="X[106] <= 0.394\ngini = 0.449\nsamples = 7\nvalue = [0, 1, 0, 0, 0, 1, 5]"] ;
258 -> 270 ;
271 [label="X[115] <= 0.334\ngini = 0.278\nsamples = 6\nvalue = [0, 0, 0, 0, 0, 1, 5]"] ;
270 -> 271 ;
272 [label="gini = 0.0\nsamples = 5\nvalue = [0, 0, 0, 0, 0, 0, 5]"] ;
271 -> 272 ;
273 [label="gini = 0.0\nsamples = 1\nvalue = [0, 0, 0, 0, 0, 1, 0]"] ;
271 -> 273 ;
274 [label="gini = 0.0\nsamples = 1\nvalue = [0, 1, 0, 0, 0, 0, 0]"] ;
270 -> 274 ;
275 [label="gini = 0.0\nsamples = 2\nvalue = [0, 0, 0, 2, 0, 0, 0]"] ;
253 -> 275 ;
276 [label="X[106] <= 0.228\ngini = 0.17\nsamples = 44\nvalue = [0, 0, 1, 0, 1, 2, 40]"] ;
252 -> 276 ;
277 [label="X[77] <= 0.144\ngini = 0.132\nsamples = 43\nvalue = [0, 0, 1, 0, 0, 2, 40]"] ;
276 -> 277 ;
278 [label="X[40] <= 0.133\ngini = 0.091\nsamples = 42\nvalue = [0, 0, 0, 0, 0, 2, 40]"] ;
277 -> 278 ;
279 [label="X[94] <= 0.267\ngini = 0.048\nsamples = 41\nvalue = [0, 0, 0, 0, 0, 1, 40]"] ;
278 -> 279 ;
280 [label="gini = 0.0\nsamples = 40\nvalue = [0, 0, 0, 0, 0, 0, 40]"] ;
279 -> 280 ;
281 [label="gini = 0.0\nsamples = 1\nvalue = [0, 0, 0, 0, 0, 1, 0]"] ;
279 -> 281 ;
282 [label="gini = 0.0\nsamples = 1\nvalue = [0, 0, 0, 0, 0, 1, 0]"] ;
278 -> 282 ;
283 [label="gini = 0.0\nsamples = 1\nvalue = [0, 0, 1, 0, 0, 0, 0]"] ;
277 -> 283 ;
284 [label="gini = 0.0\nsamples = 1\nvalue = [0, 0, 0, 0, 1, 0, 0]"] ;
276 -> 284 ;
285 [label="gini = 0.0\nsamples = 3\nvalue = [0, 0, 0, 0, 0, 3, 0]"] ;
251 -> 285 ;
286 [label="gini = 0.0\nsamples = 6\nvalue = [6, 0, 0, 0, 0, 0, 0]"] ;
250 -> 286 ;
287 [label="X[136] <= 0.146\ngini = 0.386\nsamples = 53\nvalue = [3, 0, 0, 5, 1, 41, 3]"] ;
1 -> 287 ;
288 [label="X[2] <= 0.364\ngini = 0.698\nsamples = 13\nvalue = [3, 0, 0, 4, 0, 5, 1]"] ;
287 -> 288 ;
289 [label="X[124] <= 0.118\ngini = 0.571\nsamples = 7\nvalue = [2, 0, 0, 4, 0, 0, 1]"] ;
288 -> 289 ;
290 [label="X[25] <= 0.235\ngini = 0.32\nsamples = 5\nvalue = [0, 0, 0, 4, 0, 0, 1]"] ;
289 -> 290 ;
291 [label="gini = 0.0\nsamples = 4\nvalue = [0, 0, 0, 4, 0, 0, 0]"] ;
290 -> 291 ;
292 [label="gini = 0.0\nsamples = 1\nvalue = [0, 0, 0, 0, 0, 0, 1]"] ;
290 -> 292 ;
293 [label="gini = 0.0\nsamples = 2\nvalue = [2, 0, 0, 0, 0, 0, 0]"] ;
289 -> 293 ;
294 [label="X[14] <= 0.234\ngini = 0.278\nsamples = 6\nvalue = [1, 0, 0, 0, 0, 5, 0]"] ;
288 -> 294 ;
295 [label="gini = 0.0\nsamples = 5\nvalue = [0, 0, 0, 0, 0, 5, 0]"] ;
294 -> 295 ;
296 [label="gini = 0.0\nsamples = 1\nvalue = [1, 0, 0, 0, 0, 0, 0]"] ;
294 -> 296 ;
297 [label="X[124] <= 0.218\ngini = 0.186\nsamples = 40\nvalue = [0, 0, 0, 1, 1, 36, 2]"] ;
287 -> 297 ;
298 [label="X[127] <= 0.174\ngini = 0.101\nsamples = 38\nvalue = [0, 0, 0, 0, 1, 36, 1]"] ;
297 -> 298 ;
299 [label="X[53] <= 0.236\ngini = 0.053\nsamples = 37\nvalue = [0, 0, 0, 0, 1, 36, 0]"] ;
298 -> 299 ;
300 [label="gini = 0.0\nsamples = 36\nvalue = [0, 0, 0, 0, 0, 36, 0]"] ;
299 -> 300 ;
301 [label="gini = 0.0\nsamples = 1\nvalue = [0, 0, 0, 0, 1, 0, 0]"] ;
299 -> 301 ;
302 [label="gini = 0.0\nsamples = 1\nvalue = [0, 0, 0, 0, 0, 0, 1]"] ;
298 -> 302 ;
303 [label="X[122] <= 0.203\ngini = 0.5\nsamples = 2\nvalue = [0, 0, 0, 1, 0, 0, 1]"] ;
297 -> 303 ;
304 [label="gini = 0.0\nsamples = 1\nvalue = [0, 0, 0, 1, 0, 0, 0]"] ;
303 -> 304 ;
305 [label="gini = 0.0\nsamples = 1\nvalue = [0, 0, 0, 0, 0, 0, 1]"] ;
303 -> 305 ;
306 [label="X[139] <= 0.118\ngini = 0.325\nsamples = 90\nvalue = [4, 0, 1, 73, 0, 1, 11]"] ;
0 -> 306 [labeldistance=2.5, labelangle=-45, headlabel="False"] ;
307 [label="X[36] <= 0.121\ngini = 0.244\nsamples = 82\nvalue = [4, 0, 1, 71, 0, 1, 5]"] ;
306 -> 307 ;
308 [label="X[84] <= 0.424\ngini = 0.189\nsamples = 79\nvalue = [4, 0, 1, 71, 0, 1, 2]"] ;
307 -> 308 ;
309 [label="X[66] <= 0.201\ngini = 0.148\nsamples = 77\nvalue = [2, 0, 1, 71, 0, 1, 2]"] ;
308 -> 309 ;
310 [label="X[14] <= 0.505\ngini = 0.103\nsamples = 75\nvalue = [1, 0, 0, 71, 0, 1, 2]"] ;
309 -> 310 ;
311 [label="X[28] <= 0.425\ngini = 0.079\nsamples = 74\nvalue = [0, 0, 0, 71, 0, 1, 2]"] ;
310 -> 311 ;
312 [label="X[62] <= 0.29\ngini = 0.053\nsamples = 73\nvalue = [0, 0, 0, 71, 0, 0, 2]"] ;
311 -> 312 ;
313 [label="X[56] <= 0.159\ngini = 0.027\nsamples = 72\nvalue = [0, 0, 0, 71, 0, 0, 1]"] ;
312 -> 313 ;
314 [label="gini = 0.0\nsamples = 71\nvalue = [0, 0, 0, 71, 0, 0, 0]"] ;
313 -> 314 ;
315 [label="gini = 0.0\nsamples = 1\nvalue = [0, 0, 0, 0, 0, 0, 1]"] ;
313 -> 315 ;
316 [label="gini = 0.0\nsamples = 1\nvalue = [0, 0, 0, 0, 0, 0, 1]"] ;
312 -> 316 ;
317 [label="gini = 0.0\nsamples = 1\nvalue = [0, 0, 0, 0, 0, 1, 0]"] ;
311 -> 317 ;
318 [label="gini = 0.0\nsamples = 1\nvalue = [1, 0, 0, 0, 0, 0, 0]"] ;
310 -> 318 ;
319 [label="X[45] <= 0.223\ngini = 0.5\nsamples = 2\nvalue = [1, 0, 1, 0, 0, 0, 0]"] ;
309 -> 319 ;
320 [label="gini = 0.0\nsamples = 1\nvalue = [1, 0, 0, 0, 0, 0, 0]"] ;
319 -> 320 ;
321 [label="gini = 0.0\nsamples = 1\nvalue = [0, 0, 1, 0, 0, 0, 0]"] ;
319 -> 321 ;
322 [label="gini = 0.0\nsamples = 2\nvalue = [2, 0, 0, 0, 0, 0, 0]"] ;
308 -> 322 ;
323 [label="gini = 0.0\nsamples = 3\nvalue = [0, 0, 0, 0, 0, 0, 3]"] ;
307 -> 323 ;
324 [label="X[19] <= 0.207\ngini = 0.375\nsamples = 8\nvalue = [0, 0, 0, 2, 0, 0, 6]"] ;
306 -> 324 ;
325 [label="gini = 0.0\nsamples = 6\nvalue = [0, 0, 0, 0, 0, 0, 6]"] ;
324 -> 325 ;
326 [label="gini = 0.0\nsamples = 2\nvalue = [0, 0, 0, 2, 0, 0, 0]"] ;
324 -> 326 ;
}
