digraph Tree {
node [shape=box] ;
0 [label="X[44] <= 0.07\ngini = 0.799\nsamples = 567\nvalue = [63, 13, 42, 140, 34, 137, 138]"] ;
1 [label="X[14] <= 0.097\ngini = 0.799\nsamples = 476\nvalue = [59, 13, 41, 66, 34, 136, 127]"] ;
0 -> 1 [labeldistance=2.5, labelangle=45, headlabel="True"] ;
2 [label="X[2] <= 0.231\ngini = 0.787\nsamples = 444\nvalue = [35, 13, 36, 66, 34, 136, 124]"] ;
1 -> 2 ;
3 [label="X[133] <= 0.053\ngini = 0.797\nsamples = 400\nvalue = [34, 13, 36, 62, 33, 100, 122]"] ;
2 -> 3 ;
4 [label="X[43] <= 0.112\ngini = 0.814\nsamples = 332\nvalue = [33, 12, 31, 58, 31, 90, 77]"] ;
3 -> 4 ;
5 [label="X[39] <= 0.173\ngini = 0.804\nsamples = 319\nvalue = [22, 10, 31, 58, 31, 90, 77]"] ;
4 -> 5 ;
6 [label="X[81] <= 0.145\ngini = 0.81\nsamples = 307\nvalue = [22, 10, 31, 58, 31, 78, 77]"] ;
5 -> 6 ;
7 [label="X[136] <= 0.119\ngini = 0.814\nsamples = 289\nvalue = [22, 10, 29, 57, 31, 77, 63]"] ;
6 -> 7 ;
8 [label="X[66] <= 0.406\ngini = 0.831\nsamples = 171\nvalue = [20, 8, 23, 43, 17, 33, 27]"] ;
7 -> 8 ;
9 [label="X[51] <= 0.381\ngini = 0.827\nsamples = 165\nvalue = [20, 8, 17, 43, 17, 33, 27]"] ;
8 -> 9 ;
10 [label="X[13] <= 0.166\ngini = 0.822\nsamples = 159\nvalue = [14, 8, 17, 43, 17, 33, 27]"] ;
9 -> 10 ;
11 [label="X[106] <= 0.226\ngini = 0.815\nsamples = 154\nvalue = [9, 8, 17, 43, 17, 33, 27]"] ;
10 -> 11 ;
12 [label="X[75] <= 0.111\ngini = 0.8\nsamples = 112\nvalue = [9, 3, 12, 38, 16, 17, 17]"] ;
11 -> 12 ;
13 [label="X[36] <= 0.138\ngini = 0.795\nsamples = 108\nvalue = [9, 3, 12, 38, 16, 17, 13]"] ;
12 -> 13 ;
14 [label="X[90] <= 0.463\ngini = 0.785\nsamples = 103\nvalue = [9, 3, 11, 38, 16, 17, 9]"] ;
13 -> 14 ;
15 [label="X[68] <= 0.407\ngini = 0.776\nsamples = 100\nvalue = [9, 3, 11, 38, 16, 17, 6]"] ;
14 -> 15 ;
16 [label="X[103] <= 0.33\ngini = 0.767\nsamples = 95\nvalue = [9, 3, 10, 38, 12, 17, 6]"] ;
15 -> 16 ;
17 [label="X[64] <= 0.123\ngini = 0.763\nsamples = 92\nvalue = [9, 3, 10, 38, 12, 14, 6]"] ;
16 -> 17 ;
18 [label="X[77] <= 0.32\ngini = 0.745\nsamples = 87\nvalue = [9, 2, 7, 38, 12, 13, 6]"] ;
17 -> 18 ;
19 [label="X[5] <= 0.386\ngini = 0.723\nsamples = 82\nvalue = [9, 2, 4, 38, 11, 13, 5]"] ;
18 -> 19 ;
20 [label="X[99] <= 0.179\ngini = 0.714\nsamples = 80\nvalue = [7, 2, 4, 38, 11, 13, 5]"] ;
19 -> 20 ;
21 [label="X[84] <= 0.181\ngini = 0.706\nsamples = 78\nvalue = [7, 2, 4, 38, 9, 13, 5]"] ;
20 -> 21 ;
22 [label="X[27] <= 0.155\ngini = 0.688\nsamples = 71\nvalue = [6, 2, 4, 36, 5, 13, 5]"] ;
21 -> 22 ;
23 [label="X[30] <= 0.279\ngini = 0.672\nsamples = 67\nvalue = [3, 2, 4, 35, 5, 13, 5]"] ;
22 -> 23 ;
24 [label="X[122] <= 0.283\ngini = 0.663\nsamples = 65\nvalue = [3, 2, 4, 35, 5, 11, 5]"] ;
23 -> 24 ;
25 [label="X[105] <= 0.469\ngini = 0.651\nsamples = 63\nvalue = [3, 2, 4, 35, 5, 9, 5]"] ;
24 -> 25 ;
26 [label="X[0] <= 0.244\ngini = 0.636\nsamples = 61\nvalue = [3, 2, 4, 35, 5, 7, 5]"] ;
25 -> 26 ;
27 [label="X[79] <= 0.26\ngini = 0.608\nsamples = 58\nvalue = [3, 2, 4, 35, 4, 5, 5]"] ;
26 -> 27 ;
28 [label="X[120] <= 0.473\ngini = 0.57\nsamples = 55\nvalue = [3, 1, 4, 35, 3, 5, 4]"] ;
27 -> 28 ;
29 [label="X[94] <= 0.194\ngini = 0.54\nsamples = 53\nvalue = [2, 1, 4, 35, 2, 5, 4]"] ;
28 -> 29 ;
30 [label="X[18] <= 0.475\ngini = 0.507\nsamples = 51\nvalue = [2, 1, 3, 35, 1, 5, 4]"] ;
29 -> 30 ;
31 [label="X[73] <= 0.262\ngini = 0.471\nsamples = 49\nvalue = [2, 1, 3, 35, 0, 4, 4]"] ;
30 -> 31 ;
32 [label="X[132] <= 0.612\ngini = 0.395\nsamples = 43\nvalue = [2, 0, 1, 33, 0, 4, 3]"] ;
31 -> 32 ;
33 [label="X[93] <= 0.534\ngini = 0.366\nsamples = 42\nvalue = [2, 0, 0, 33, 0, 4, 3]"] ;
32 -> 33 ;
34 [label="X[80] <= 0.511\ngini = 0.337\nsamples = 41\nvalue = [1, 0, 0, 33, 0, 4, 3]"] ;
33 -> 34 ;
35 [label="X[128] <= 0.756\ngini = 0.304\nsamples = 40\nvalue = [0, 0, 0, 33, 0, 4, 3]"] ;
34 -> 35 ;
36 [label="X[25] <= 0.631\ngini = 0.271\nsamples = 39\nvalue = [0, 0, 0, 33, 0, 4, 2]"] ;
35 -> 36 ;
37 [label="X[89] <= 0.48\ngini = 0.234\nsamples = 38\nvalue = [0, 0, 0, 33, 0, 4, 1]"] ;
36 -> 37 ;
38 [label="X[41] <= 0.316\ngini = 0.193\nsamples = 37\nvalue = [0, 0, 0, 33, 0, 4, 0]"] ;
37 -> 38 ;
39 [label="X[88] <= 0.484\ngini = 0.153\nsamples = 36\nvalue = [0, 0, 0, 33, 0, 3, 0]"] ;
38 -> 39 ;
40 [label="X[126] <= 0.734\ngini = 0.108\nsamples = 35\nvalue = [0, 0, 0, 33, 0, 2, 0]"] ;
39 -> 40 ;
41 [label="X[106] <= 0.042\ngini = 0.057\nsamples = 34\nvalue = [0, 0, 0, 33, 0, 1, 0]"] ;
40 -> 41 ;
42 [label="X[122] <= 0.067\ngini = 0.165\nsamples = 11\nvalue = [0, 0, 0, 10, 0, 1, 0]"] ;
41 -> 42 ;
43 [label="X[144] <= 0.174\ngini = 0.245\nsamples = 7\nvalue = [0, 0, 0, 6, 0, 1, 0]"] ;
42 -> 43 ;
44 [label="X[89] <= 0.157\ngini = 0.32\nsamples = 5\nvalue = [0, 0, 0, 4, 0, 1, 0]"] ;
43 -> 44 ;
45 [label="X[98] <= 0.378\ngini = 0.444\nsamples = 3\nvalue = [0, 0, 0, 2, 0, 1, 0]"] ;
44 -> 45 ;
46 [label="gini = 0.5\nsamples = 2\nvalue = [0, 0, 0, 1, 0, 1, 0]"] ;
45 -> 46 ;
47 [label="gini = 0.0\nsamples = 1\nvalue = [0, 0, 0, 1, 0, 0, 0]"] ;
45 -> 47 ;
48 [label="gini = 0.0\nsamples = 2\nvalue = [0, 0, 0, 2, 0, 0, 0]"] ;
44 -> 48 ;
49 [label="gini = 0.0\nsamples = 2\nvalue = [0, 0, 0, 2, 0, 0, 0]"] ;
43 -> 49 ;
50 [label="gini = 0.0\nsamples = 4\nvalue = [0, 0, 0, 4, 0, 0, 0]"] ;
42 -> 50 ;
51 [label="gini = 0.0\nsamples = 23\nvalue = [0, 0, 0, 23, 0, 0, 0]"] ;
41 -> 51 ;
52 [label="gini = 0.0\nsamples = 1\nvalue = [0, 0, 0, 0, 0, 1, 0]"] ;
40 -> 52 ;
53 [label="gini = 0.0\nsamples = 1\nvalue = [0, 0, 0, 0, 0, 1, 0]"] ;
39 -> 53 ;
54 [label="gini = 0.0\nsamples = 1\nvalue = [0, 0, 0, 0, 0, 1, 0]"] ;
38 -> 54 ;
55 [label="gini = 0.0\nsamples = 1\nvalue = [0, 0, 0, 0, 0, 0, 1]"] ;
37 -> 55 ;
56 [label="gini = 0.0\nsamples = 1\nvalue = [0, 0, 0, 0, 0, 0, 1]"] ;
36 -> 56 ;
57 [label="gini = 0.0\nsamples = 1\nvalue = [0, 0, 0, 0, 0, 0, 1]"] ;
35 -> 57 ;
58 [label="gini = 0.0\nsamples = 1\nvalue = [1, 0, 0, 0, 0, 0, 0]"] ;
34 -> 58 ;
59 [label="gini = 0.0\nsamples = 1\nvalue = [1, 0, 0, 0, 0, 0, 0]"] ;
33 -> 59 ;
60 [label="gini = 0.0\nsamples = 1\nvalue = [0, 0, 1, 0, 0, 0, 0]"] ;
32 -> 60 ;
61 [label="X[89] <= 0.178\ngini = 0.722\nsamples = 6\nvalue = [0, 1, 2, 2, 0, 0, 1]"] ;
31 -> 61 ;
62 [label="X[22] <= 0.171\ngini = 0.625\nsamples = 4\nvalue = [0, 1, 0, 2, 0, 0, 1]"] ;
61 -> 62 ;
63 [label="X[1] <= 0.146\ngini = 0.5\nsamples = 2\nvalue = [0, 1, 0, 0, 0, 0, 1]"] ;
62 -> 63 ;
64 [label="gini = 0.0\nsamples = 1\nvalue = [0, 1, 0, 0, 0, 0, 0]"] ;
63 -> 64 ;
65 [label="gini = 0.0\nsamples = 1\nvalue = [0, 0, 0, 0, 0, 0, 1]"] ;
63 -> 65 ;
66 [label="gini = 0.0\nsamples = 2\nvalue = [0, 0, 0, 2, 0, 0, 0]"] ;
62 -> 66 ;
67 [label="gini = 0.0\nsamples = 2\nvalue = [0, 0, 2, 0, 0, 0, 0]"] ;
61 -> 67 ;
68 [label="X[106] <= 0.176\ngini = 0.5\nsamples = 2\nvalue = [0, 0, 0, 0, 1, 1, 0]"] ;
30 -> 68 ;
69 [label="gini = 0.0\nsamples = 1\nvalue = [0, 0, 0, 0, 1, 0, 0]"] ;
68 -> 69 ;
70 [label="gini = 0.0\nsamples = 1\nvalue = [0, 0, 0, 0, 0, 1, 0]"] ;
68 -> 70 ;
71 [label="X[16] <= 0.187\ngini = 0.5\nsamples = 2\nvalue = [0, 0, 1, 0, 1, 0, 0]"] ;
29 -> 71 ;
72 [label="gini = 0.0\nsamples = 1\nvalue = [0, 0, 1, 0, 0, 0, 0]"] ;
71 -> 72 ;
73 [label="gini = 0.0\nsamples = 1\nvalue = [0, 0, 0, 0, 1, 0, 0]"] ;
71 -> 73 ;
74 [label="X[31] <= 0.308\ngini = 0.5\nsamples = 2\nvalue = [1, 0, 0, 0, 1, 0, 0]"] ;
28 -> 74 ;
75 [label="gini = 0.0\nsamples = 1\nvalue = [0, 0, 0, 0, 1, 0, 0]"] ;
74 -> 75 ;
76 [label="gini = 0.0\nsamples = 1\nvalue = [1, 0, 0, 0, 0, 0, 0]"] ;
74 -> 76 ;
77 [label="X[89] <= 0.137\ngini = 0.667\nsamples = 3\nvalue = [0, 1, 0, 0, 1, 0, 1]"] ;
27 -> 77 ;
78 [label="X[58] <= 0.351\ngini = 0.5\nsamples = 2\nvalue = [0, 1, 0, 0, 1, 0, 0]"] ;
77 -> 78 ;
79 [label="gini = 0.0\nsamples = 1\nvalue = [0, 1, 0, 0, 0, 0, 0]"] ;
78 -> 79 ;
80 [label="gini = 0.0\nsamples = 1\nvalue = [0, 0, 0, 0, 1, 0, 0]"] ;
78 -> 80 ;
81 [label="gini = 0.0\nsamples = 1\nvalue = [0, 0, 0, 0, 0, 0, 1]"] ;
77 -> 81 ;
82 [label="X[0] <= 0.503\ngini = 0.444\nsamples = 3\nvalue = [0, 0, 0, 0, 1, 2, 0]"] ;
26 -> 82 ;
83 [label="gini = 0.0\nsamples = 2\nvalue = [0, 0, 0, 0, 0, 2, 0]"] ;
82 -> 83 ;
84 [label="gini = 0.0\nsamples = 1\nvalue = [0, 0, 0, 0, 1, 0, 0]"] ;
82 -> 84 ;
85 [label="gini = 0.0\nsamples = 2\nvalue = [0, 0, 0, 0, 0, 2, 0]"] ;
25 -> 85 ;
86 [label="gini = 0.0\nsamples = 2\nvalue = [0, 0, 0, 0, 0, 2, 0]"] ;
24 -> 86 ;
87 [label="gini = 0.0\nsamples = 2\nvalue = [0, 0, 0, 0, 0, 2, 0]"] ;
23 -> 87 ;
88 [label="X[111] <= 0.385\ngini = 0.375\nsamples = 4\nvalue = [3, 0, 0, 1, 0, 0, 0]"] ;
22 -> 88 ;
89 [label="gini = 0.0\nsamples = 3\nvalue = [3, 0, 0, 0, 0, 0, 0]"] ;
88 -> 89 ;
90 [label="gini = 0.0\nsamples = 1\nvalue = [0, 0, 0, 1, 0, 0, 0]"] ;
88 -> 90 ;
91 [label="X[1] <= 0.316\ngini = 0.571\nsamples = 7\nvalue = [1, 0, 0, 2, 4, 0, 0]"] ;
21 -> 91 ;
92 [label="X[87] <= 0.252\ngini = 0.32\nsamples = 5\nvalue = [1, 0, 0, 0, 4, 0, 0]"] ;
91 -> 92 ;
93 [label="gini = 0.0\nsamples = 4\nvalue = [0, 0, 0, 0, 4, 0, 0]"] ;
92 -> 93 ;
94 [label="gini = 0.0\nsamples = 1\nvalue = [1, 0, 0, 0, 0, 0, 0]"] ;
92 -> 94 ;
95 [label="gini = 0.0\nsamples = 2\nvalue = [0, 0, 0, 2, 0, 0, 0]"] ;
91 -> 95 ;
96 [label="gini = 0.0\nsamples = 2\nvalue = [0, 0, 0, 0, 2, 0, 0]"] ;
20 -> 96 ;
97 [label="gini = 0.0\nsamples = 2\nvalue = [2, 0, 0, 0, 0, 0, 0]"] ;
19 -> 97 ;
98 [label="X[77] <= 0.577\ngini = 0.56\nsamples = 5\nvalue = [0, 0, 3, 0, 1, 0, 1]"] ;
18 -> 98 ;
99 [label="X[69] <= 0.221\ngini = 0.375\nsamples = 4\nvalue = [0, 0, 3, 0, 1, 0, 0]"] ;
98 -> 99 ;
100 [label="gini = 0.0\nsamples = 3\nvalue = [0, 0, 3, 0, 0, 0, 0]"] ;
99 -> 100 ;
101 [label="gini = 0.0\nsamples = 1\nvalue = [0, 0, 0, 0, 1, 0, 0]"] ;
99 -> 101 ;
102 [label="gini = 0.0\nsamples = 1\nvalue = [0, 0, 0, 0, 0, 0, 1]"] ;
98 -> 102 ;
103 [label="X[94] <= 0.222\ngini = 0.56\nsamples = 5\nvalue = [0, 1, 3, 0, 0, 1, 0]"] ;
17 -> 103 ;
104 [label="X[145] <= 0.26\ngini = 0.375\nsamples = 4\nvalue = [0, 1, 3, 0, 0, 0, 0]"] ;
103 -> 104 ;
105 [label="gini = 0.0\nsamples = 3\nvalue = [0, 0, 3, 0, 0, 0, 0]"] ;
104 -> 105 ;
106 [label="gini = 0.0\nsamples = 1\nvalue = [0, 1, 0, 0, 0, 0, 0]"] ;
104 -> 106 ;
107 [label="gini = 0.0\nsamples = 1\nvalue = [0, 0, 0, 0, 0, 1, 0]"] ;
103 -> 107 ;
108 [label="gini = 0.0\nsamples = 3\nvalue = [0, 0, 0, 0, 0, 3, 0]"] ;
16 -> 108 ;
109 [label="X[70] <= 0.263\ngini = 0.32\nsamples = 5\nvalue = [0, 0, 1, 0, 4, 0, 0]"] ;
15 -> 109 ;
110 [label="gini = 0.0\nsamples = 4\nvalue = [0, 0, 0, 0, 4, 0, 0]"] ;
109 -> 110 ;
111 [label="gini = 0.0\nsamples = 1\nvalue = [0, 0, 1, 0, 0, 0, 0]"] ;
109 -> 111 ;
112 [label="gini = 0.0\nsamples = 3\nvalue = [0, 0, 0, 0, 0, 0, 3]"] ;
14 -> 112 ;
113 [label="X[106] <= 0.104\ngini = 0.32\nsamples = 5\nvalue = [0, 0, 1, 0, 0, 0, 4]"] ;
13 -> 113 ;
114 [label="gini = 0.0\nsamples = 3\nvalue = [0, 0, 0, 0, 0, 0, 3]"] ;
113 -> 114 ;
115 [label="gini = 0.5\nsamples = 2\nvalue = [0, 0, 1, 0, 0, 0, 1]"] ;
113 -> 115 ;
116 [label="gini = 0.0\nsamples = 4\nvalue = [0, 0, 0, 0, 0, 0, 4]"] ;
12 -> 116 ;
117 [label="X[122] <= 0.216\ngini = 0.755\nsamples = 42\nvalue = [0, 5, 5, 5, 1, 16, 10]"] ;
11 -> 117 ;
118 [label="X[24] <= 0.45\ngini = 0.403\nsamples = 12\nvalue = [0, 0, 0, 2, 0, 9, 1]"] ;
117 -> 118 ;
119 [label="X[101] <= 0.478\ngini = 0.298\nsamples = 11\nvalue = [0, 0, 0, 2, 0, 9, 0]"] ;
118 -> 119 ;
120 [label="X[72] <= 0.644\ngini = 0.18\nsamples = 10\nvalue = [0, 0, 0, 1, 0, 9, 0]"] ;
119 -> 120 ;
121 [label="gini = 0.0\nsamples = 9\nvalue = [0, 0, 0, 0, 0, 9, 0]"] ;
120 -> 121 ;
122 [label="gini = 0.0\nsamples = 1\nvalue = [0, 0, 0, 1, 0, 0, 0]"] ;
120 -> 122 ;
123 [label="gini = 0.0\nsamples = 1\nvalue = [0, 0, 0, 1, 0, 0, 0]"] ;
119 -> 123 ;
124 [label="gini = 0.0\nsamples = 1\nvalue = [0, 0, 0, 0, 0, 0, 1]"] ;
118 -> 124 ;
125 [label="X[77] <= 0.211\ngini = 0.789\nsamples = 30\nvalue = [0, 5, 5, 3, 1, 7, 9]"] ;
117 -> 125 ;
126 [label="X[79] <= 0.401\ngini = 0.778\nsamples = 28\nvalue = [0, 5, 3, 3, 1, 7, 9]"] ;
125 -> 126 ;
127 [label="X[103] <= 0.268\ngini = 0.766\nsamples = 26\nvalue = [0, 3, 3, 3, 1, 7, 9]"] ;
126 -> 127 ;
128 [label="X[122] <= 0.279\ngini = 0.767\nsamples = 24\nvalue = [0, 3, 3, 3, 1, 5, 9]"] ;
127 -> 128 ;
129 [label="X[124] <= 0.317\ngini = 0.6\nsamples = 10\nvalue = [0, 1, 0, 1, 1, 1, 6]"] ;
128 -> 129 ;
130 [label="gini = 0.0\nsamples = 4\nvalue = [0, 0, 0, 0, 0, 0, 4]"] ;
129 -> 130 ;
131 [label="X[122] <= 0.235\ngini = 0.778\nsamples = 6\nvalue = [0, 1, 0, 1, 1, 1, 2]"] ;
129 -> 131 ;
132 [label="X[122] <= 0.231\ngini = 0.5\nsamples = 2\nvalue = [0, 0, 0, 1, 0, 1, 0]"] ;
131 -> 132 ;
133 [label="gini = 0.0\nsamples = 1\nvalue = [0, 0, 0, 1, 0, 0, 0]"] ;
132 -> 133 ;
134 [label="gini = 0.0\nsamples = 1\nvalue = [0, 0, 0, 0, 0, 1, 0]"] ;
132 -> 134 ;
135 [label="X[108] <= 0.321\ngini = 0.625\nsamples = 4\nvalue = [0, 1, 0, 0, 1, 0, 2]"] ;
131 -> 135 ;
136 [label="X[78] <= 0.42\ngini = 0.444\nsamples = 3\nvalue = [0, 0, 0, 0, 1, 0, 2]"] ;
135 -> 136 ;
137 [label="gini = 0.0\nsamples = 2\nvalue = [0, 0, 0, 0, 0, 0, 2]"] ;
136 -> 137 ;
138 [label="gini = 0.0\nsamples = 1\nvalue = [0, 0, 0, 0, 1, 0, 0]"] ;
136 -> 138 ;
139 [label="gini = 0.0\nsamples = 1\nvalue = [0, 1, 0, 0, 0, 0, 0]"] ;
135 -> 139 ;
140 [label="X[122] <= 0.413\ngini = 0.786\nsamples = 14\nvalue = [0, 2, 3, 2, 0, 4, 3]"] ;
128 -> 140 ;
141 [label="X[122] <= 0.307\ngini = 0.625\nsamples = 4\nvalue = [0, 2, 1, 0, 0, 1, 0]"] ;
140 -> 141 ;
142 [label="X[50] <= 0.217\ngini = 0.5\nsamples = 2\nvalue = [0, 0, 1, 0, 0, 1, 0]"] ;
141 -> 142 ;
143 [label="gini = 0.0\nsamples = 1\nvalue = [0, 0, 1, 0, 0, 0, 0]"] ;
142 -> 143 ;
144 [label="gini = 0.0\nsamples = 1\nvalue = [0, 0, 0, 0, 0, 1, 0]"] ;
142 -> 144 ;
145 [label="gini = 0.0\nsamples = 2\nvalue = [0, 2, 0, 0, 0, 0, 0]"] ;
141 -> 145 ;
146 [label="X[124] <= 0.345\ngini = 0.74\nsamples = 10\nvalue = [0, 0, 2, 2, 0, 3, 3]"] ;
140 -> 146 ;
147 [label="gini = 0.0\nsamples = 1\nvalue = [0, 0, 0, 1, 0, 0, 0]"] ;
146 -> 147 ;
148 [label="gini = 0.716\nsamples = 9\nvalue = [0, 0, 2, 1, 0, 3, 3]"] ;
146 -> 148 ;
149 [label="gini = 0.0\nsamples = 2\nvalue = [0, 0, 0, 0, 0, 2, 0]"] ;
127 -> 149 ;
150 [label="gini = 0.0\nsamples = 2\nvalue = [0, 2, 0, 0, 0, 0, 0]"] ;
126 -> 150 ;
151 [label="gini = 0.0\nsamples = 2\nvalue = [0, 0, 2, 0, 0, 0, 0]"] ;
125 -> 151 ;
152 [label="gini = 0.0\nsamples = 5\nvalue = [5, 0, 0, 0, 0, 0, 0]"] ;
10 -> 152 ;
153 [label="gini = 0.0\nsamples = 6\nvalue = [6, 0, 0, 0, 0, 0, 0]"] ;
9 -> 153 ;
154 [label="gini = 0.0\nsamples = 6\nvalue = [0, 0, 6, 0, 0, 0, 0]"] ;
8 -> 154 ;
155 [label="X[121] <= 0.309\ngini = 0.737\nsamples = 118\nvalue = [2, 2, 6, 14, 14, 44, 36]"] ;
7 -> 155 ;
156 [label="X[49] <= 0.203\ngini = 0.691\nsamples = 105\nvalue = [1, 2, 5, 9, 8, 44, 36]"] ;
155 -> 156 ;
157 [label="X[83] <= 0.179\ngini = 0.666\nsamples = 100\nvalue = [1, 2, 5, 8, 4, 44, 36]"] ;
156 -> 157 ;
158 [label="X[136] <= 0.233\ngini = 0.681\nsamples = 92\nvalue = [1, 2, 5, 8, 4, 36, 36]"] ;
157 -> 158 ;
159 [label="X[109] <= 0.212\ngini = 0.648\nsamples = 39\nvalue = [0, 1, 3, 4, 2, 8, 21]"] ;
158 -> 159 ;
160 [label="X[122] <= 0.142\ngini = 0.597\nsamples = 36\nvalue = [0, 0, 3, 2, 2, 8, 21]"] ;
159 -> 160 ;
161 [label="X[127] <= 0.414\ngini = 0.415\nsamples = 20\nvalue = [0, 0, 1, 2, 0, 2, 15]"] ;
160 -> 161 ;
162 [label="X[51] <= 0.192\ngini = 0.304\nsamples = 17\nvalue = [0, 0, 1, 0, 0, 2, 14]"] ;
161 -> 162 ;
163 [label="X[31] <= 0.442\ngini = 0.219\nsamples = 16\nvalue = [0, 0, 0, 0, 0, 2, 14]"] ;
162 -> 163 ;
164 [label="X[116] <= 0.178\ngini = 0.124\nsamples = 15\nvalue = [0, 0, 0, 0, 0, 1, 14]"] ;
163 -> 164 ;
165 [label="gini = 0.0\nsamples = 14\nvalue = [0, 0, 0, 0, 0, 0, 14]"] ;
164 -> 165 ;
166 [label="gini = 0.0\nsamples = 1\nvalue = [0, 0, 0, 0, 0, 1, 0]"] ;
164 -> 166 ;
167 [label="gini = 0.0\nsamples = 1\nvalue = [0, 0, 0, 0, 0, 1, 0]"] ;
163 -> 167 ;
168 [label="gini = 0.0\nsamples = 1\nvalue = [0, 0, 1, 0, 0, 0, 0]"] ;
162 -> 168 ;
169 [label="X[51] <= 0.243\ngini = 0.444\nsamples = 3\nvalue = [0, 0, 0, 2, 0, 0, 1]"] ;
161 -> 169 ;
170 [label="gini = 0.0\nsamples = 2\nvalue = [0, 0, 0, 2, 0, 0, 0]"] ;
169 -> 170 ;
171 [label="gini = 0.0\nsamples = 1\nvalue = [0, 0, 0, 0, 0, 0, 1]"] ;
169 -> 171 ;
172 [label="X[106] <= 0.17\ngini = 0.688\nsamples = 16\nvalue = [0, 0, 2, 0, 2, 6, 6]"] ;
160 -> 172 ;
173 [label="X[123] <= 0.209\ngini = 0.667\nsamples = 12\nvalue = [0, 0, 2, 0, 2, 6, 2]"] ;
172 -> 173 ;
174 [label="X[106] <= 0.152\ngini = 0.56\nsamples = 10\nvalue = [0, 0, 2, 0, 2, 6, 0]"] ;
173 -> 174 ;
175 [label="X[137] <= 0.429\ngini = 0.375\nsamples = 8\nvalue = [0, 0, 2, 0, 0, 6, 0]"] ;
174 -> 175 ;
176 [label="X[132] <= 0.576\ngini = 0.245\nsamples = 7\nvalue = [0, 0, 1, 0, 0, 6, 0]"] ;
175 -> 176 ;
177 [label="gini = 0.0\nsamples = 6\nvalue = [0, 0, 0, 0, 0, 6, 0]"] ;
176 -> 177 ;
178 [label="gini = 0.0\nsamples = 1\nvalue = [0, 0, 1, 0, 0, 0, 0]"] ;
176 -> 178 ;
179 [label="gini = 0.0\nsamples = 1\nvalue = [0, 0, 1, 0, 0, 0, 0]"] ;
175 -> 179 ;
180 [label="gini = 0.0\nsamples = 2\nvalue = [0, 0, 0, 0, 2, 0, 0]"] ;
174 -> 180 ;
181 [label="gini = 0.0\nsamples = 2\nvalue = [0, 0, 0, 0, 0, 0, 2]"] ;
173 -> 181 ;
182 [label="gini = 0.0\nsamples = 4\nvalue = [0, 0, 0, 0, 0, 0, 4]"] ;
172 -> 182 ;
183 [label="X[124] <= 0.174\ngini = 0.444\nsamples = 3\nvalue = [0, 1, 0, 2, 0, 0, 0]"] ;
159 -> 183 ;
184 [label="gini = 0.0\nsamples = 1\nvalue = [0, 1, 0, 0, 0, 0, 0]"] ;
183 -> 184 ;
185 [label="gini = 0.0\nsamples = 2\nvalue = [0, 0, 0, 2, 0, 0, 0]"] ;
183 -> 185 ;
186 [label="X[67] <= 0.151\ngini = 0.632\nsamples = 53\nvalue = [1, 1, 2, 4, 2, 28, 15]"] ;
158 -> 186 ;
187 [label="X[65] <= 0.242\ngini = 0.612\nsamples = 49\nvalue = [1, 1, 2, 4, 2, 28, 11]"] ;
186 -> 187 ;
188 [label="X[56] <= 0.453\ngini = 0.58\nsamples = 47\nvalue = [1, 1, 0, 4, 2, 28, 11]"] ;
187 -> 188 ;
189 [label="X[124] <= 0.164\ngini = 0.562\nsamples = 45\nvalue = [1, 1, 0, 4, 2, 28, 9]"] ;
188 -> 189 ;
190 [label="X[73] <= 0.254\ngini = 0.433\nsamples = 30\nvalue = [0, 1, 0, 4, 0, 22, 3]"] ;
189 -> 190 ;
191 [label="X[76] <= 0.468\ngini = 0.37\nsamples = 27\nvalue = [0, 1, 0, 4, 0, 21, 1]"] ;
190 -> 191 ;
192 [label="X[86] <= 0.345\ngini = 0.322\nsamples = 26\nvalue = [0, 1, 0, 4, 0, 21, 0]"] ;
191 -> 192 ;
193 [label="X[70] <= 0.34\ngini = 0.278\nsamples = 25\nvalue = [0, 1, 0, 3, 0, 21, 0]"] ;
192 -> 193 ;
194 [label="X[69] <= 0.466\ngini = 0.226\nsamples = 24\nvalue = [0, 1, 0, 2, 0, 21, 0]"] ;
193 -> 194 ;
195 [label="X[106] <= 0.379\ngini = 0.163\nsamples = 23\nvalue = [0, 1, 0, 1, 0, 21, 0]"] ;
194 -> 195 ;
196 [label="X[120] <= 0.473\ngini = 0.091\nsamples = 21\nvalue = [0, 0, 0, 1, 0, 20, 0]"] ;
195 -> 196 ;
197 [label="gini = 0.0\nsamples = 19\nvalue = [0, 0, 0, 0, 0, 19, 0]"] ;
196 -> 197 ;
198 [label="gini = 0.5\nsamples = 2\nvalue = [0, 0, 0, 1, 0, 1, 0]"] ;
196 -> 198 ;
199 [label="gini = 0.5\nsamples = 2\nvalue = [0, 1, 0, 0, 0, 1, 0]"] ;
195 -> 199 ;
200 [label="gini = 0.0\nsamples = 1\nvalue = [0, 0, 0, 1, 0, 0, 0]"] ;
194 -> 200 ;
201 [label="gini = 0.0\nsamples = 1\nvalue = [0, 0, 0, 1, 0, 0, 0]"] ;
193 -> 201 ;
202 [label="gini = 0.0\nsamples = 1\nvalue = [0, 0, 0, 1, 0, 0, 0]"] ;
192 -> 202 ;
203 [label="gini = 0.0\nsamples = 1\nvalue = [0, 0, 0, 0, 0, 0, 1]"] ;
191 -> 203 ;
204 [label="X[73] <= 0.413\ngini = 0.444\nsamples = 3\nvalue = [0, 0, 0, 0, 0, 1, 2]"] ;
190 -> 204 ;
205 [label="gini = 0.0\nsamples = 2\nvalue = [0, 0, 0, 0, 0, 0, 2]"] ;
204 -> 205 ;
206 [label="gini = 0.0\nsamples = 1\nvalue = [0, 0, 0, 0, 0, 1, 0]"] ;
204 -> 206 ;
207 [label="X[106] <= 0.203\ngini = 0.658\nsamples = 15\nvalue = [1, 0, 0, 0, 2, 6, 6]"] ;
189 -> 207 ;
208 [label="X[11] <= 0.319\ngini = 0.32\nsamples = 5\nvalue = [0, 0, 0, 0, 0, 1, 4]"] ;
207 -> 208 ;
209 [label="gini = 0.0\nsamples = 4\nvalue = [0, 0, 0, 0, 0, 0, 4]"] ;
208 -> 209 ;
210 [label="gini = 0.0\nsamples = 1\nvalue = [0, 0, 0, 0, 0, 1, 0]"] ;
208 -> 210 ;
211 [label="X[122] <= 0.269\ngini = 0.66\nsamples = 10\nvalue = [1, 0, 0, 0, 2, 5, 2]"] ;
207 -> 211 ;
212 [label="gini = 0.0\nsamples = 3\nvalue = [0, 0, 0, 0, 0, 3, 0]"] ;
211 -> 212 ;
213 [label="X[122] <= 0.65\ngini = 0.735\nsamples = 7\nvalue = [1, 0, 0, 0, 2, 2, 2]"] ;
211 -> 213 ;
214 [label="X[106] <= 0.349\ngini = 0.667\nsamples = 6\nvalue = [0, 0, 0, 0, 2, 2, 2]"] ;
213 -> 214 ;
215 [label="gini = 0.0\nsamples = 1\nvalue = [0, 0, 0, 0, 0, 0, 1]"] ;
214 -> 215 ;
216 [label="X[122] <= 0.512\ngini = 0.64\nsamples = 5\nvalue = [0, 0, 0, 0, 2, 2, 1]"] ;
214 -> 216 ;
217 [label="gini = 0.625\nsamples = 4\nvalue = [0, 0, 0, 0, 1, 2, 1]"] ;
216 -> 217 ;
218 [label="gini = 0.0\nsamples = 1\nvalue = [0, 0, 0, 0, 1, 0, 0]"] ;
216 -> 218 ;
219 [label="gini = 0.0\nsamples = 1\nvalue = [1, 0, 0, 0, 0, 0, 0]"] ;
213 -> 219 ;
220 [label="gini = 0.0\nsamples = 2\nvalue = [0, 0, 0, 0, 0, 0, 2]"] ;
188 -> 220 ;
221 [label="gini = 0.0\nsamples = 2\nvalue = [0, 0, 2, 0, 0, 0, 0]"] ;
187 -> 221 ;
222 [label="gini = 0.0\nsamples = 4\nvalue = [0, 0, 0, 0, 0, 0, 4]"] ;
186 -> 222 ;
223 [label="gini = 0.0\nsamples = 8\nvalue = [0, 0, 0, 0, 0, 8, 0]"] ;
157 -> 223 ;
224 [label="X[64] <= 0.237\ngini = 0.32\nsamples = 5\nvalue = [0, 0, 0, 1, 4, 0, 0]"] ;
156 -> 224 ;
225 [label="gini = 0.0\nsamples = 4\nvalue = [0, 0, 0, 0, 4, 0, 0]"] ;
224 -> 225 ;
226 [label="gini = 0.0\nsamples = 1\nvalue = [0, 0, 0, 1, 0, 0, 0]"] ;
224 -> 226 ;
227 [label="X[121] <= 0.421\ngini = 0.627\nsamples = 13\nvalue = [1, 0, 1, 5, 6, 0, 0]"] ;
155 -> 227 ;
228 [label="gini = 0.0\nsamples = 2\nvalue = [0, 0, 0, 2, 0, 0, 0]"] ;
227 -> 228 ;
229 [label="X[88] <= 0.163\ngini = 0.612\nsamples = 11\nvalue = [1, 0, 1, 3, 6, 0, 0]"] ;
227 -> 229 ;
230 [label="X[90] <= 0.23\ngini = 0.54\nsamples = 10\nvalue = [1, 0, 0, 3, 6, 0, 0]"] ;
229 -> 230 ;
231 [label="X[122] <= 0.177\ngini = 0.444\nsamples = 9\nvalue = [0, 0, 0, 3, 6, 0, 0]"] ;
230 -> 231 ;
232 [label="gini = 0.0\nsamples = 3\nvalue = [0, 0, 0, 0, 3, 0, 0]"] ;
231 -> 232 ;
233 [label="X[122] <= 0.199\ngini = 0.5\nsamples = 6\nvalue = [0, 0, 0, 3, 3, 0, 0]"] ;
231 -> 233 ;
234 [label="gini = 0.0\nsamples = 1\nvalue = [0, 0, 0, 1, 0, 0, 0]"] ;
233 -> 234 ;
235 [label="X[124] <= 0.285\ngini = 0.48\nsamples = 5\nvalue = [0, 0, 0, 2, 3, 0, 0]"] ;
233 -> 235 ;
236 [label="gini = 0.5\nsamples = 4\nvalue = [0, 0, 0, 2, 2, 0, 0]"] ;
235 -> 236 ;
237 [label="gini = 0.0\nsamples = 1\nvalue = [0, 0, 0, 0, 1, 0, 0]"] ;
235 -> 237 ;
238 [label="gini = 0.0\nsamples = 1\nvalue = [1, 0, 0, 0, 0, 0, 0]"] ;
230 -> 238 ;
239 [label="gini = 0.0\nsamples = 1\nvalue = [0, 0, 1, 0, 0, 0, 0]"] ;
229 -> 239 ;
240 [label="X[122] <= 0.181\ngini = 0.377\nsamples = 18\nvalue = [0, 0, 2, 1, 0, 1, 14]"] ;
6 -> 240 ;
241 [label="X[35] <= 0.355\ngini = 0.124\nsamples = 15\nvalue = [0, 0, 0, 1, 0, 0, 14]"] ;
240 -> 241 ;
242 [label="gini = 0.0\nsamples = 14\nvalue = [0, 0, 0, 0, 0, 0, 14]"] ;
241 -> 242 ;
243 [label="gini = 0.0\nsamples = 1\nvalue = [0, 0, 0, 1, 0, 0, 0]"] ;
241 -> 243 ;
244 [label="X[67] <= 0.232\ngini = 0.444\nsamples = 3\nvalue = [0, 0, 2, 0, 0, 1, 0]"] ;
240 -> 244 ;
245 [label="gini = 0.0\nsamples = 2\nvalue = [0, 0, 2, 0, 0, 0, 0]"] ;
244 -> 245 ;
246 [label="gini = 0.0\nsamples = 1\nvalue = [0, 0, 0, 0, 0, 1, 0]"] ;
244 -> 246 ;
247 [label="gini = 0.0\nsamples = 12\nvalue = [0, 0, 0, 0, 0, 12, 0]"] ;
5 -> 247 ;
248 [label="X[88] <= 0.477\ngini = 0.26\nsamples = 13\nvalue = [11, 2, 0, 0, 0, 0, 0]"] ;
4 -> 248 ;
249 [label="X[43] <= 0.672\ngini = 0.153\nsamples = 12\nvalue = [11, 1, 0, 0, 0, 0, 0]"] ;
248 -> 249 ;
250 [label="gini = 0.0\nsamples = 11\nvalue = [11, 0, 0, 0, 0, 0, 0]"] ;
249 -> 250 ;
251 [label="gini = 0.0\nsamples = 1\nvalue = [0, 1, 0, 0, 0, 0, 0]"] ;
249 -> 251 ;
252 [label="gini = 0.0\nsamples = 1\nvalue = [0, 1, 0, 0, 0, 0, 0]"] ;
248 -> 252 ;
253 [label="X[123] <= 0.133\ngini = 0.53\nsamples = 68\nvalue = [1, 1, 5, 4, 2, 10, 45]"] ;
3 -> 253 ;
254 [label="X[83] <= 0.256\ngini = 0.477\nsamples = 64\nvalue = [1, 1, 2, 3, 2, 10, 45]"] ;
253 -> 254 ;
255 [label="X[136] <= 0.044\ngini = 0.438\nsamples = 61\nvalue = [1, 1, 2, 3, 2, 7, 45]"] ;
254 -> 255 ;
256 [label="X[129] <= 0.202\ngini = 0.744\nsamples = 21\nvalue = [1, 1, 2, 3, 1, 4, 9]"] ;
255 -> 256 ;
257 [label="X[49] <= 0.268\ngini = 0.709\nsamples = 19\nvalue = [1, 1, 2, 1, 1, 4, 9]"] ;
256 -> 257 ;
258 [label="X[122] <= 0.055\ngini = 0.644\nsamples = 17\nvalue = [0, 1, 2, 1, 0, 4, 9]"] ;
257 -> 258 ;
259 [label="gini = 0.0\nsamples = 4\nvalue = [0, 0, 0, 0, 0, 0, 4]"] ;
258 -> 259 ;
260 [label="X[106] <= 0.139\ngini = 0.722\nsamples = 13\nvalue = [0, 1, 2, 1, 0, 4, 5]"] ;
258 -> 260 ;
261 [label="X[133] <= 0.253\ngini = 0.611\nsamples = 6\nvalue = [0, 0, 2, 1, 0, 3, 0]"] ;
260 -> 261 ;
262 [label="gini = 0.0\nsamples = 1\nvalue = [0, 0, 0, 1, 0, 0, 0]"] ;
261 -> 262 ;
263 [label="X[106] <= 0.051\ngini = 0.48\nsamples = 5\nvalue = [0, 0, 2, 0, 0, 3, 0]"] ;
261 -> 263 ;
264 [label="X[10] <= 0.305\ngini = 0.375\nsamples = 4\nvalue = [0, 0, 1, 0, 0, 3, 0]"] ;
263 -> 264 ;
265 [label="gini = 0.0\nsamples = 3\nvalue = [0, 0, 0, 0, 0, 3, 0]"] ;
264 -> 265 ;
266 [label="gini = 0.0\nsamples = 1\nvalue = [0, 0, 1, 0, 0, 0, 0]"] ;
264 -> 266 ;
267 [label="gini = 0.0\nsamples = 1\nvalue = [0, 0, 1, 0, 0, 0, 0]"] ;
263 -> 267 ;
268 [label="X[117] <= 0.268\ngini = 0.449\nsamples = 7\nvalue = [0, 1, 0, 0, 0, 1, 5]"] ;
260 -> 268 ;
269 [label="X[122] <= 0.364\ngini = 0.278\nsamples = 6\nvalue = [0, 1, 0, 0, 0, 0, 5]"] ;
268 -> 269 ;
270 [label="gini = 0.0\nsamples = 5\nvalue = [0, 0, 0, 0, 0, 0, 5]"] ;
269 -> 270 ;
271 [label="gini = 0.0\nsamples = 1\nvalue = [0, 1, 0, 0, 0, 0, 0]"] ;
269 -> 271 ;
272 [label="gini = 0.0\nsamples = 1\nvalue = [0, 0, 0, 0, 0, 1, 0]"] ;
268 -> 272 ;
273 [label="X[20] <= 0.257\ngini = 0.5\nsamples = 2\nvalue = [1, 0, 0, 0, 1, 0, 0]"] ;
257 -> 273 ;
274 [label="gini = 0.0\nsamples = 1\nvalue = [1, 0, 0, 0, 0, 0, 0]"] ;
273 -> 274 ;
275 [label="gini = 0.0\nsamples = 1\nvalue = [0, 0, 0, 0, 1, 0, 0]"] ;
273 -> 275 ;
276 [label="gini = 0.0\nsamples = 2\nvalue = [0, 0, 0, 2, 0, 0, 0]"] ;
256 -> 276 ;
277 [label="X[78] <= 0.532\ngini = 0.184\nsamples = 40\nvalue = [0, 0, 0, 0, 1, 3, 36]"] ;
255 -> 277 ;
278 [label="X[102] <= 0.25\ngini = 0.142\nsamples = 39\nvalue = [0, 0, 0, 0, 0, 3, 36]"] ;
277 -> 278 ;
279 [label="X[94] <= 0.267\ngini = 0.1\nsamples = 38\nvalue = [0, 0, 0, 0, 0, 2, 36]"] ;
278 -> 279 ;
280 [label="X[40] <= 0.133\ngini = 0.053\nsamples = 37\nvalue = [0, 0, 0, 0, 0, 1, 36]"] ;
279 -> 280 ;
281 [label="gini = 0.0\nsamples = 36\nvalue = [0, 0, 0, 0, 0, 0, 36]"] ;
280 -> 281 ;
282 [label="gini = 0.0\nsamples = 1\nvalue = [0, 0, 0, 0, 0, 1, 0]"] ;
280 -> 282 ;
283 [label="gini = 0.0\nsamples = 1\nvalue = [0, 0, 0, 0, 0, 1, 0]"] ;
279 -> 283 ;
284 [label="gini = 0.0\nsamples = 1\nvalue = [0, 0, 0, 0, 0, 1, 0]"] ;
278 -> 284 ;
285 [label="gini = 0.0\nsamples = 1\nvalue = [0, 0, 0, 0, 1, 0, 0]"] ;
277 -> 285 ;
286 [label="gini = 0.0\nsamples = 3\nvalue = [0, 0, 0, 0, 0, 3, 0]"] ;
254 -> 286 ;
287 [label="X[74] <= 0.291\ngini = 0.375\nsamples = 4\nvalue = [0, 0, 3, 1, 0, 0, 0]"] ;
253 -> 287 ;
288 [label="gini = 0.0\nsamples = 3\nvalue = [0, 0, 3, 0, 0, 0, 0]"] ;
287 -> 288 ;
289 [label="gini = 0.0\nsamples = 1\nvalue = [0, 0, 0, 1, 0, 0, 0]"] ;
287 -> 289 ;
290 [label="X[113] <= 0.127\ngini = 0.319\nsamples = 44\nvalue = [1, 0, 0, 4, 1, 36, 2]"] ;
2 -> 290 ;
291 [label="X[0] <= 0.458\ngini = 0.191\nsamples = 39\nvalue = [0, 0, 0, 1, 1, 35, 2]"] ;
290 -> 291 ;
292 [label="X[71] <= 0.284\ngini = 0.148\nsamples = 38\nvalue = [0, 0, 0, 1, 0, 35, 2]"] ;
291 -> 292 ;
293 [label="X[75] <= 0.238\ngini = 0.102\nsamples = 37\nvalue = [0, 0, 0, 0, 0, 35, 2]"] ;
292 -> 293 ;
294 [label="X[120] <= 0.264\ngini = 0.054\nsamples = 36\nvalue = [0, 0, 0, 0, 0, 35, 1]"] ;
293 -> 294 ;
295 [label="gini = 0.0\nsamples = 35\nvalue = [0, 0, 0, 0, 0, 35, 0]"] ;
294 -> 295 ;
296 [label="gini = 0.0\nsamples = 1\nvalue = [0, 0, 0, 0, 0, 0, 1]"] ;
294 -> 296 ;
297 [label="gini = 0.0\nsamples = 1\nvalue = [0, 0, 0, 0, 0, 0, 1]"] ;
293 -> 297 ;
298 [label="gini = 0.0\nsamples = 1\nvalue = [0, 0, 0, 1, 0, 0, 0]"] ;
292 -> 298 ;
299 [label="gini = 0.0\nsamples = 1\nvalue = [0, 0, 0, 0, 1, 0, 0]"] ;
291 -> 299 ;
300 [label="X[113] <= 0.403\ngini = 0.56\nsamples = 5\nvalue = [1, 0, 0, 3, 0, 1, 0]"] ;
290 -> 300 ;
301 [label="gini = 0.0\nsamples = 3\nvalue = [0, 0, 0, 3, 0, 0, 0]"] ;
300 -> 301 ;
302 [label="X[57] <= 0.221\ngini = 0.5\nsamples = 2\nvalue = [1, 0, 0, 0, 0, 1, 0]"] ;
300 -> 302 ;
303 [label="gini = 0.0\nsamples = 1\nvalue = [0, 0, 0, 0, 0, 1, 0]"] ;
302 -> 303 ;
304 [label="gini = 0.0\nsamples = 1\nvalue = [1, 0, 0, 0, 0, 0, 0]"] ;
302 -> 304 ;
305 [label="X[117] <= 0.31\ngini = 0.404\nsamples = 32\nvalue = [24, 0, 5, 0, 0, 0, 3]"] ;
1 -> 305 ;
306 [label="X[67] <= 0.171\ngini = 0.255\nsamples = 28\nvalue = [24, 0, 2, 0, 0, 0, 2]"] ;
305 -> 306 ;
307 [label="X[4] <= 0.23\ngini = 0.203\nsamples = 27\nvalue = [24, 0, 1, 0, 0, 0, 2]"] ;
306 -> 307 ;
308 [label="X[8] <= 0.219\ngini = 0.142\nsamples = 26\nvalue = [24, 0, 0, 0, 0, 0, 2]"] ;
307 -> 308 ;
309 [label="X[140] <= 0.181\ngini = 0.077\nsamples = 25\nvalue = [24, 0, 0, 0, 0, 0, 1]"] ;
308 -> 309 ;
310 [label="gini = 0.0\nsamples = 24\nvalue = [24, 0, 0, 0, 0, 0, 0]"] ;
309 -> 310 ;
311 [label="gini = 0.0\nsamples = 1\nvalue = [0, 0, 0, 0, 0, 0, 1]"] ;
309 -> 311 ;
312 [label="gini = 0.0\nsamples = 1\nvalue = [0, 0, 0, 0, 0, 0, 1]"] ;
308 -> 312 ;
313 [label="gini = 0.0\nsamples = 1\nvalue = [0, 0, 1, 0, 0, 0, 0]"] ;
307 -> 313 ;
314 [label="gini = 0.0\nsamples = 1\nvalue = [0, 0, 1, 0, 0, 0, 0]"] ;
306 -> 314 ;
315 [label="X[106] <= 0.169\ngini = 0.375\nsamples = 4\nvalue = [0, 0, 3, 0, 0, 0, 1]"] ;
305 -> 315 ;
316 [label="gini = 0.0\nsamples = 1\nvalue = [0, 0, 0, 0, 0, 0, 1]"] ;
315 -> 316 ;
317 [label="gini = 0.0\nsamples = 3\nvalue = [0, 0, 3, 0, 0, 0, 0]"] ;
315 -> 317 ;
318 [label="X[137] <= 0.17\ngini = 0.322\nsamples = 91\nvalue = [4, 0, 1, 74, 0, 1, 11]"] ;
0 -> 318 [labeldistance=2.5, labelangle=-45, headlabel="False"] ;
319 [label="X[139] <= 0.127\ngini = 0.268\nsamples = 87\nvalue = [4, 0, 1, 74, 0, 1, 7]"] ;
318 -> 319 ;
320 [label="X[84] <= 0.368\ngini = 0.206\nsamples = 81\nvalue = [4, 0, 1, 72, 0, 1, 3]"] ;
319 -> 320 ;
321 [label="X[66] <= 0.201\ngini = 0.167\nsamples = 79\nvalue = [2, 0, 1, 72, 0, 1, 3]"] ;
320 -> 321 ;
322 [label="X[8] <= 0.248\ngini = 0.124\nsamples = 77\nvalue = [1, 0, 0, 72, 0, 1, 3]"] ;
321 -> 322 ;
323 [label="X[110] <= 0.201\ngini = 0.078\nsamples = 75\nvalue = [1, 0, 0, 72, 0, 0, 2]"] ;
322 -> 323 ;
324 [label="X[36] <= 0.121\ngini = 0.053\nsamples = 74\nvalue = [0, 0, 0, 72, 0, 0, 2]"] ;
323 -> 324 ;
325 [label="X[62] <= 0.29\ngini = 0.027\nsamples = 73\nvalue = [0, 0, 0, 72, 0, 0, 1]"] ;
324 -> 325 ;
326 [label="gini = 0.0\nsamples = 72\nvalue = [0, 0, 0, 72, 0, 0, 0]"] ;
325 -> 326 ;
327 [label="gini = 0.0\nsamples = 1\nvalue = [0, 0, 0, 0, 0, 0, 1]"] ;
325 -> 327 ;
328 [label="gini = 0.0\nsamples = 1\nvalue = [0, 0, 0, 0, 0, 0, 1]"] ;
324 -> 328 ;
329 [label="gini = 0.0\nsamples = 1\nvalue = [1, 0, 0, 0, 0, 0, 0]"] ;
323 -> 329 ;
330 [label="X[88] <= 0.153\ngini = 0.5\nsamples = 2\nvalue = [0, 0, 0, 0, 0, 1, 1]"] ;
322 -> 330 ;
331 [label="gini = 0.0\nsamples = 1\nvalue = [0, 0, 0, 0, 0, 1, 0]"] ;
330 -> 331 ;
332 [label="gini = 0.0\nsamples = 1\nvalue = [0, 0, 0, 0, 0, 0, 1]"] ;
330 -> 332 ;
333 [label="X[126] <= 0.176\ngini = 0.5\nsamples = 2\nvalue = [1, 0, 1, 0, 0, 0, 0]"] ;
321 -> 333 ;
334 [label="gini = 0.0\nsamples = 1\nvalue = [1, 0, 0, 0, 0, 0, 0]"] ;
333 -> 334 ;
335 [label="gini = 0.0\nsamples = 1\nvalue = [0, 0, 1, 0, 0, 0, 0]"] ;
333 -> 335 ;
336 [label="gini = 0.0\nsamples = 2\nvalue = [2, 0, 0, 0, 0, 0, 0]"] ;
320 -> 336 ;
337 [label="X[19] <= 0.207\ngini = 0.444\nsamples = 6\nvalue = [0, 0, 0, 2, 0, 0, 4]"] ;
319 -> 337 ;
338 [label="gini = 0.0\nsamples = 4\nvalue = [0, 0, 0, 0, 0, 0, 4]"] ;
337 -> 338 ;
339 [label="gini = 0.0\nsamples = 2\nvalue = [0, 0, 0, 2, 0, 0, 0]"] ;
337 -> 339 ;
340 [label="gini = 0.0\nsamples = 4\nvalue = [0, 0, 0, 0, 0, 0, 4]"] ;
318 -> 340 ;
}
