digraph Tree {
node [shape=box] ;
0 [label="X[44] <= 0.07\ngini = 0.799\nsamples = 567\nvalue = [63, 13, 42, 140, 34, 137, 138]"] ;
1 [label="X[14] <= 0.303\ngini = 0.8\nsamples = 476\nvalue = [59, 13, 41, 67, 34, 136, 126]"] ;
0 -> 1 [labeldistance=2.5, labelangle=45, headlabel="True"] ;
2 [label="X[133] <= 0.053\ngini = 0.788\nsamples = 448\nvalue = [36, 13, 37, 67, 34, 136, 125]"] ;
1 -> 2 ;
3 [label="X[136] <= 0.119\ngini = 0.797\nsamples = 374\nvalue = [35, 12, 32, 63, 33, 123, 76]"] ;
2 -> 3 ;
4 [label="X[43] <= 0.112\ngini = 0.828\nsamples = 214\nvalue = [32, 8, 23, 50, 20, 47, 34]"] ;
3 -> 4 ;
5 [label="X[13] <= 0.324\ngini = 0.823\nsamples = 202\nvalue = [22, 7, 23, 49, 20, 47, 34]"] ;
4 -> 5 ;
6 [label="X[66] <= 0.374\ngini = 0.817\nsamples = 195\nvalue = [15, 7, 23, 49, 20, 47, 34]"] ;
5 -> 6 ;
7 [label="X[39] <= 0.229\ngini = 0.811\nsamples = 188\nvalue = [15, 7, 16, 49, 20, 47, 34]"] ;
6 -> 7 ;
8 [label="X[81] <= 0.145\ngini = 0.815\nsamples = 179\nvalue = [15, 7, 16, 49, 20, 38, 34]"] ;
7 -> 8 ;
9 [label="X[106] <= 0.226\ngini = 0.815\nsamples = 170\nvalue = [15, 7, 16, 48, 20, 38, 26]"] ;
8 -> 9 ;
10 [label="X[75] <= 0.111\ngini = 0.806\nsamples = 126\nvalue = [15, 3, 11, 41, 19, 19, 18]"] ;
9 -> 10 ;
11 [label="X[51] <= 0.381\ngini = 0.8\nsamples = 121\nvalue = [15, 3, 11, 41, 19, 19, 13]"] ;
10 -> 11 ;
12 [label="X[2] <= 0.346\ngini = 0.794\nsamples = 117\nvalue = [11, 3, 11, 41, 19, 19, 13]"] ;
11 -> 12 ;
13 [label="X[50] <= 0.402\ngini = 0.79\nsamples = 113\nvalue = [11, 3, 11, 41, 19, 15, 13]"] ;
12 -> 13 ;
14 [label="X[36] <= 0.138\ngini = 0.785\nsamples = 109\nvalue = [11, 3, 11, 41, 15, 15, 13]"] ;
13 -> 14 ;
15 [label="X[5] <= 0.673\ngini = 0.774\nsamples = 104\nvalue = [11, 3, 10, 41, 15, 15, 9]"] ;
14 -> 15 ;
16 [label="X[103] <= 0.33\ngini = 0.766\nsamples = 101\nvalue = [8, 3, 10, 41, 15, 15, 9]"] ;
15 -> 16 ;
17 [label="X[33] <= 0.198\ngini = 0.76\nsamples = 98\nvalue = [8, 3, 10, 41, 15, 12, 9]"] ;
16 -> 17 ;
18 [label="X[95] <= 0.141\ngini = 0.747\nsamples = 94\nvalue = [8, 3, 7, 41, 15, 12, 8]"] ;
17 -> 18 ;
19 [label="X[80] <= 0.153\ngini = 0.77\nsamples = 88\nvalue = [8, 3, 7, 35, 15, 12, 8]"] ;
18 -> 19 ;
20 [label="X[90] <= 0.358\ngini = 0.759\nsamples = 85\nvalue = [5, 3, 7, 35, 15, 12, 8]"] ;
19 -> 20 ;
21 [label="X[21] <= 0.154\ngini = 0.755\nsamples = 78\nvalue = [5, 3, 7, 32, 15, 12, 4]"] ;
20 -> 21 ;
22 [label="X[89] <= 0.259\ngini = 0.74\nsamples = 73\nvalue = [4, 3, 4, 31, 15, 12, 4]"] ;
21 -> 22 ;
23 [label="X[121] <= 0.575\ngini = 0.708\nsamples = 64\nvalue = [3, 3, 3, 30, 11, 12, 2]"] ;
22 -> 23 ;
24 [label="X[99] <= 0.179\ngini = 0.699\nsamples = 62\nvalue = [3, 3, 3, 30, 9, 12, 2]"] ;
23 -> 24 ;
25 [label="X[117] <= 0.372\ngini = 0.679\nsamples = 59\nvalue = [3, 3, 2, 30, 7, 12, 2]"] ;
24 -> 25 ;
26 [label="X[102] <= 0.348\ngini = 0.669\nsamples = 57\nvalue = [3, 3, 2, 30, 7, 10, 2]"] ;
25 -> 26 ;
27 [label="X[29] <= 0.429\ngini = 0.657\nsamples = 55\nvalue = [3, 3, 2, 30, 7, 8, 2]"] ;
26 -> 27 ;
28 [label="X[18] <= 0.381\ngini = 0.638\nsamples = 51\nvalue = [3, 3, 2, 29, 7, 5, 2]"] ;
27 -> 28 ;
29 [label="X[77] <= 0.32\ngini = 0.606\nsamples = 48\nvalue = [3, 3, 2, 29, 5, 4, 2]"] ;
28 -> 29 ;
30 [label="X[94] <= 0.194\ngini = 0.574\nsamples = 46\nvalue = [3, 3, 1, 29, 5, 4, 1]"] ;
29 -> 30 ;
31 [label="X[79] <= 0.303\ngini = 0.539\nsamples = 44\nvalue = [3, 3, 0, 29, 4, 4, 1]"] ;
30 -> 31 ;
32 [label="X[93] <= 0.526\ngini = 0.501\nsamples = 42\nvalue = [3, 2, 0, 29, 3, 4, 1]"] ;
31 -> 32 ;
33 [label="X[31] <= 0.222\ngini = 0.456\nsamples = 40\nvalue = [2, 2, 0, 29, 2, 4, 1]"] ;
32 -> 33 ;
34 [label="X[0] <= 0.244\ngini = 0.402\nsamples = 38\nvalue = [1, 2, 0, 29, 1, 4, 1]"] ;
33 -> 34 ;
35 [label="X[25] <= 0.631\ngini = 0.34\nsamples = 36\nvalue = [1, 2, 0, 29, 0, 3, 1]"] ;
34 -> 35 ;
36 [label="X[123] <= 0.365\ngini = 0.302\nsamples = 35\nvalue = [1, 2, 0, 29, 0, 3, 0]"] ;
35 -> 36 ;
37 [label="X[64] <= 0.226\ngini = 0.261\nsamples = 34\nvalue = [0, 2, 0, 29, 0, 3, 0]"] ;
36 -> 37 ;
38 [label="X[38] <= 0.42\ngini = 0.219\nsamples = 33\nvalue = [0, 1, 0, 29, 0, 3, 0]"] ;
37 -> 38 ;
39 [label="X[126] <= 0.759\ngini = 0.17\nsamples = 32\nvalue = [0, 0, 0, 29, 0, 3, 0]"] ;
38 -> 39 ;
40 [label="X[105] <= 0.341\ngini = 0.121\nsamples = 31\nvalue = [0, 0, 0, 29, 0, 2, 0]"] ;
39 -> 40 ;
41 [label="X[122] <= 0.039\ngini = 0.064\nsamples = 30\nvalue = [0, 0, 0, 29, 0, 1, 0]"] ;
40 -> 41 ;
42 [label="X[106] <= 0.07\ngini = 0.198\nsamples = 9\nvalue = [0, 0, 0, 8, 0, 1, 0]"] ;
41 -> 42 ;
43 [label="X[98] <= 0.31\ngini = 0.32\nsamples = 5\nvalue = [0, 0, 0, 4, 0, 1, 0]"] ;
42 -> 43 ;
44 [label="X[118] <= 0.191\ngini = 0.444\nsamples = 3\nvalue = [0, 0, 0, 2, 0, 1, 0]"] ;
43 -> 44 ;
45 [label="gini = 0.5\nsamples = 2\nvalue = [0, 0, 0, 1, 0, 1, 0]"] ;
44 -> 45 ;
46 [label="gini = 0.0\nsamples = 1\nvalue = [0, 0, 0, 1, 0, 0, 0]"] ;
44 -> 46 ;
47 [label="gini = 0.0\nsamples = 2\nvalue = [0, 0, 0, 2, 0, 0, 0]"] ;
43 -> 47 ;
48 [label="gini = 0.0\nsamples = 4\nvalue = [0, 0, 0, 4, 0, 0, 0]"] ;
42 -> 48 ;
49 [label="gini = 0.0\nsamples = 21\nvalue = [0, 0, 0, 21, 0, 0, 0]"] ;
41 -> 49 ;
50 [label="gini = 0.0\nsamples = 1\nvalue = [0, 0, 0, 0, 0, 1, 0]"] ;
40 -> 50 ;
51 [label="gini = 0.0\nsamples = 1\nvalue = [0, 0, 0, 0, 0, 1, 0]"] ;
39 -> 51 ;
52 [label="gini = 0.0\nsamples = 1\nvalue = [0, 1, 0, 0, 0, 0, 0]"] ;
38 -> 52 ;
53 [label="gini = 0.0\nsamples = 1\nvalue = [0, 1, 0, 0, 0, 0, 0]"] ;
37 -> 53 ;
54 [label="gini = 0.0\nsamples = 1\nvalue = [1, 0, 0, 0, 0, 0, 0]"] ;
36 -> 54 ;
55 [label="gini = 0.0\nsamples = 1\nvalue = [0, 0, 0, 0, 0, 0, 1]"] ;
35 -> 55 ;
56 [label="X[122] <= 0.198\ngini = 0.5\nsamples = 2\nvalue = [0, 0, 0, 0, 1, 1, 0]"] ;
34 -> 56 ;
57 [label="gini = 0.0\nsamples = 1\nvalue = [0, 0, 0, 0, 0, 1, 0]"] ;
56 -> 57 ;
58 [label="gini = 0.0\nsamples = 1\nvalue = [0, 0, 0, 0, 1, 0, 0]"] ;
56 -> 58 ;
59 [label="X[91] <= 0.24\ngini = 0.5\nsamples = 2\nvalue = [1, 0, 0, 0, 1, 0, 0]"] ;
33 -> 59 ;
60 [label="gini = 0.0\nsamples = 1\nvalue = [1, 0, 0, 0, 0, 0, 0]"] ;
59 -> 60 ;
61 [label="gini = 0.0\nsamples = 1\nvalue = [0, 0, 0, 0, 1, 0, 0]"] ;
59 -> 61 ;
62 [label="X[106] <= 0.173\ngini = 0.5\nsamples = 2\nvalue = [1, 0, 0, 0, 1, 0, 0]"] ;
32 -> 62 ;
63 [label="gini = 0.0\nsamples = 1\nvalue = [0, 0, 0, 0, 1, 0, 0]"] ;
62 -> 63 ;
64 [label="gini = 0.0\nsamples = 1\nvalue = [1, 0, 0, 0, 0, 0, 0]"] ;
62 -> 64 ;
65 [label="X[57] <= 0.345\ngini = 0.5\nsamples = 2\nvalue = [0, 1, 0, 0, 1, 0, 0]"] ;
31 -> 65 ;
66 [label="gini = 0.0\nsamples = 1\nvalue = [0, 0, 0, 0, 1, 0, 0]"] ;
65 -> 66 ;
67 [label="gini = 0.0\nsamples = 1\nvalue = [0, 1, 0, 0, 0, 0, 0]"] ;
65 -> 67 ;
68 [label="X[106] <= 0.055\ngini = 0.5\nsamples = 2\nvalue = [0, 0, 1, 0, 1, 0, 0]"] ;
30 -> 68 ;
69 [label="gini = 0.0\nsamples = 1\nvalue = [0, 0, 1, 0, 0, 0, 0]"] ;
68 -> 69 ;
70 [label="gini = 0.0\nsamples = 1\nvalue = [0, 0, 0, 0, 1, 0, 0]"] ;
68 -> 70 ;
71 [label="X[7] <= 0.183\ngini = 0.5\nsamples = 2\nvalue = [0, 0, 1, 0, 0, 0, 1]"] ;
29 -> 71 ;
72 [label="gini = 0.0\nsamples = 1\nvalue = [0, 0, 0, 0, 0, 0, 1]"] ;
71 -> 72 ;
73 [label="gini = 0.0\nsamples = 1\nvalue = [0, 0, 1, 0, 0, 0, 0]"] ;
71 -> 73 ;
74 [label="X[124] <= 0.077\ngini = 0.444\nsamples = 3\nvalue = [0, 0, 0, 0, 2, 1, 0]"] ;
28 -> 74 ;
75 [label="gini = 0.0\nsamples = 1\nvalue = [0, 0, 0, 0, 0, 1, 0]"] ;
74 -> 75 ;
76 [label="gini = 0.0\nsamples = 2\nvalue = [0, 0, 0, 0, 2, 0, 0]"] ;
74 -> 76 ;
77 [label="X[129] <= 0.159\ngini = 0.375\nsamples = 4\nvalue = [0, 0, 0, 1, 0, 3, 0]"] ;
27 -> 77 ;
78 [label="gini = 0.0\nsamples = 3\nvalue = [0, 0, 0, 0, 0, 3, 0]"] ;
77 -> 78 ;
79 [label="gini = 0.0\nsamples = 1\nvalue = [0, 0, 0, 1, 0, 0, 0]"] ;
77 -> 79 ;
80 [label="gini = 0.0\nsamples = 2\nvalue = [0, 0, 0, 0, 0, 2, 0]"] ;
26 -> 80 ;
81 [label="gini = 0.0\nsamples = 2\nvalue = [0, 0, 0, 0, 0, 2, 0]"] ;
25 -> 81 ;
82 [label="X[123] <= 0.112\ngini = 0.444\nsamples = 3\nvalue = [0, 0, 1, 0, 2, 0, 0]"] ;
24 -> 82 ;
83 [label="gini = 0.0\nsamples = 2\nvalue = [0, 0, 0, 0, 2, 0, 0]"] ;
82 -> 83 ;
84 [label="gini = 0.0\nsamples = 1\nvalue = [0, 0, 1, 0, 0, 0, 0]"] ;
82 -> 84 ;
85 [label="gini = 0.0\nsamples = 2\nvalue = [0, 0, 0, 0, 2, 0, 0]"] ;
23 -> 85 ;
86 [label="X[35] <= 0.242\ngini = 0.716\nsamples = 9\nvalue = [1, 0, 1, 1, 4, 0, 2]"] ;
22 -> 86 ;
87 [label="X[106] <= 0.063\ngini = 0.612\nsamples = 7\nvalue = [1, 0, 1, 1, 4, 0, 0]"] ;
86 -> 87 ;
88 [label="X[23] <= 0.2\ngini = 0.5\nsamples = 2\nvalue = [0, 0, 1, 1, 0, 0, 0]"] ;
87 -> 88 ;
89 [label="gini = 0.0\nsamples = 1\nvalue = [0, 0, 0, 1, 0, 0, 0]"] ;
88 -> 89 ;
90 [label="gini = 0.0\nsamples = 1\nvalue = [0, 0, 1, 0, 0, 0, 0]"] ;
88 -> 90 ;
91 [label="X[27] <= 0.237\ngini = 0.32\nsamples = 5\nvalue = [1, 0, 0, 0, 4, 0, 0]"] ;
87 -> 91 ;
92 [label="gini = 0.0\nsamples = 4\nvalue = [0, 0, 0, 0, 4, 0, 0]"] ;
91 -> 92 ;
93 [label="gini = 0.0\nsamples = 1\nvalue = [1, 0, 0, 0, 0, 0, 0]"] ;
91 -> 93 ;
94 [label="gini = 0.0\nsamples = 2\nvalue = [0, 0, 0, 0, 0, 0, 2]"] ;
86 -> 94 ;
95 [label="X[122] <= 0.118\ngini = 0.56\nsamples = 5\nvalue = [1, 0, 3, 1, 0, 0, 0]"] ;
21 -> 95 ;
96 [label="X[54] <= 0.23\ngini = 0.5\nsamples = 2\nvalue = [1, 0, 0, 1, 0, 0, 0]"] ;
95 -> 96 ;
97 [label="gini = 0.0\nsamples = 1\nvalue = [1, 0, 0, 0, 0, 0, 0]"] ;
96 -> 97 ;
98 [label="gini = 0.0\nsamples = 1\nvalue = [0, 0, 0, 1, 0, 0, 0]"] ;
96 -> 98 ;
99 [label="gini = 0.0\nsamples = 3\nvalue = [0, 0, 3, 0, 0, 0, 0]"] ;
95 -> 99 ;
100 [label="X[113] <= 0.134\ngini = 0.49\nsamples = 7\nvalue = [0, 0, 0, 3, 0, 0, 4]"] ;
20 -> 100 ;
101 [label="gini = 0.0\nsamples = 3\nvalue = [0, 0, 0, 0, 0, 0, 3]"] ;
100 -> 101 ;
102 [label="X[122] <= 0.199\ngini = 0.375\nsamples = 4\nvalue = [0, 0, 0, 3, 0, 0, 1]"] ;
100 -> 102 ;
103 [label="gini = 0.0\nsamples = 3\nvalue = [0, 0, 0, 3, 0, 0, 0]"] ;
102 -> 103 ;
104 [label="gini = 0.0\nsamples = 1\nvalue = [0, 0, 0, 0, 0, 0, 1]"] ;
102 -> 104 ;
105 [label="gini = 0.0\nsamples = 3\nvalue = [3, 0, 0, 0, 0, 0, 0]"] ;
19 -> 105 ;
106 [label="gini = 0.0\nsamples = 6\nvalue = [0, 0, 0, 6, 0, 0, 0]"] ;
18 -> 106 ;
107 [label="X[78] <= 0.219\ngini = 0.375\nsamples = 4\nvalue = [0, 0, 3, 0, 0, 0, 1]"] ;
17 -> 107 ;
108 [label="gini = 0.0\nsamples = 3\nvalue = [0, 0, 3, 0, 0, 0, 0]"] ;
107 -> 108 ;
109 [label="gini = 0.0\nsamples = 1\nvalue = [0, 0, 0, 0, 0, 0, 1]"] ;
107 -> 109 ;
110 [label="gini = 0.0\nsamples = 3\nvalue = [0, 0, 0, 0, 0, 3, 0]"] ;
16 -> 110 ;
111 [label="gini = 0.0\nsamples = 3\nvalue = [3, 0, 0, 0, 0, 0, 0]"] ;
15 -> 111 ;
112 [label="X[122] <= 0.179\ngini = 0.32\nsamples = 5\nvalue = [0, 0, 1, 0, 0, 0, 4]"] ;
14 -> 112 ;
113 [label="gini = 0.0\nsamples = 3\nvalue = [0, 0, 0, 0, 0, 0, 3]"] ;
112 -> 113 ;
114 [label="gini = 0.5\nsamples = 2\nvalue = [0, 0, 1, 0, 0, 0, 1]"] ;
112 -> 114 ;
115 [label="gini = 0.0\nsamples = 4\nvalue = [0, 0, 0, 0, 4, 0, 0]"] ;
13 -> 115 ;
116 [label="gini = 0.0\nsamples = 4\nvalue = [0, 0, 0, 0, 0, 4, 0]"] ;
12 -> 116 ;
117 [label="gini = 0.0\nsamples = 4\nvalue = [4, 0, 0, 0, 0, 0, 0]"] ;
11 -> 117 ;
118 [label="gini = 0.0\nsamples = 5\nvalue = [0, 0, 0, 0, 0, 0, 5]"] ;
10 -> 118 ;
119 [label="X[106] <= 0.228\ngini = 0.733\nsamples = 44\nvalue = [0, 4, 5, 7, 1, 19, 8]"] ;
9 -> 119 ;
120 [label="gini = 0.0\nsamples = 5\nvalue = [0, 0, 0, 0, 0, 5, 0]"] ;
119 -> 120 ;
121 [label="X[77] <= 0.211\ngini = 0.769\nsamples = 39\nvalue = [0, 4, 5, 7, 1, 14, 8]"] ;
119 -> 121 ;
122 [label="X[78] <= 0.42\ngini = 0.755\nsamples = 37\nvalue = [0, 4, 3, 7, 1, 14, 8]"] ;
121 -> 122 ;
123 [label="X[122] <= 0.235\ngini = 0.742\nsamples = 36\nvalue = [0, 4, 3, 7, 0, 14, 8]"] ;
122 -> 123 ;
124 [label="X[24] <= 0.45\ngini = 0.569\nsamples = 12\nvalue = [0, 0, 0, 3, 0, 7, 2]"] ;
123 -> 124 ;
125 [label="X[48] <= 0.418\ngini = 0.512\nsamples = 11\nvalue = [0, 0, 0, 3, 0, 7, 1]"] ;
124 -> 125 ;
126 [label="X[106] <= 0.231\ngini = 0.42\nsamples = 10\nvalue = [0, 0, 0, 3, 0, 7, 0]"] ;
125 -> 126 ;
127 [label="gini = 0.0\nsamples = 1\nvalue = [0, 0, 0, 1, 0, 0, 0]"] ;
126 -> 127 ;
128 [label="X[92] <= 0.36\ngini = 0.346\nsamples = 9\nvalue = [0, 0, 0, 2, 0, 7, 0]"] ;
126 -> 128 ;
129 [label="X[101] <= 0.478\ngini = 0.219\nsamples = 8\nvalue = [0, 0, 0, 1, 0, 7, 0]"] ;
128 -> 129 ;
130 [label="gini = 0.0\nsamples = 7\nvalue = [0, 0, 0, 0, 0, 7, 0]"] ;
129 -> 130 ;
131 [label="gini = 0.0\nsamples = 1\nvalue = [0, 0, 0, 1, 0, 0, 0]"] ;
129 -> 131 ;
132 [label="gini = 0.0\nsamples = 1\nvalue = [0, 0, 0, 1, 0, 0, 0]"] ;
128 -> 132 ;
133 [label="gini = 0.0\nsamples = 1\nvalue = [0, 0, 0, 0, 0, 0, 1]"] ;
125 -> 133 ;
134 [label="gini = 0.0\nsamples = 1\nvalue = [0, 0, 0, 0, 0, 0, 1]"] ;
124 -> 134 ;
135 [label="X[122] <= 0.421\ngini = 0.781\nsamples = 24\nvalue = [0, 4, 3, 4, 0, 7, 6]"] ;
123 -> 135 ;
136 [label="X[122] <= 0.3\ngini = 0.711\nsamples = 11\nvalue = [0, 4, 1, 1, 0, 1, 4]"] ;
135 -> 136 ;
137 [label="X[106] <= 0.27\ngini = 0.612\nsamples = 7\nvalue = [0, 1, 1, 0, 0, 1, 4]"] ;
136 -> 137 ;
138 [label="gini = 0.0\nsamples = 3\nvalue = [0, 0, 0, 0, 0, 0, 3]"] ;
137 -> 138 ;
139 [label="X[108] <= 0.321\ngini = 0.75\nsamples = 4\nvalue = [0, 1, 1, 0, 0, 1, 1]"] ;
137 -> 139 ;
140 [label="X[122] <= 0.26\ngini = 0.667\nsamples = 3\nvalue = [0, 0, 1, 0, 0, 1, 1]"] ;
139 -> 140 ;
141 [label="gini = 0.0\nsamples = 1\nvalue = [0, 0, 0, 0, 0, 1, 0]"] ;
140 -> 141 ;
142 [label="X[124] <= 0.188\ngini = 0.5\nsamples = 2\nvalue = [0, 0, 1, 0, 0, 0, 1]"] ;
140 -> 142 ;
143 [label="gini = 0.0\nsamples = 1\nvalue = [0, 0, 1, 0, 0, 0, 0]"] ;
142 -> 143 ;
144 [label="gini = 0.0\nsamples = 1\nvalue = [0, 0, 0, 0, 0, 0, 1]"] ;
142 -> 144 ;
145 [label="gini = 0.0\nsamples = 1\nvalue = [0, 1, 0, 0, 0, 0, 0]"] ;
139 -> 145 ;
146 [label="X[129] <= 0.546\ngini = 0.375\nsamples = 4\nvalue = [0, 3, 0, 1, 0, 0, 0]"] ;
136 -> 146 ;
147 [label="gini = 0.0\nsamples = 3\nvalue = [0, 3, 0, 0, 0, 0, 0]"] ;
146 -> 147 ;
148 [label="gini = 0.0\nsamples = 1\nvalue = [0, 0, 0, 1, 0, 0, 0]"] ;
146 -> 148 ;
149 [label="X[9] <= 0.392\ngini = 0.686\nsamples = 13\nvalue = [0, 0, 2, 3, 0, 6, 2]"] ;
135 -> 149 ;
150 [label="X[144] <= 0.383\ngini = 0.667\nsamples = 12\nvalue = [0, 0, 2, 2, 0, 6, 2]"] ;
149 -> 150 ;
151 [label="X[106] <= 0.437\ngini = 0.628\nsamples = 11\nvalue = [0, 0, 2, 1, 0, 6, 2]"] ;
150 -> 151 ;
152 [label="gini = 0.0\nsamples = 2\nvalue = [0, 0, 0, 0, 0, 2, 0]"] ;
151 -> 152 ;
153 [label="gini = 0.691\nsamples = 9\nvalue = [0, 0, 2, 1, 0, 4, 2]"] ;
151 -> 153 ;
154 [label="gini = 0.0\nsamples = 1\nvalue = [0, 0, 0, 1, 0, 0, 0]"] ;
150 -> 154 ;
155 [label="gini = 0.0\nsamples = 1\nvalue = [0, 0, 0, 1, 0, 0, 0]"] ;
149 -> 155 ;
156 [label="gini = 0.0\nsamples = 1\nvalue = [0, 0, 0, 0, 1, 0, 0]"] ;
122 -> 156 ;
157 [label="gini = 0.0\nsamples = 2\nvalue = [0, 0, 2, 0, 0, 0, 0]"] ;
121 -> 157 ;
158 [label="X[98] <= 0.406\ngini = 0.198\nsamples = 9\nvalue = [0, 0, 0, 1, 0, 0, 8]"] ;
8 -> 158 ;
159 [label="gini = 0.0\nsamples = 8\nvalue = [0, 0, 0, 0, 0, 0, 8]"] ;
158 -> 159 ;
160 [label="gini = 0.0\nsamples = 1\nvalue = [0, 0, 0, 1, 0, 0, 0]"] ;
158 -> 160 ;
161 [label="gini = 0.0\nsamples = 9\nvalue = [0, 0, 0, 0, 0, 9, 0]"] ;
7 -> 161 ;
162 [label="gini = 0.0\nsamples = 7\nvalue = [0, 0, 7, 0, 0, 0, 0]"] ;
6 -> 162 ;
163 [label="gini = 0.0\nsamples = 7\nvalue = [7, 0, 0, 0, 0, 0, 0]"] ;
5 -> 163 ;
164 [label="X[26] <= 0.23\ngini = 0.292\nsamples = 12\nvalue = [10, 1, 0, 1, 0, 0, 0]"] ;
4 -> 164 ;
165 [label="X[35] <= 0.154\ngini = 0.165\nsamples = 11\nvalue = [10, 0, 0, 1, 0, 0, 0]"] ;
164 -> 165 ;
166 [label="gini = 0.0\nsamples = 10\nvalue = [10, 0, 0, 0, 0, 0, 0]"] ;
165 -> 166 ;
167 [label="gini = 0.0\nsamples = 1\nvalue = [0, 0, 0, 1, 0, 0, 0]"] ;
165 -> 167 ;
168 [label="gini = 0.0\nsamples = 1\nvalue = [0, 1, 0, 0, 0, 0, 0]"] ;
164 -> 168 ;
169 [label="X[54] <= 0.248\ngini = 0.688\nsamples = 160\nvalue = [3, 4, 9, 13, 13, 76, 42]"] ;
3 -> 169 ;
170 [label="X[2] <= 0.11\ngini = 0.723\nsamples = 140\nvalue = [3, 4, 9, 12, 13, 57, 42]"] ;
169 -> 170 ;
171 [label="X[121] <= 0.183\ngini = 0.757\nsamples = 112\nvalue = [3, 4, 9, 11, 12, 34, 39]"] ;
170 -> 171 ;
172 [label="X[49] <= 0.203\ngini = 0.72\nsamples = 101\nvalue = [2, 4, 8, 7, 7, 34, 39]"] ;
171 -> 172 ;
173 [label="X[83] <= 0.255\ngini = 0.696\nsamples = 96\nvalue = [2, 4, 8, 6, 3, 34, 39]"] ;
172 -> 173 ;
174 [label="X[0] <= 0.285\ngini = 0.7\nsamples = 90\nvalue = [2, 4, 8, 6, 3, 28, 39]"] ;
173 -> 174 ;
175 [label="X[65] <= 0.47\ngini = 0.698\nsamples = 85\nvalue = [2, 4, 8, 6, 3, 23, 39]"] ;
174 -> 175 ;
176 [label="X[11] <= 0.237\ngini = 0.682\nsamples = 82\nvalue = [2, 4, 5, 6, 3, 23, 39]"] ;
175 -> 176 ;
177 [label="X[122] <= 0.301\ngini = 0.676\nsamples = 78\nvalue = [2, 4, 5, 6, 3, 19, 39]"] ;
176 -> 177 ;
178 [label="X[43] <= 0.183\ngini = 0.619\nsamples = 67\nvalue = [0, 3, 5, 6, 1, 14, 38]"] ;
177 -> 178 ;
179 [label="X[30] <= 0.153\ngini = 0.597\nsamples = 65\nvalue = [0, 1, 5, 6, 1, 14, 38]"] ;
178 -> 179 ;
180 [label="X[103] <= 0.218\ngini = 0.584\nsamples = 63\nvalue = [0, 1, 5, 6, 1, 12, 38]"] ;
179 -> 180 ;
181 [label="X[1] <= 0.323\ngini = 0.568\nsamples = 61\nvalue = [0, 1, 5, 6, 1, 10, 38]"] ;
180 -> 181 ;
182 [label="X[87] <= 0.225\ngini = 0.549\nsamples = 59\nvalue = [0, 1, 5, 6, 1, 8, 38]"] ;
181 -> 182 ;
183 [label="X[109] <= 0.212\ngini = 0.525\nsamples = 57\nvalue = [0, 1, 5, 6, 1, 6, 38]"] ;
182 -> 183 ;
184 [label="X[144] <= 0.291\ngini = 0.469\nsamples = 52\nvalue = [0, 0, 5, 4, 1, 5, 37]"] ;
183 -> 184 ;
185 [label="X[136] <= 0.326\ngini = 0.416\nsamples = 48\nvalue = [0, 0, 3, 4, 0, 5, 36]"] ;
184 -> 185 ;
186 [label="X[122] <= 0.183\ngini = 0.295\nsamples = 36\nvalue = [0, 0, 3, 2, 0, 1, 30]"] ;
185 -> 186 ;
187 [label="X[93] <= 0.286\ngini = 0.131\nsamples = 29\nvalue = [0, 0, 0, 1, 0, 1, 27]"] ;
186 -> 187 ;
188 [label="X[68] <= 0.248\ngini = 0.069\nsamples = 28\nvalue = [0, 0, 0, 1, 0, 0, 27]"] ;
187 -> 188 ;
189 [label="gini = 0.0\nsamples = 27\nvalue = [0, 0, 0, 0, 0, 0, 27]"] ;
188 -> 189 ;
190 [label="gini = 0.0\nsamples = 1\nvalue = [0, 0, 0, 1, 0, 0, 0]"] ;
188 -> 190 ;
191 [label="gini = 0.0\nsamples = 1\nvalue = [0, 0, 0, 0, 0, 1, 0]"] ;
187 -> 191 ;
192 [label="X[136] <= 0.286\ngini = 0.612\nsamples = 7\nvalue = [0, 0, 3, 1, 0, 0, 3]"] ;
186 -> 192 ;
193 [label="X[112] <= 0.207\ngini = 0.56\nsamples = 5\nvalue = [0, 0, 3, 1, 0, 0, 1]"] ;
192 -> 193 ;
194 [label="X[136] <= 0.23\ngini = 0.375\nsamples = 4\nvalue = [0, 0, 3, 1, 0, 0, 0]"] ;
193 -> 194 ;
195 [label="gini = 0.0\nsamples = 3\nvalue = [0, 0, 3, 0, 0, 0, 0]"] ;
194 -> 195 ;
196 [label="gini = 0.0\nsamples = 1\nvalue = [0, 0, 0, 1, 0, 0, 0]"] ;
194 -> 196 ;
197 [label="gini = 0.0\nsamples = 1\nvalue = [0, 0, 0, 0, 0, 0, 1]"] ;
193 -> 197 ;
198 [label="gini = 0.0\nsamples = 2\nvalue = [0, 0, 0, 0, 0, 0, 2]"] ;
192 -> 198 ;
199 [label="X[136] <= 0.332\ngini = 0.611\nsamples = 12\nvalue = [0, 0, 0, 2, 0, 4, 6]"] ;
185 -> 199 ;
200 [label="X[120] <= 0.473\ngini = 0.375\nsamples = 4\nvalue = [0, 0, 0, 1, 0, 3, 0]"] ;
199 -> 200 ;
201 [label="gini = 0.0\nsamples = 2\nvalue = [0, 0, 0, 0, 0, 2, 0]"] ;
200 -> 201 ;
202 [label="gini = 0.5\nsamples = 2\nvalue = [0, 0, 0, 1, 0, 1, 0]"] ;
200 -> 202 ;
203 [label="X[69] <= 0.466\ngini = 0.406\nsamples = 8\nvalue = [0, 0, 0, 1, 0, 1, 6]"] ;
199 -> 203 ;
204 [label="X[136] <= 0.696\ngini = 0.245\nsamples = 7\nvalue = [0, 0, 0, 0, 0, 1, 6]"] ;
203 -> 204 ;
205 [label="gini = 0.0\nsamples = 6\nvalue = [0, 0, 0, 0, 0, 0, 6]"] ;
204 -> 205 ;
206 [label="gini = 0.0\nsamples = 1\nvalue = [0, 0, 0, 0, 0, 1, 0]"] ;
204 -> 206 ;
207 [label="gini = 0.0\nsamples = 1\nvalue = [0, 0, 0, 1, 0, 0, 0]"] ;
203 -> 207 ;
208 [label="X[136] <= 0.169\ngini = 0.625\nsamples = 4\nvalue = [0, 0, 2, 0, 1, 0, 1]"] ;
184 -> 208 ;
209 [label="gini = 0.0\nsamples = 2\nvalue = [0, 0, 2, 0, 0, 0, 0]"] ;
208 -> 209 ;
210 [label="X[51] <= 0.135\ngini = 0.5\nsamples = 2\nvalue = [0, 0, 0, 0, 1, 0, 1]"] ;
208 -> 210 ;
211 [label="gini = 0.0\nsamples = 1\nvalue = [0, 0, 0, 0, 0, 0, 1]"] ;
210 -> 211 ;
212 [label="gini = 0.0\nsamples = 1\nvalue = [0, 0, 0, 0, 1, 0, 0]"] ;
210 -> 212 ;
213 [label="X[122] <= 0.14\ngini = 0.72\nsamples = 5\nvalue = [0, 1, 0, 2, 0, 1, 1]"] ;
183 -> 213 ;
214 [label="X[92] <= 0.179\ngini = 0.5\nsamples = 2\nvalue = [0, 1, 0, 0, 0, 1, 0]"] ;
213 -> 214 ;
215 [label="gini = 0.0\nsamples = 1\nvalue = [0, 0, 0, 0, 0, 1, 0]"] ;
214 -> 215 ;
216 [label="gini = 0.0\nsamples = 1\nvalue = [0, 1, 0, 0, 0, 0, 0]"] ;
214 -> 216 ;
217 [label="X[124] <= 0.23\ngini = 0.444\nsamples = 3\nvalue = [0, 0, 0, 2, 0, 0, 1]"] ;
213 -> 217 ;
218 [label="gini = 0.0\nsamples = 2\nvalue = [0, 0, 0, 2, 0, 0, 0]"] ;
217 -> 218 ;
219 [label="gini = 0.0\nsamples = 1\nvalue = [0, 0, 0, 0, 0, 0, 1]"] ;
217 -> 219 ;
220 [label="gini = 0.0\nsamples = 2\nvalue = [0, 0, 0, 0, 0, 2, 0]"] ;
182 -> 220 ;
221 [label="gini = 0.0\nsamples = 2\nvalue = [0, 0, 0, 0, 0, 2, 0]"] ;
181 -> 221 ;
222 [label="gini = 0.0\nsamples = 2\nvalue = [0, 0, 0, 0, 0, 2, 0]"] ;
180 -> 222 ;
223 [label="gini = 0.0\nsamples = 2\nvalue = [0, 0, 0, 0, 0, 2, 0]"] ;
179 -> 223 ;
224 [label="gini = 0.0\nsamples = 2\nvalue = [0, 2, 0, 0, 0, 0, 0]"] ;
178 -> 224 ;
225 [label="X[122] <= 0.495\ngini = 0.711\nsamples = 11\nvalue = [2, 1, 0, 0, 2, 5, 1]"] ;
177 -> 225 ;
226 [label="X[122] <= 0.356\ngini = 0.562\nsamples = 8\nvalue = [1, 0, 0, 0, 1, 5, 1]"] ;
225 -> 226 ;
227 [label="gini = 0.0\nsamples = 1\nvalue = [1, 0, 0, 0, 0, 0, 0]"] ;
226 -> 227 ;
228 [label="X[124] <= 0.291\ngini = 0.449\nsamples = 7\nvalue = [0, 0, 0, 0, 1, 5, 1]"] ;
226 -> 228 ;
229 [label="gini = 0.0\nsamples = 3\nvalue = [0, 0, 0, 0, 0, 3, 0]"] ;
228 -> 229 ;
230 [label="gini = 0.625\nsamples = 4\nvalue = [0, 0, 0, 0, 1, 2, 1]"] ;
228 -> 230 ;
231 [label="X[124] <= 0.231\ngini = 0.667\nsamples = 3\nvalue = [1, 1, 0, 0, 1, 0, 0]"] ;
225 -> 231 ;
232 [label="gini = 0.0\nsamples = 1\nvalue = [0, 1, 0, 0, 0, 0, 0]"] ;
231 -> 232 ;
233 [label="X[122] <= 0.65\ngini = 0.5\nsamples = 2\nvalue = [1, 0, 0, 0, 1, 0, 0]"] ;
231 -> 233 ;
234 [label="gini = 0.0\nsamples = 1\nvalue = [0, 0, 0, 0, 1, 0, 0]"] ;
233 -> 234 ;
235 [label="gini = 0.0\nsamples = 1\nvalue = [1, 0, 0, 0, 0, 0, 0]"] ;
233 -> 235 ;
236 [label="gini = 0.0\nsamples = 4\nvalue = [0, 0, 0, 0, 0, 4, 0]"] ;
176 -> 236 ;
237 [label="gini = 0.0\nsamples = 3\nvalue = [0, 0, 3, 0, 0, 0, 0]"] ;
175 -> 237 ;
238 [label="gini = 0.0\nsamples = 5\nvalue = [0, 0, 0, 0, 0, 5, 0]"] ;
174 -> 238 ;
239 [label="gini = 0.0\nsamples = 6\nvalue = [0, 0, 0, 0, 0, 6, 0]"] ;
173 -> 239 ;
240 [label="X[64] <= 0.237\ngini = 0.32\nsamples = 5\nvalue = [0, 0, 0, 1, 4, 0, 0]"] ;
172 -> 240 ;
241 [label="gini = 0.0\nsamples = 4\nvalue = [0, 0, 0, 0, 4, 0, 0]"] ;
240 -> 241 ;
242 [label="gini = 0.0\nsamples = 1\nvalue = [0, 0, 0, 1, 0, 0, 0]"] ;
240 -> 242 ;
243 [label="X[124] <= 0.205\ngini = 0.645\nsamples = 11\nvalue = [1, 0, 1, 4, 5, 0, 0]"] ;
171 -> 243 ;
244 [label="X[122] <= 0.214\ngini = 0.56\nsamples = 5\nvalue = [1, 0, 1, 3, 0, 0, 0]"] ;
243 -> 244 ;
245 [label="X[9] <= 0.248\ngini = 0.375\nsamples = 4\nvalue = [1, 0, 0, 3, 0, 0, 0]"] ;
244 -> 245 ;
246 [label="gini = 0.0\nsamples = 3\nvalue = [0, 0, 0, 3, 0, 0, 0]"] ;
245 -> 246 ;
247 [label="gini = 0.0\nsamples = 1\nvalue = [1, 0, 0, 0, 0, 0, 0]"] ;
245 -> 247 ;
248 [label="gini = 0.0\nsamples = 1\nvalue = [0, 0, 1, 0, 0, 0, 0]"] ;
244 -> 248 ;
249 [label="X[108] <= 0.248\ngini = 0.278\nsamples = 6\nvalue = [0, 0, 0, 1, 5, 0, 0]"] ;
243 -> 249 ;
250 [label="gini = 0.0\nsamples = 3\nvalue = [0, 0, 0, 0, 3, 0, 0]"] ;
249 -> 250 ;
251 [label="gini = 0.444\nsamples = 3\nvalue = [0, 0, 0, 1, 2, 0, 0]"] ;
249 -> 251 ;
252 [label="X[90] <= 0.135\ngini = 0.311\nsamples = 28\nvalue = [0, 0, 0, 1, 1, 23, 3]"] ;
170 -> 252 ;
253 [label="X[107] <= 0.491\ngini = 0.21\nsamples = 26\nvalue = [0, 0, 0, 0, 1, 23, 2]"] ;
252 -> 253 ;
254 [label="X[122] <= 0.204\ngini = 0.147\nsamples = 25\nvalue = [0, 0, 0, 0, 0, 23, 2]"] ;
253 -> 254 ;
255 [label="X[64] <= 0.389\ngini = 0.08\nsamples = 24\nvalue = [0, 0, 0, 0, 0, 23, 1]"] ;
254 -> 255 ;
256 [label="gini = 0.0\nsamples = 23\nvalue = [0, 0, 0, 0, 0, 23, 0]"] ;
255 -> 256 ;
257 [label="gini = 0.0\nsamples = 1\nvalue = [0, 0, 0, 0, 0, 0, 1]"] ;
255 -> 257 ;
258 [label="gini = 0.0\nsamples = 1\nvalue = [0, 0, 0, 0, 0, 0, 1]"] ;
254 -> 258 ;
259 [label="gini = 0.0\nsamples = 1\nvalue = [0, 0, 0, 0, 1, 0, 0]"] ;
253 -> 259 ;
260 [label="X[34] <= 0.3\ngini = 0.5\nsamples = 2\nvalue = [0, 0, 0, 1, 0, 0, 1]"] ;
252 -> 260 ;
261 [label="gini = 0.0\nsamples = 1\nvalue = [0, 0, 0, 1, 0, 0, 0]"] ;
260 -> 261 ;
262 [label="gini = 0.0\nsamples = 1\nvalue = [0, 0, 0, 0, 0, 0, 1]"] ;
260 -> 262 ;
263 [label="X[140] <= 0.196\ngini = 0.095\nsamples = 20\nvalue = [0, 0, 0, 1, 0, 19, 0]"] ;
169 -> 263 ;
264 [label="gini = 0.0\nsamples = 19\nvalue = [0, 0, 0, 0, 0, 19, 0]"] ;
263 -> 264 ;
265 [label="gini = 0.0\nsamples = 1\nvalue = [0, 0, 0, 1, 0, 0, 0]"] ;
263 -> 265 ;
266 [label="X[83] <= 0.201\ngini = 0.523\nsamples = 74\nvalue = [1, 1, 5, 4, 1, 13, 49]"] ;
2 -> 266 ;
267 [label="X[2] <= 0.217\ngini = 0.484\nsamples = 70\nvalue = [1, 1, 5, 4, 1, 9, 49]"] ;
266 -> 267 ;
268 [label="X[136] <= 0.044\ngini = 0.447\nsamples = 67\nvalue = [1, 1, 5, 4, 1, 6, 49]"] ;
267 -> 268 ;
269 [label="X[129] <= 0.202\ngini = 0.74\nsamples = 24\nvalue = [1, 1, 4, 4, 0, 4, 10]"] ;
268 -> 269 ;
270 [label="X[122] <= 0.109\ngini = 0.715\nsamples = 22\nvalue = [1, 1, 4, 2, 0, 4, 10]"] ;
269 -> 270 ;
271 [label="X[133] <= 0.496\ngini = 0.245\nsamples = 7\nvalue = [1, 0, 0, 0, 0, 0, 6]"] ;
270 -> 271 ;
272 [label="gini = 0.0\nsamples = 6\nvalue = [0, 0, 0, 0, 0, 0, 6]"] ;
271 -> 272 ;
273 [label="gini = 0.0\nsamples = 1\nvalue = [1, 0, 0, 0, 0, 0, 0]"] ;
271 -> 273 ;
274 [label="X[124] <= 0.192\ngini = 0.764\nsamples = 15\nvalue = [0, 1, 4, 2, 0, 4, 4]"] ;
270 -> 274 ;
275 [label="X[124] <= 0.066\ngini = 0.642\nsamples = 9\nvalue = [0, 0, 4, 2, 0, 3, 0]"] ;
274 -> 275 ;
276 [label="X[122] <= 0.167\ngini = 0.653\nsamples = 7\nvalue = [0, 0, 2, 2, 0, 3, 0]"] ;
275 -> 276 ;
277 [label="X[118] <= 0.232\ngini = 0.64\nsamples = 5\nvalue = [0, 0, 2, 2, 0, 1, 0]"] ;
276 -> 277 ;
278 [label="X[29] <= 0.137\ngini = 0.5\nsamples = 4\nvalue = [0, 0, 2, 2, 0, 0, 0]"] ;
277 -> 278 ;
279 [label="X[1] <= 0.275\ngini = 0.444\nsamples = 3\nvalue = [0, 0, 2, 1, 0, 0, 0]"] ;
278 -> 279 ;
280 [label="gini = 0.0\nsamples = 2\nvalue = [0, 0, 2, 0, 0, 0, 0]"] ;
279 -> 280 ;
281 [label="gini = 0.0\nsamples = 1\nvalue = [0, 0, 0, 1, 0, 0, 0]"] ;
279 -> 281 ;
282 [label="gini = 0.0\nsamples = 1\nvalue = [0, 0, 0, 1, 0, 0, 0]"] ;
278 -> 282 ;
283 [label="gini = 0.0\nsamples = 1\nvalue = [0, 0, 0, 0, 0, 1, 0]"] ;
277 -> 283 ;
284 [label="gini = 0.0\nsamples = 2\nvalue = [0, 0, 0, 0, 0, 2, 0]"] ;
276 -> 284 ;
285 [label="gini = 0.0\nsamples = 2\nvalue = [0, 0, 2, 0, 0, 0, 0]"] ;
275 -> 285 ;
286 [label="X[133] <= 0.467\ngini = 0.5\nsamples = 6\nvalue = [0, 1, 0, 0, 0, 1, 4]"] ;
274 -> 286 ;
287 [label="X[115] <= 0.334\ngini = 0.32\nsamples = 5\nvalue = [0, 0, 0, 0, 0, 1, 4]"] ;
286 -> 287 ;
288 [label="gini = 0.0\nsamples = 4\nvalue = [0, 0, 0, 0, 0, 0, 4]"] ;
287 -> 288 ;
289 [label="gini = 0.0\nsamples = 1\nvalue = [0, 0, 0, 0, 0, 1, 0]"] ;
287 -> 289 ;
290 [label="gini = 0.0\nsamples = 1\nvalue = [0, 1, 0, 0, 0, 0, 0]"] ;
286 -> 290 ;
291 [label="gini = 0.0\nsamples = 2\nvalue = [0, 0, 0, 2, 0, 0, 0]"] ;
269 -> 291 ;
292 [label="X[78] <= 0.532\ngini = 0.174\nsamples = 43\nvalue = [0, 0, 1, 0, 1, 2, 39]"] ;
268 -> 292 ;
293 [label="X[77] <= 0.144\ngini = 0.135\nsamples = 42\nvalue = [0, 0, 1, 0, 0, 2, 39]"] ;
292 -> 293 ;
294 [label="X[143] <= 0.14\ngini = 0.093\nsamples = 41\nvalue = [0, 0, 0, 0, 0, 2, 39]"] ;
293 -> 294 ;
295 [label="X[53] <= 0.382\ngini = 0.049\nsamples = 40\nvalue = [0, 0, 0, 0, 0, 1, 39]"] ;
294 -> 295 ;
296 [label="gini = 0.0\nsamples = 39\nvalue = [0, 0, 0, 0, 0, 0, 39]"] ;
295 -> 296 ;
297 [label="gini = 0.0\nsamples = 1\nvalue = [0, 0, 0, 0, 0, 1, 0]"] ;
295 -> 297 ;
298 [label="gini = 0.0\nsamples = 1\nvalue = [0, 0, 0, 0, 0, 1, 0]"] ;
294 -> 298 ;
299 [label="gini = 0.0\nsamples = 1\nvalue = [0, 0, 1, 0, 0, 0, 0]"] ;
293 -> 299 ;
300 [label="gini = 0.0\nsamples = 1\nvalue = [0, 0, 0, 0, 1, 0, 0]"] ;
292 -> 300 ;
301 [label="gini = 0.0\nsamples = 3\nvalue = [0, 0, 0, 0, 0, 3, 0]"] ;
267 -> 301 ;
302 [label="gini = 0.0\nsamples = 4\nvalue = [0, 0, 0, 0, 0, 4, 0]"] ;
266 -> 302 ;
303 [label="X[117] <= 0.246\ngini = 0.304\nsamples = 28\nvalue = [23, 0, 4, 0, 0, 0, 1]"] ;
1 -> 303 ;
304 [label="X[31] <= 0.175\ngini = 0.15\nsamples = 25\nvalue = [23, 0, 1, 0, 0, 0, 1]"] ;
303 -> 304 ;
305 [label="X[109] <= 0.271\ngini = 0.08\nsamples = 24\nvalue = [23, 0, 0, 0, 0, 0, 1]"] ;
304 -> 305 ;
306 [label="gini = 0.0\nsamples = 23\nvalue = [23, 0, 0, 0, 0, 0, 0]"] ;
305 -> 306 ;
307 [label="gini = 0.0\nsamples = 1\nvalue = [0, 0, 0, 0, 0, 0, 1]"] ;
305 -> 307 ;
308 [label="gini = 0.0\nsamples = 1\nvalue = [0, 0, 1, 0, 0, 0, 0]"] ;
304 -> 308 ;
309 [label="gini = 0.0\nsamples = 3\nvalue = [0, 0, 3, 0, 0, 0, 0]"] ;
303 -> 309 ;
310 [label="X[139] <= 0.118\ngini = 0.337\nsamples = 91\nvalue = [4, 0, 1, 73, 0, 1, 12]"] ;
0 -> 310 [labeldistance=2.5, labelangle=-45, headlabel="False"] ;
311 [label="X[36] <= 0.121\ngini = 0.258\nsamples = 84\nvalue = [4, 0, 1, 72, 0, 1, 6]"] ;
310 -> 311 ;
312 [label="X[84] <= 0.424\ngini = 0.206\nsamples = 81\nvalue = [4, 0, 1, 72, 0, 1, 3]"] ;
311 -> 312 ;
313 [label="X[66] <= 0.201\ngini = 0.167\nsamples = 79\nvalue = [2, 0, 1, 72, 0, 1, 3]"] ;
312 -> 313 ;
314 [label="X[8] <= 0.39\ngini = 0.124\nsamples = 77\nvalue = [1, 0, 0, 72, 0, 1, 3]"] ;
313 -> 314 ;
315 [label="X[99] <= 0.367\ngini = 0.101\nsamples = 76\nvalue = [1, 0, 0, 72, 0, 0, 3]"] ;
314 -> 315 ;
316 [label="X[142] <= 0.33\ngini = 0.077\nsamples = 75\nvalue = [0, 0, 0, 72, 0, 0, 3]"] ;
315 -> 316 ;
317 [label="X[128] <= 0.444\ngini = 0.053\nsamples = 74\nvalue = [0, 0, 0, 72, 0, 0, 2]"] ;
316 -> 317 ;
318 [label="X[77] <= 0.461\ngini = 0.027\nsamples = 73\nvalue = [0, 0, 0, 72, 0, 0, 1]"] ;
317 -> 318 ;
319 [label="gini = 0.0\nsamples = 72\nvalue = [0, 0, 0, 72, 0, 0, 0]"] ;
318 -> 319 ;
320 [label="gini = 0.0\nsamples = 1\nvalue = [0, 0, 0, 0, 0, 0, 1]"] ;
318 -> 320 ;
321 [label="gini = 0.0\nsamples = 1\nvalue = [0, 0, 0, 0, 0, 0, 1]"] ;
317 -> 321 ;
322 [label="gini = 0.0\nsamples = 1\nvalue = [0, 0, 0, 0, 0, 0, 1]"] ;
316 -> 322 ;
323 [label="gini = 0.0\nsamples = 1\nvalue = [1, 0, 0, 0, 0, 0, 0]"] ;
315 -> 323 ;
324 [label="gini = 0.0\nsamples = 1\nvalue = [0, 0, 0, 0, 0, 1, 0]"] ;
314 -> 324 ;
325 [label="X[147] <= 0.216\ngini = 0.5\nsamples = 2\nvalue = [1, 0, 1, 0, 0, 0, 0]"] ;
313 -> 325 ;
326 [label="gini = 0.0\nsamples = 1\nvalue = [1, 0, 0, 0, 0, 0, 0]"] ;
325 -> 326 ;
327 [label="gini = 0.0\nsamples = 1\nvalue = [0, 0, 1, 0, 0, 0, 0]"] ;
325 -> 327 ;
328 [label="gini = 0.0\nsamples = 2\nvalue = [2, 0, 0, 0, 0, 0, 0]"] ;
312 -> 328 ;
329 [label="gini = 0.0\nsamples = 3\nvalue = [0, 0, 0, 0, 0, 0, 3]"] ;
311 -> 329 ;
330 [label="X[78] <= 0.173\ngini = 0.245\nsamples = 7\nvalue = [0, 0, 0, 1, 0, 0, 6]"] ;
310 -> 330 ;
331 [label="gini = 0.0\nsamples = 6\nvalue = [0, 0, 0, 0, 0, 0, 6]"] ;
330 -> 331 ;
332 [label="gini = 0.0\nsamples = 1\nvalue = [0, 0, 0, 1, 0, 0, 0]"] ;
330 -> 332 ;
}
