digraph Tree {
node [shape=box] ;
0 [label="X[44] <= 0.07\ngini = 0.798\nsamples = 567\nvalue = [63, 12, 41, 141, 34, 137, 139]"] ;
1 [label="X[2] <= 0.252\ngini = 0.799\nsamples = 475\nvalue = [59, 12, 40, 68, 34, 136, 126]"] ;
0 -> 1 [labeldistance=2.5, labelangle=45, headlabel="True"] ;
2 [label="X[14] <= 0.303\ngini = 0.808\nsamples = 433\nvalue = [57, 12, 40, 66, 33, 101, 124]"] ;
1 -> 2 ;
3 [label="X[133] <= 0.053\ngini = 0.797\nsamples = 406\nvalue = [37, 12, 34, 66, 33, 101, 123]"] ;
2 -> 3 ;
4 [label="X[43] <= 0.112\ngini = 0.813\nsamples = 338\nvalue = [36, 11, 30, 62, 31, 93, 75]"] ;
3 -> 4 ;
5 [label="X[66] <= 0.374\ngini = 0.803\nsamples = 323\nvalue = [25, 8, 30, 61, 31, 93, 75]"] ;
4 -> 5 ;
6 [label="X[39] <= 0.229\ngini = 0.798\nsamples = 316\nvalue = [25, 8, 23, 61, 31, 93, 75]"] ;
5 -> 6 ;
7 [label="X[136] <= 0.119\ngini = 0.804\nsamples = 305\nvalue = [25, 8, 23, 61, 31, 82, 75]"] ;
6 -> 7 ;
8 [label="X[51] <= 0.109\ngini = 0.821\nsamples = 176\nvalue = [23, 6, 17, 47, 17, 34, 32]"] ;
7 -> 8 ;
9 [label="X[13] <= 0.324\ngini = 0.815\nsamples = 168\nvalue = [16, 6, 17, 47, 16, 34, 32]"] ;
8 -> 9 ;
10 [label="X[81] <= 0.145\ngini = 0.808\nsamples = 163\nvalue = [11, 6, 17, 47, 16, 34, 32]"] ;
9 -> 10 ;
11 [label="X[50] <= 0.435\ngini = 0.809\nsamples = 155\nvalue = [11, 6, 17, 46, 16, 34, 25]"] ;
10 -> 11 ;
12 [label="X[103] <= 0.268\ngini = 0.803\nsamples = 151\nvalue = [11, 6, 17, 46, 12, 34, 25]"] ;
11 -> 12 ;
13 [label="X[29] <= 0.609\ngini = 0.804\nsamples = 146\nvalue = [11, 6, 17, 46, 12, 29, 25]"] ;
12 -> 13 ;
14 [label="X[5] <= 0.673\ngini = 0.801\nsamples = 140\nvalue = [11, 5, 17, 46, 12, 24, 25]"] ;
13 -> 14 ;
15 [label="X[77] <= 0.32\ngini = 0.795\nsamples = 137\nvalue = [8, 5, 17, 46, 12, 24, 25]"] ;
14 -> 15 ;
16 [label="X[36] <= 0.138\ngini = 0.787\nsamples = 131\nvalue = [8, 5, 13, 46, 11, 24, 24]"] ;
15 -> 16 ;
17 [label="X[106] <= 0.225\ngini = 0.783\nsamples = 126\nvalue = [8, 5, 12, 46, 11, 24, 20]"] ;
16 -> 17 ;
18 [label="X[75] <= 0.111\ngini = 0.761\nsamples = 93\nvalue = [8, 3, 9, 39, 10, 13, 11]"] ;
17 -> 18 ;
19 [label="X[64] <= 0.123\ngini = 0.752\nsamples = 90\nvalue = [8, 3, 9, 39, 10, 13, 8]"] ;
18 -> 19 ;
20 [label="X[33] <= 0.501\ngini = 0.732\nsamples = 85\nvalue = [8, 2, 6, 39, 10, 12, 8]"] ;
19 -> 20 ;
21 [label="X[80] <= 0.511\ngini = 0.722\nsamples = 83\nvalue = [8, 2, 4, 39, 10, 12, 8]"] ;
20 -> 21 ;
22 [label="X[27] <= 0.155\ngini = 0.713\nsamples = 81\nvalue = [6, 2, 4, 39, 10, 12, 8]"] ;
21 -> 22 ;
23 [label="X[73] <= 0.263\ngini = 0.695\nsamples = 76\nvalue = [3, 2, 4, 38, 9, 12, 8]"] ;
22 -> 23 ;
24 [label="X[105] <= 0.469\ngini = 0.651\nsamples = 68\nvalue = [2, 1, 2, 37, 9, 11, 6]"] ;
23 -> 24 ;
25 [label="X[117] <= 0.439\ngini = 0.638\nsamples = 66\nvalue = [2, 1, 2, 37, 9, 9, 6]"] ;
24 -> 25 ;
26 [label="X[0] <= 0.244\ngini = 0.623\nsamples = 64\nvalue = [2, 1, 2, 37, 9, 7, 6]"] ;
25 -> 26 ;
27 [label="X[31] <= 0.359\ngini = 0.596\nsamples = 61\nvalue = [2, 1, 2, 37, 8, 5, 6]"] ;
26 -> 27 ;
28 [label="X[79] <= 0.26\ngini = 0.559\nsamples = 58\nvalue = [1, 1, 1, 37, 7, 5, 6]"] ;
27 -> 28 ;
29 [label="X[88] <= 0.373\ngini = 0.518\nsamples = 55\nvalue = [1, 0, 1, 37, 6, 5, 5]"] ;
28 -> 29 ;
30 [label="X[93] <= 0.526\ngini = 0.472\nsamples = 52\nvalue = [1, 0, 1, 37, 5, 4, 4]"] ;
29 -> 30 ;
31 [label="X[94] <= 0.194\ngini = 0.433\nsamples = 50\nvalue = [0, 0, 1, 37, 4, 4, 4]"] ;
30 -> 31 ;
32 [label="X[120] <= 0.534\ngini = 0.388\nsamples = 48\nvalue = [0, 0, 0, 37, 3, 4, 4]"] ;
31 -> 32 ;
33 [label="X[99] <= 0.322\ngini = 0.364\nsamples = 47\nvalue = [0, 0, 0, 37, 2, 4, 4]"] ;
32 -> 33 ;
34 [label="X[48] <= 0.415\ngini = 0.337\nsamples = 46\nvalue = [0, 0, 0, 37, 1, 4, 4]"] ;
33 -> 34 ;
35 [label="X[113] <= 0.686\ngini = 0.311\nsamples = 45\nvalue = [0, 0, 0, 37, 1, 4, 3]"] ;
34 -> 35 ;
36 [label="X[25] <= 0.631\ngini = 0.282\nsamples = 44\nvalue = [0, 0, 0, 37, 1, 4, 2]"] ;
35 -> 36 ;
37 [label="X[89] <= 0.48\ngini = 0.25\nsamples = 43\nvalue = [0, 0, 0, 37, 1, 4, 1]"] ;
36 -> 37 ;
38 [label="X[40] <= 0.148\ngini = 0.214\nsamples = 42\nvalue = [0, 0, 0, 37, 1, 4, 0]"] ;
37 -> 38 ;
39 [label="X[30] <= 0.316\ngini = 0.18\nsamples = 41\nvalue = [0, 0, 0, 37, 1, 3, 0]"] ;
38 -> 39 ;
40 [label="X[61] <= 0.553\ngini = 0.141\nsamples = 40\nvalue = [0, 0, 0, 37, 1, 2, 0]"] ;
39 -> 40 ;
41 [label="X[78] <= 0.221\ngini = 0.099\nsamples = 39\nvalue = [0, 0, 0, 37, 1, 1, 0]"] ;
40 -> 41 ;
42 [label="X[106] <= 0.042\ngini = 0.054\nsamples = 36\nvalue = [0, 0, 0, 35, 0, 1, 0]"] ;
41 -> 42 ;
43 [label="X[129] <= 0.104\ngini = 0.153\nsamples = 12\nvalue = [0, 0, 0, 11, 0, 1, 0]"] ;
42 -> 43 ;
44 [label="X[35] <= 0.131\ngini = 0.245\nsamples = 7\nvalue = [0, 0, 0, 6, 0, 1, 0]"] ;
43 -> 44 ;
45 [label="X[88] <= 0.177\ngini = 0.375\nsamples = 4\nvalue = [0, 0, 0, 3, 0, 1, 0]"] ;
44 -> 45 ;
46 [label="X[146] <= 0.342\ngini = 0.444\nsamples = 3\nvalue = [0, 0, 0, 2, 0, 1, 0]"] ;
45 -> 46 ;
47 [label="gini = 0.5\nsamples = 2\nvalue = [0, 0, 0, 1, 0, 1, 0]"] ;
46 -> 47 ;
48 [label="gini = 0.0\nsamples = 1\nvalue = [0, 0, 0, 1, 0, 0, 0]"] ;
46 -> 48 ;
49 [label="gini = 0.0\nsamples = 1\nvalue = [0, 0, 0, 1, 0, 0, 0]"] ;
45 -> 49 ;
50 [label="gini = 0.0\nsamples = 3\nvalue = [0, 0, 0, 3, 0, 0, 0]"] ;
44 -> 50 ;
51 [label="gini = 0.0\nsamples = 5\nvalue = [0, 0, 0, 5, 0, 0, 0]"] ;
43 -> 51 ;
52 [label="gini = 0.0\nsamples = 24\nvalue = [0, 0, 0, 24, 0, 0, 0]"] ;
42 -> 52 ;
53 [label="X[78] <= 0.477\ngini = 0.444\nsamples = 3\nvalue = [0, 0, 0, 2, 1, 0, 0]"] ;
41 -> 53 ;
54 [label="gini = 0.0\nsamples = 1\nvalue = [0, 0, 0, 0, 1, 0, 0]"] ;
53 -> 54 ;
55 [label="gini = 0.0\nsamples = 2\nvalue = [0, 0, 0, 2, 0, 0, 0]"] ;
53 -> 55 ;
56 [label="gini = 0.0\nsamples = 1\nvalue = [0, 0, 0, 0, 0, 1, 0]"] ;
40 -> 56 ;
57 [label="gini = 0.0\nsamples = 1\nvalue = [0, 0, 0, 0, 0, 1, 0]"] ;
39 -> 57 ;
58 [label="gini = 0.0\nsamples = 1\nvalue = [0, 0, 0, 0, 0, 1, 0]"] ;
38 -> 58 ;
59 [label="gini = 0.0\nsamples = 1\nvalue = [0, 0, 0, 0, 0, 0, 1]"] ;
37 -> 59 ;
60 [label="gini = 0.0\nsamples = 1\nvalue = [0, 0, 0, 0, 0, 0, 1]"] ;
36 -> 60 ;
61 [label="gini = 0.0\nsamples = 1\nvalue = [0, 0, 0, 0, 0, 0, 1]"] ;
35 -> 61 ;
62 [label="gini = 0.0\nsamples = 1\nvalue = [0, 0, 0, 0, 0, 0, 1]"] ;
34 -> 62 ;
63 [label="gini = 0.0\nsamples = 1\nvalue = [0, 0, 0, 0, 1, 0, 0]"] ;
33 -> 63 ;
64 [label="gini = 0.0\nsamples = 1\nvalue = [0, 0, 0, 0, 1, 0, 0]"] ;
32 -> 64 ;
65 [label="X[94] <= 0.491\ngini = 0.5\nsamples = 2\nvalue = [0, 0, 1, 0, 1, 0, 0]"] ;
31 -> 65 ;
66 [label="gini = 0.0\nsamples = 1\nvalue = [0, 0, 0, 0, 1, 0, 0]"] ;
65 -> 66 ;
67 [label="gini = 0.0\nsamples = 1\nvalue = [0, 0, 1, 0, 0, 0, 0]"] ;
65 -> 67 ;
68 [label="X[29] <= 0.202\ngini = 0.5\nsamples = 2\nvalue = [1, 0, 0, 0, 1, 0, 0]"] ;
30 -> 68 ;
69 [label="gini = 0.0\nsamples = 1\nvalue = [0, 0, 0, 0, 1, 0, 0]"] ;
68 -> 69 ;
70 [label="gini = 0.0\nsamples = 1\nvalue = [1, 0, 0, 0, 0, 0, 0]"] ;
68 -> 70 ;
71 [label="X[55] <= 0.313\ngini = 0.667\nsamples = 3\nvalue = [0, 0, 0, 0, 1, 1, 1]"] ;
29 -> 71 ;
72 [label="X[88] <= 0.504\ngini = 0.5\nsamples = 2\nvalue = [0, 0, 0, 0, 1, 1, 0]"] ;
71 -> 72 ;
73 [label="gini = 0.0\nsamples = 1\nvalue = [0, 0, 0, 0, 1, 0, 0]"] ;
72 -> 73 ;
74 [label="gini = 0.0\nsamples = 1\nvalue = [0, 0, 0, 0, 0, 1, 0]"] ;
72 -> 74 ;
75 [label="gini = 0.0\nsamples = 1\nvalue = [0, 0, 0, 0, 0, 0, 1]"] ;
71 -> 75 ;
76 [label="X[129] <= 0.253\ngini = 0.667\nsamples = 3\nvalue = [0, 1, 0, 0, 1, 0, 1]"] ;
28 -> 76 ;
77 [label="X[124] <= 0.26\ngini = 0.5\nsamples = 2\nvalue = [0, 1, 0, 0, 1, 0, 0]"] ;
76 -> 77 ;
78 [label="gini = 0.0\nsamples = 1\nvalue = [0, 0, 0, 0, 1, 0, 0]"] ;
77 -> 78 ;
79 [label="gini = 0.0\nsamples = 1\nvalue = [0, 1, 0, 0, 0, 0, 0]"] ;
77 -> 79 ;
80 [label="gini = 0.0\nsamples = 1\nvalue = [0, 0, 0, 0, 0, 0, 1]"] ;
76 -> 80 ;
81 [label="X[91] <= 0.24\ngini = 0.667\nsamples = 3\nvalue = [1, 0, 1, 0, 1, 0, 0]"] ;
27 -> 81 ;
82 [label="X[132] <= 0.377\ngini = 0.5\nsamples = 2\nvalue = [1, 0, 1, 0, 0, 0, 0]"] ;
81 -> 82 ;
83 [label="gini = 0.0\nsamples = 1\nvalue = [1, 0, 0, 0, 0, 0, 0]"] ;
82 -> 83 ;
84 [label="gini = 0.0\nsamples = 1\nvalue = [0, 0, 1, 0, 0, 0, 0]"] ;
82 -> 84 ;
85 [label="gini = 0.0\nsamples = 1\nvalue = [0, 0, 0, 0, 1, 0, 0]"] ;
81 -> 85 ;
86 [label="X[114] <= 0.27\ngini = 0.444\nsamples = 3\nvalue = [0, 0, 0, 0, 1, 2, 0]"] ;
26 -> 86 ;
87 [label="gini = 0.0\nsamples = 1\nvalue = [0, 0, 0, 0, 1, 0, 0]"] ;
86 -> 87 ;
88 [label="gini = 0.0\nsamples = 2\nvalue = [0, 0, 0, 0, 0, 2, 0]"] ;
86 -> 88 ;
89 [label="gini = 0.0\nsamples = 2\nvalue = [0, 0, 0, 0, 0, 2, 0]"] ;
25 -> 89 ;
90 [label="gini = 0.0\nsamples = 2\nvalue = [0, 0, 0, 0, 0, 2, 0]"] ;
24 -> 90 ;
91 [label="X[89] <= 0.178\ngini = 0.812\nsamples = 8\nvalue = [1, 1, 2, 1, 0, 1, 2]"] ;
23 -> 91 ;
92 [label="X[73] <= 0.329\ngini = 0.778\nsamples = 6\nvalue = [1, 1, 0, 1, 0, 1, 2]"] ;
91 -> 92 ;
93 [label="gini = 0.0\nsamples = 2\nvalue = [0, 0, 0, 0, 0, 0, 2]"] ;
92 -> 93 ;
94 [label="X[125] <= 0.171\ngini = 0.75\nsamples = 4\nvalue = [1, 1, 0, 1, 0, 1, 0]"] ;
92 -> 94 ;
95 [label="X[29] <= 0.215\ngini = 0.667\nsamples = 3\nvalue = [1, 1, 0, 0, 0, 1, 0]"] ;
94 -> 95 ;
96 [label="X[122] <= 0.072\ngini = 0.5\nsamples = 2\nvalue = [1, 1, 0, 0, 0, 0, 0]"] ;
95 -> 96 ;
97 [label="gini = 0.0\nsamples = 1\nvalue = [0, 1, 0, 0, 0, 0, 0]"] ;
96 -> 97 ;
98 [label="gini = 0.0\nsamples = 1\nvalue = [1, 0, 0, 0, 0, 0, 0]"] ;
96 -> 98 ;
99 [label="gini = 0.0\nsamples = 1\nvalue = [0, 0, 0, 0, 0, 1, 0]"] ;
95 -> 99 ;
100 [label="gini = 0.0\nsamples = 1\nvalue = [0, 0, 0, 1, 0, 0, 0]"] ;
94 -> 100 ;
101 [label="gini = 0.0\nsamples = 2\nvalue = [0, 0, 2, 0, 0, 0, 0]"] ;
91 -> 101 ;
102 [label="X[18] <= 0.356\ngini = 0.56\nsamples = 5\nvalue = [3, 0, 0, 1, 1, 0, 0]"] ;
22 -> 102 ;
103 [label="gini = 0.0\nsamples = 3\nvalue = [3, 0, 0, 0, 0, 0, 0]"] ;
102 -> 103 ;
104 [label="X[129] <= 0.125\ngini = 0.5\nsamples = 2\nvalue = [0, 0, 0, 1, 1, 0, 0]"] ;
102 -> 104 ;
105 [label="gini = 0.0\nsamples = 1\nvalue = [0, 0, 0, 1, 0, 0, 0]"] ;
104 -> 105 ;
106 [label="gini = 0.0\nsamples = 1\nvalue = [0, 0, 0, 0, 1, 0, 0]"] ;
104 -> 106 ;
107 [label="gini = 0.0\nsamples = 2\nvalue = [2, 0, 0, 0, 0, 0, 0]"] ;
21 -> 107 ;
108 [label="gini = 0.0\nsamples = 2\nvalue = [0, 0, 2, 0, 0, 0, 0]"] ;
20 -> 108 ;
109 [label="X[144] <= 0.263\ngini = 0.56\nsamples = 5\nvalue = [0, 1, 3, 0, 0, 1, 0]"] ;
19 -> 109 ;
110 [label="X[4] <= 0.348\ngini = 0.375\nsamples = 4\nvalue = [0, 0, 3, 0, 0, 1, 0]"] ;
109 -> 110 ;
111 [label="gini = 0.0\nsamples = 3\nvalue = [0, 0, 3, 0, 0, 0, 0]"] ;
110 -> 111 ;
112 [label="gini = 0.0\nsamples = 1\nvalue = [0, 0, 0, 0, 0, 1, 0]"] ;
110 -> 112 ;
113 [label="gini = 0.0\nsamples = 1\nvalue = [0, 1, 0, 0, 0, 0, 0]"] ;
109 -> 113 ;
114 [label="gini = 0.0\nsamples = 3\nvalue = [0, 0, 0, 0, 0, 0, 3]"] ;
18 -> 114 ;
115 [label="X[106] <= 0.228\ngini = 0.757\nsamples = 33\nvalue = [0, 2, 3, 7, 1, 11, 9]"] ;
17 -> 115 ;
116 [label="gini = 0.0\nsamples = 4\nvalue = [0, 0, 0, 0, 0, 4, 0]"] ;
115 -> 116 ;
117 [label="X[106] <= 0.415\ngini = 0.771\nsamples = 29\nvalue = [0, 2, 3, 7, 1, 7, 9]"] ;
115 -> 117 ;
118 [label="X[122] <= 0.304\ngini = 0.747\nsamples = 18\nvalue = [0, 2, 1, 6, 1, 2, 6]"] ;
117 -> 118 ;
119 [label="X[124] <= 0.348\ngini = 0.735\nsamples = 14\nvalue = [0, 1, 1, 3, 1, 2, 6]"] ;
118 -> 119 ;
120 [label="X[122] <= 0.235\ngini = 0.653\nsamples = 12\nvalue = [0, 0, 1, 3, 0, 2, 6]"] ;
119 -> 120 ;
121 [label="X[106] <= 0.249\ngini = 0.653\nsamples = 7\nvalue = [0, 0, 0, 3, 0, 2, 2]"] ;
120 -> 121 ;
122 [label="gini = 0.0\nsamples = 2\nvalue = [0, 0, 0, 2, 0, 0, 0]"] ;
121 -> 122 ;
123 [label="X[101] <= 0.478\ngini = 0.64\nsamples = 5\nvalue = [0, 0, 0, 1, 0, 2, 2]"] ;
121 -> 123 ;
124 [label="X[18] <= 0.478\ngini = 0.5\nsamples = 4\nvalue = [0, 0, 0, 0, 0, 2, 2]"] ;
123 -> 124 ;
125 [label="X[122] <= 0.226\ngini = 0.444\nsamples = 3\nvalue = [0, 0, 0, 0, 0, 1, 2]"] ;
124 -> 125 ;
126 [label="gini = 0.0\nsamples = 2\nvalue = [0, 0, 0, 0, 0, 0, 2]"] ;
125 -> 126 ;
127 [label="gini = 0.0\nsamples = 1\nvalue = [0, 0, 0, 0, 0, 1, 0]"] ;
125 -> 127 ;
128 [label="gini = 0.0\nsamples = 1\nvalue = [0, 0, 0, 0, 0, 1, 0]"] ;
124 -> 128 ;
129 [label="gini = 0.0\nsamples = 1\nvalue = [0, 0, 0, 1, 0, 0, 0]"] ;
123 -> 129 ;
130 [label="X[124] <= 0.103\ngini = 0.32\nsamples = 5\nvalue = [0, 0, 1, 0, 0, 0, 4]"] ;
120 -> 130 ;
131 [label="gini = 0.0\nsamples = 1\nvalue = [0, 0, 1, 0, 0, 0, 0]"] ;
130 -> 131 ;
132 [label="gini = 0.0\nsamples = 4\nvalue = [0, 0, 0, 0, 0, 0, 4]"] ;
130 -> 132 ;
133 [label="X[122] <= 0.262\ngini = 0.5\nsamples = 2\nvalue = [0, 1, 0, 0, 1, 0, 0]"] ;
119 -> 133 ;
134 [label="gini = 0.0\nsamples = 1\nvalue = [0, 1, 0, 0, 0, 0, 0]"] ;
133 -> 134 ;
135 [label="gini = 0.0\nsamples = 1\nvalue = [0, 0, 0, 0, 1, 0, 0]"] ;
133 -> 135 ;
136 [label="X[124] <= 0.466\ngini = 0.375\nsamples = 4\nvalue = [0, 1, 0, 3, 0, 0, 0]"] ;
118 -> 136 ;
137 [label="gini = 0.0\nsamples = 3\nvalue = [0, 0, 0, 3, 0, 0, 0]"] ;
136 -> 137 ;
138 [label="gini = 0.0\nsamples = 1\nvalue = [0, 1, 0, 0, 0, 0, 0]"] ;
136 -> 138 ;
139 [label="X[122] <= 0.246\ngini = 0.678\nsamples = 11\nvalue = [0, 0, 2, 1, 0, 5, 3]"] ;
117 -> 139 ;
140 [label="gini = 0.0\nsamples = 1\nvalue = [0, 0, 0, 0, 0, 1, 0]"] ;
139 -> 140 ;
141 [label="gini = 0.7\nsamples = 10\nvalue = [0, 0, 2, 1, 0, 4, 3]"] ;
139 -> 141 ;
142 [label="X[122] <= 0.179\ngini = 0.32\nsamples = 5\nvalue = [0, 0, 1, 0, 0, 0, 4]"] ;
16 -> 142 ;
143 [label="gini = 0.0\nsamples = 3\nvalue = [0, 0, 0, 0, 0, 0, 3]"] ;
142 -> 143 ;
144 [label="gini = 0.5\nsamples = 2\nvalue = [0, 0, 1, 0, 0, 0, 1]"] ;
142 -> 144 ;
145 [label="X[122] <= 0.052\ngini = 0.5\nsamples = 6\nvalue = [0, 0, 4, 0, 1, 0, 1]"] ;
15 -> 145 ;
146 [label="gini = 0.0\nsamples = 1\nvalue = [0, 0, 0, 0, 0, 0, 1]"] ;
145 -> 146 ;
147 [label="X[69] <= 0.221\ngini = 0.32\nsamples = 5\nvalue = [0, 0, 4, 0, 1, 0, 0]"] ;
145 -> 147 ;
148 [label="gini = 0.0\nsamples = 4\nvalue = [0, 0, 4, 0, 0, 0, 0]"] ;
147 -> 148 ;
149 [label="gini = 0.0\nsamples = 1\nvalue = [0, 0, 0, 0, 1, 0, 0]"] ;
147 -> 149 ;
150 [label="gini = 0.0\nsamples = 3\nvalue = [3, 0, 0, 0, 0, 0, 0]"] ;
14 -> 150 ;
151 [label="X[129] <= 0.314\ngini = 0.278\nsamples = 6\nvalue = [0, 1, 0, 0, 0, 5, 0]"] ;
13 -> 151 ;
152 [label="gini = 0.0\nsamples = 5\nvalue = [0, 0, 0, 0, 0, 5, 0]"] ;
151 -> 152 ;
153 [label="gini = 0.0\nsamples = 1\nvalue = [0, 1, 0, 0, 0, 0, 0]"] ;
151 -> 153 ;
154 [label="gini = 0.0\nsamples = 5\nvalue = [0, 0, 0, 0, 0, 5, 0]"] ;
12 -> 154 ;
155 [label="gini = 0.0\nsamples = 4\nvalue = [0, 0, 0, 0, 4, 0, 0]"] ;
11 -> 155 ;
156 [label="X[35] <= 0.355\ngini = 0.219\nsamples = 8\nvalue = [0, 0, 0, 1, 0, 0, 7]"] ;
10 -> 156 ;
157 [label="gini = 0.0\nsamples = 7\nvalue = [0, 0, 0, 0, 0, 0, 7]"] ;
156 -> 157 ;
158 [label="gini = 0.0\nsamples = 1\nvalue = [0, 0, 0, 1, 0, 0, 0]"] ;
156 -> 158 ;
159 [label="gini = 0.0\nsamples = 5\nvalue = [5, 0, 0, 0, 0, 0, 0]"] ;
9 -> 159 ;
160 [label="X[124] <= 0.069\ngini = 0.219\nsamples = 8\nvalue = [7, 0, 0, 0, 1, 0, 0]"] ;
8 -> 160 ;
161 [label="gini = 0.0\nsamples = 7\nvalue = [7, 0, 0, 0, 0, 0, 0]"] ;
160 -> 161 ;
162 [label="gini = 0.0\nsamples = 1\nvalue = [0, 0, 0, 0, 1, 0, 0]"] ;
160 -> 162 ;
163 [label="X[121] <= 0.309\ngini = 0.724\nsamples = 129\nvalue = [2, 2, 6, 14, 14, 48, 43]"] ;
7 -> 163 ;
164 [label="X[54] <= 0.248\ngini = 0.678\nsamples = 116\nvalue = [1, 2, 5, 9, 8, 48, 43]"] ;
163 -> 164 ;
165 [label="X[49] <= 0.203\ngini = 0.695\nsamples = 103\nvalue = [1, 2, 5, 9, 8, 36, 42]"] ;
164 -> 165 ;
166 [label="X[136] <= 0.235\ngini = 0.67\nsamples = 98\nvalue = [1, 2, 5, 8, 4, 36, 42]"] ;
165 -> 166 ;
167 [label="X[109] <= 0.403\ngini = 0.611\nsamples = 45\nvalue = [0, 1, 3, 4, 2, 9, 26]"] ;
166 -> 167 ;
168 [label="X[21] <= 0.342\ngini = 0.561\nsamples = 42\nvalue = [0, 0, 3, 2, 2, 9, 26]"] ;
167 -> 168 ;
169 [label="X[12] <= 0.24\ngini = 0.515\nsamples = 39\nvalue = [0, 0, 2, 2, 2, 7, 26]"] ;
168 -> 169 ;
170 [label="X[143] <= 0.461\ngini = 0.479\nsamples = 37\nvalue = [0, 0, 2, 2, 2, 5, 26]"] ;
169 -> 170 ;
171 [label="X[144] <= 0.398\ngini = 0.431\nsamples = 35\nvalue = [0, 0, 2, 2, 2, 3, 26]"] ;
170 -> 171 ;
172 [label="X[137] <= 0.168\ngini = 0.365\nsamples = 33\nvalue = [0, 0, 1, 2, 1, 3, 26]"] ;
171 -> 172 ;
173 [label="X[127] <= 0.414\ngini = 0.287\nsamples = 31\nvalue = [0, 0, 0, 2, 1, 2, 26]"] ;
172 -> 173 ;
174 [label="X[18] <= 0.274\ngini = 0.196\nsamples = 28\nvalue = [0, 0, 0, 0, 1, 2, 25]"] ;
173 -> 174 ;
175 [label="X[125] <= 0.276\ngini = 0.137\nsamples = 27\nvalue = [0, 0, 0, 0, 0, 2, 25]"] ;
174 -> 175 ;
176 [label="X[116] <= 0.304\ngini = 0.074\nsamples = 26\nvalue = [0, 0, 0, 0, 0, 1, 25]"] ;
175 -> 176 ;
177 [label="gini = 0.0\nsamples = 25\nvalue = [0, 0, 0, 0, 0, 0, 25]"] ;
176 -> 177 ;
178 [label="gini = 0.0\nsamples = 1\nvalue = [0, 0, 0, 0, 0, 1, 0]"] ;
176 -> 178 ;
179 [label="gini = 0.0\nsamples = 1\nvalue = [0, 0, 0, 0, 0, 1, 0]"] ;
175 -> 179 ;
180 [label="gini = 0.0\nsamples = 1\nvalue = [0, 0, 0, 0, 1, 0, 0]"] ;
174 -> 180 ;
181 [label="X[69] <= 0.261\ngini = 0.444\nsamples = 3\nvalue = [0, 0, 0, 2, 0, 0, 1]"] ;
173 -> 181 ;
182 [label="gini = 0.0\nsamples = 2\nvalue = [0, 0, 0, 2, 0, 0, 0]"] ;
181 -> 182 ;
183 [label="gini = 0.0\nsamples = 1\nvalue = [0, 0, 0, 0, 0, 0, 1]"] ;
181 -> 183 ;
184 [label="X[106] <= 0.05\ngini = 0.5\nsamples = 2\nvalue = [0, 0, 1, 0, 0, 1, 0]"] ;
172 -> 184 ;
185 [label="gini = 0.0\nsamples = 1\nvalue = [0, 0, 1, 0, 0, 0, 0]"] ;
184 -> 185 ;
186 [label="gini = 0.0\nsamples = 1\nvalue = [0, 0, 0, 0, 0, 1, 0]"] ;
184 -> 186 ;
187 [label="X[59] <= 0.14\ngini = 0.5\nsamples = 2\nvalue = [0, 0, 1, 0, 1, 0, 0]"] ;
171 -> 187 ;
188 [label="gini = 0.0\nsamples = 1\nvalue = [0, 0, 1, 0, 0, 0, 0]"] ;
187 -> 188 ;
189 [label="gini = 0.0\nsamples = 1\nvalue = [0, 0, 0, 0, 1, 0, 0]"] ;
187 -> 189 ;
190 [label="gini = 0.0\nsamples = 2\nvalue = [0, 0, 0, 0, 0, 2, 0]"] ;
170 -> 190 ;
191 [label="gini = 0.0\nsamples = 2\nvalue = [0, 0, 0, 0, 0, 2, 0]"] ;
169 -> 191 ;
192 [label="X[132] <= 0.324\ngini = 0.444\nsamples = 3\nvalue = [0, 0, 1, 0, 0, 2, 0]"] ;
168 -> 192 ;
193 [label="gini = 0.0\nsamples = 2\nvalue = [0, 0, 0, 0, 0, 2, 0]"] ;
192 -> 193 ;
194 [label="gini = 0.0\nsamples = 1\nvalue = [0, 0, 1, 0, 0, 0, 0]"] ;
192 -> 194 ;
195 [label="X[101] <= 0.2\ngini = 0.444\nsamples = 3\nvalue = [0, 1, 0, 2, 0, 0, 0]"] ;
167 -> 195 ;
196 [label="gini = 0.0\nsamples = 2\nvalue = [0, 0, 0, 2, 0, 0, 0]"] ;
195 -> 196 ;
197 [label="gini = 0.0\nsamples = 1\nvalue = [0, 1, 0, 0, 0, 0, 0]"] ;
195 -> 197 ;
198 [label="X[67] <= 0.151\ngini = 0.64\nsamples = 53\nvalue = [1, 1, 2, 4, 2, 27, 16]"] ;
166 -> 198 ;
199 [label="X[124] <= 0.169\ngini = 0.626\nsamples = 49\nvalue = [1, 1, 2, 4, 2, 27, 12]"] ;
198 -> 199 ;
200 [label="X[65] <= 0.242\ngini = 0.531\nsamples = 35\nvalue = [0, 1, 2, 4, 0, 23, 5]"] ;
199 -> 200 ;
201 [label="X[16] <= 0.194\ngini = 0.476\nsamples = 33\nvalue = [0, 1, 0, 4, 0, 23, 5]"] ;
200 -> 201 ;
202 [label="X[38] <= 0.231\ngini = 0.422\nsamples = 31\nvalue = [0, 1, 0, 4, 0, 23, 3]"] ;
201 -> 202 ;
203 [label="X[56] <= 0.453\ngini = 0.389\nsamples = 30\nvalue = [0, 1, 0, 4, 0, 23, 2]"] ;
202 -> 203 ;
204 [label="X[76] <= 0.468\ngini = 0.35\nsamples = 29\nvalue = [0, 1, 0, 4, 0, 23, 1]"] ;
203 -> 204 ;
205 [label="X[86] <= 0.345\ngini = 0.304\nsamples = 28\nvalue = [0, 1, 0, 4, 0, 23, 0]"] ;
204 -> 205 ;
206 [label="X[69] <= 0.466\ngini = 0.261\nsamples = 27\nvalue = [0, 1, 0, 3, 0, 23, 0]"] ;
205 -> 206 ;
207 [label="X[79] <= 0.329\ngini = 0.21\nsamples = 26\nvalue = [0, 1, 0, 2, 0, 23, 0]"] ;
206 -> 207 ;
208 [label="X[106] <= 0.442\ngini = 0.15\nsamples = 25\nvalue = [0, 1, 0, 1, 0, 23, 0]"] ;
207 -> 208 ;
209 [label="X[120] <= 0.473\ngini = 0.083\nsamples = 23\nvalue = [0, 0, 0, 1, 0, 22, 0]"] ;
208 -> 209 ;
210 [label="gini = 0.0\nsamples = 21\nvalue = [0, 0, 0, 0, 0, 21, 0]"] ;
209 -> 210 ;
211 [label="gini = 0.5\nsamples = 2\nvalue = [0, 0, 0, 1, 0, 1, 0]"] ;
209 -> 211 ;
212 [label="gini = 0.5\nsamples = 2\nvalue = [0, 1, 0, 0, 0, 1, 0]"] ;
208 -> 212 ;
213 [label="gini = 0.0\nsamples = 1\nvalue = [0, 0, 0, 1, 0, 0, 0]"] ;
207 -> 213 ;
214 [label="gini = 0.0\nsamples = 1\nvalue = [0, 0, 0, 1, 0, 0, 0]"] ;
206 -> 214 ;
215 [label="gini = 0.0\nsamples = 1\nvalue = [0, 0, 0, 1, 0, 0, 0]"] ;
205 -> 215 ;
216 [label="gini = 0.0\nsamples = 1\nvalue = [0, 0, 0, 0, 0, 0, 1]"] ;
204 -> 216 ;
217 [label="gini = 0.0\nsamples = 1\nvalue = [0, 0, 0, 0, 0, 0, 1]"] ;
203 -> 217 ;
218 [label="gini = 0.0\nsamples = 1\nvalue = [0, 0, 0, 0, 0, 0, 1]"] ;
202 -> 218 ;
219 [label="gini = 0.0\nsamples = 2\nvalue = [0, 0, 0, 0, 0, 0, 2]"] ;
201 -> 219 ;
220 [label="gini = 0.0\nsamples = 2\nvalue = [0, 0, 2, 0, 0, 0, 0]"] ;
200 -> 220 ;
221 [label="X[11] <= 0.29\ngini = 0.643\nsamples = 14\nvalue = [1, 0, 0, 0, 2, 4, 7]"] ;
199 -> 221 ;
222 [label="X[136] <= 0.41\ngini = 0.597\nsamples = 12\nvalue = [1, 0, 0, 0, 2, 2, 7]"] ;
221 -> 222 ;
223 [label="gini = 0.0\nsamples = 6\nvalue = [0, 0, 0, 0, 0, 0, 6]"] ;
222 -> 223 ;
224 [label="X[136] <= 0.448\ngini = 0.722\nsamples = 6\nvalue = [1, 0, 0, 0, 2, 2, 1]"] ;
222 -> 224 ;
225 [label="gini = 0.0\nsamples = 1\nvalue = [1, 0, 0, 0, 0, 0, 0]"] ;
224 -> 225 ;
226 [label="X[106] <= 0.311\ngini = 0.64\nsamples = 5\nvalue = [0, 0, 0, 0, 2, 2, 1]"] ;
224 -> 226 ;
227 [label="gini = 0.0\nsamples = 1\nvalue = [0, 0, 0, 0, 0, 1, 0]"] ;
226 -> 227 ;
228 [label="X[106] <= 0.419\ngini = 0.625\nsamples = 4\nvalue = [0, 0, 0, 0, 2, 1, 1]"] ;
226 -> 228 ;
229 [label="gini = 0.0\nsamples = 1\nvalue = [0, 0, 0, 0, 1, 0, 0]"] ;
228 -> 229 ;
230 [label="gini = 0.667\nsamples = 3\nvalue = [0, 0, 0, 0, 1, 1, 1]"] ;
228 -> 230 ;
231 [label="gini = 0.0\nsamples = 2\nvalue = [0, 0, 0, 0, 0, 2, 0]"] ;
221 -> 231 ;
232 [label="gini = 0.0\nsamples = 4\nvalue = [0, 0, 0, 0, 0, 0, 4]"] ;
198 -> 232 ;
233 [label="X[64] <= 0.237\ngini = 0.32\nsamples = 5\nvalue = [0, 0, 0, 1, 4, 0, 0]"] ;
165 -> 233 ;
234 [label="gini = 0.0\nsamples = 4\nvalue = [0, 0, 0, 0, 4, 0, 0]"] ;
233 -> 234 ;
235 [label="gini = 0.0\nsamples = 1\nvalue = [0, 0, 0, 1, 0, 0, 0]"] ;
233 -> 235 ;
236 [label="X[122] <= 0.269\ngini = 0.142\nsamples = 13\nvalue = [0, 0, 0, 0, 0, 12, 1]"] ;
164 -> 236 ;
237 [label="gini = 0.0\nsamples = 12\nvalue = [0, 0, 0, 0, 0, 12, 0]"] ;
236 -> 237 ;
238 [label="gini = 0.0\nsamples = 1\nvalue = [0, 0, 0, 0, 0, 0, 1]"] ;
236 -> 238 ;
239 [label="X[121] <= 0.421\ngini = 0.627\nsamples = 13\nvalue = [1, 0, 1, 5, 6, 0, 0]"] ;
163 -> 239 ;
240 [label="gini = 0.0\nsamples = 2\nvalue = [0, 0, 0, 2, 0, 0, 0]"] ;
239 -> 240 ;
241 [label="X[122] <= 0.192\ngini = 0.612\nsamples = 11\nvalue = [1, 0, 1, 3, 6, 0, 0]"] ;
239 -> 241 ;
242 [label="X[9] <= 0.248\ngini = 0.32\nsamples = 5\nvalue = [1, 0, 0, 0, 4, 0, 0]"] ;
241 -> 242 ;
243 [label="gini = 0.0\nsamples = 4\nvalue = [0, 0, 0, 0, 4, 0, 0]"] ;
242 -> 243 ;
244 [label="gini = 0.0\nsamples = 1\nvalue = [1, 0, 0, 0, 0, 0, 0]"] ;
242 -> 244 ;
245 [label="X[136] <= 0.191\ngini = 0.611\nsamples = 6\nvalue = [0, 0, 1, 3, 2, 0, 0]"] ;
241 -> 245 ;
246 [label="gini = 0.0\nsamples = 1\nvalue = [0, 0, 1, 0, 0, 0, 0]"] ;
245 -> 246 ;
247 [label="X[58] <= 0.378\ngini = 0.48\nsamples = 5\nvalue = [0, 0, 0, 3, 2, 0, 0]"] ;
245 -> 247 ;
248 [label="gini = 0.5\nsamples = 4\nvalue = [0, 0, 0, 2, 2, 0, 0]"] ;
247 -> 248 ;
249 [label="gini = 0.0\nsamples = 1\nvalue = [0, 0, 0, 1, 0, 0, 0]"] ;
247 -> 249 ;
250 [label="gini = 0.0\nsamples = 11\nvalue = [0, 0, 0, 0, 0, 11, 0]"] ;
6 -> 250 ;
251 [label="gini = 0.0\nsamples = 7\nvalue = [0, 0, 7, 0, 0, 0, 0]"] ;
5 -> 251 ;
252 [label="X[26] <= 0.185\ngini = 0.418\nsamples = 15\nvalue = [11, 3, 0, 1, 0, 0, 0]"] ;
4 -> 252 ;
253 [label="X[42] <= 0.444\ngini = 0.272\nsamples = 13\nvalue = [11, 1, 0, 1, 0, 0, 0]"] ;
252 -> 253 ;
254 [label="X[136] <= 0.253\ngini = 0.153\nsamples = 12\nvalue = [11, 1, 0, 0, 0, 0, 0]"] ;
253 -> 254 ;
255 [label="gini = 0.0\nsamples = 11\nvalue = [11, 0, 0, 0, 0, 0, 0]"] ;
254 -> 255 ;
256 [label="gini = 0.0\nsamples = 1\nvalue = [0, 1, 0, 0, 0, 0, 0]"] ;
254 -> 256 ;
257 [label="gini = 0.0\nsamples = 1\nvalue = [0, 0, 0, 1, 0, 0, 0]"] ;
253 -> 257 ;
258 [label="gini = 0.0\nsamples = 2\nvalue = [0, 2, 0, 0, 0, 0, 0]"] ;
252 -> 258 ;
259 [label="X[136] <= 0.045\ngini = 0.48\nsamples = 68\nvalue = [1, 1, 4, 4, 2, 8, 48]"] ;
3 -> 259 ;
260 [label="X[33] <= 0.266\ngini = 0.764\nsamples = 23\nvalue = [1, 1, 3, 4, 1, 4, 9]"] ;
259 -> 260 ;
261 [label="X[129] <= 0.202\ngini = 0.735\nsamples = 21\nvalue = [1, 1, 1, 4, 1, 4, 9]"] ;
260 -> 261 ;
262 [label="X[49] <= 0.268\ngini = 0.709\nsamples = 19\nvalue = [1, 1, 1, 2, 1, 4, 9]"] ;
261 -> 262 ;
263 [label="X[122] <= 0.109\ngini = 0.644\nsamples = 17\nvalue = [0, 1, 1, 2, 0, 4, 9]"] ;
262 -> 263 ;
264 [label="gini = 0.0\nsamples = 4\nvalue = [0, 0, 0, 0, 0, 0, 4]"] ;
263 -> 264 ;
265 [label="X[124] <= 0.104\ngini = 0.722\nsamples = 13\nvalue = [0, 1, 1, 2, 0, 4, 5]"] ;
263 -> 265 ;
266 [label="X[8] <= 0.242\ngini = 0.611\nsamples = 6\nvalue = [0, 0, 1, 2, 0, 3, 0]"] ;
265 -> 266 ;
267 [label="X[122] <= 0.167\ngini = 0.48\nsamples = 5\nvalue = [0, 0, 0, 2, 0, 3, 0]"] ;
266 -> 267 ;
268 [label="X[79] <= 0.21\ngini = 0.444\nsamples = 3\nvalue = [0, 0, 0, 2, 0, 1, 0]"] ;
267 -> 268 ;
269 [label="gini = 0.0\nsamples = 2\nvalue = [0, 0, 0, 2, 0, 0, 0]"] ;
268 -> 269 ;
270 [label="gini = 0.0\nsamples = 1\nvalue = [0, 0, 0, 0, 0, 1, 0]"] ;
268 -> 270 ;
271 [label="gini = 0.0\nsamples = 2\nvalue = [0, 0, 0, 0, 0, 2, 0]"] ;
267 -> 271 ;
272 [label="gini = 0.0\nsamples = 1\nvalue = [0, 0, 1, 0, 0, 0, 0]"] ;
266 -> 272 ;
273 [label="X[115] <= 0.334\ngini = 0.449\nsamples = 7\nvalue = [0, 1, 0, 0, 0, 1, 5]"] ;
265 -> 273 ;
274 [label="X[124] <= 0.446\ngini = 0.278\nsamples = 6\nvalue = [0, 1, 0, 0, 0, 0, 5]"] ;
273 -> 274 ;
275 [label="gini = 0.0\nsamples = 5\nvalue = [0, 0, 0, 0, 0, 0, 5]"] ;
274 -> 275 ;
276 [label="gini = 0.0\nsamples = 1\nvalue = [0, 1, 0, 0, 0, 0, 0]"] ;
274 -> 276 ;
277 [label="gini = 0.0\nsamples = 1\nvalue = [0, 0, 0, 0, 0, 1, 0]"] ;
273 -> 277 ;
278 [label="X[78] <= 0.231\ngini = 0.5\nsamples = 2\nvalue = [1, 0, 0, 0, 1, 0, 0]"] ;
262 -> 278 ;
279 [label="gini = 0.0\nsamples = 1\nvalue = [1, 0, 0, 0, 0, 0, 0]"] ;
278 -> 279 ;
280 [label="gini = 0.0\nsamples = 1\nvalue = [0, 0, 0, 0, 1, 0, 0]"] ;
278 -> 280 ;
281 [label="gini = 0.0\nsamples = 2\nvalue = [0, 0, 0, 2, 0, 0, 0]"] ;
261 -> 281 ;
282 [label="gini = 0.0\nsamples = 2\nvalue = [0, 0, 2, 0, 0, 0, 0]"] ;
260 -> 282 ;
283 [label="X[83] <= 0.256\ngini = 0.24\nsamples = 45\nvalue = [0, 0, 1, 0, 1, 4, 39]"] ;
259 -> 283 ;
284 [label="X[122] <= 0.22\ngini = 0.174\nsamples = 43\nvalue = [0, 0, 1, 0, 1, 2, 39]"] ;
283 -> 284 ;
285 [label="X[77] <= 0.144\ngini = 0.135\nsamples = 42\nvalue = [0, 0, 1, 0, 0, 2, 39]"] ;
284 -> 285 ;
286 [label="X[64] <= 0.222\ngini = 0.093\nsamples = 41\nvalue = [0, 0, 0, 0, 0, 2, 39]"] ;
285 -> 286 ;
287 [label="X[102] <= 0.25\ngini = 0.049\nsamples = 40\nvalue = [0, 0, 0, 0, 0, 1, 39]"] ;
286 -> 287 ;
288 [label="gini = 0.0\nsamples = 39\nvalue = [0, 0, 0, 0, 0, 0, 39]"] ;
287 -> 288 ;
289 [label="gini = 0.0\nsamples = 1\nvalue = [0, 0, 0, 0, 0, 1, 0]"] ;
287 -> 289 ;
290 [label="gini = 0.0\nsamples = 1\nvalue = [0, 0, 0, 0, 0, 1, 0]"] ;
286 -> 290 ;
291 [label="gini = 0.0\nsamples = 1\nvalue = [0, 0, 1, 0, 0, 0, 0]"] ;
285 -> 291 ;
292 [label="gini = 0.0\nsamples = 1\nvalue = [0, 0, 0, 0, 1, 0, 0]"] ;
284 -> 292 ;
293 [label="gini = 0.0\nsamples = 2\nvalue = [0, 0, 0, 0, 0, 2, 0]"] ;
283 -> 293 ;
294 [label="X[117] <= 0.246\ngini = 0.401\nsamples = 27\nvalue = [20, 0, 6, 0, 0, 0, 1]"] ;
2 -> 294 ;
295 [label="X[109] <= 0.271\ngini = 0.234\nsamples = 23\nvalue = [20, 0, 2, 0, 0, 0, 1]"] ;
294 -> 295 ;
296 [label="X[77] <= 0.201\ngini = 0.165\nsamples = 22\nvalue = [20, 0, 2, 0, 0, 0, 0]"] ;
295 -> 296 ;
297 [label="X[31] <= 0.175\ngini = 0.091\nsamples = 21\nvalue = [20, 0, 1, 0, 0, 0, 0]"] ;
296 -> 297 ;
298 [label="gini = 0.0\nsamples = 20\nvalue = [20, 0, 0, 0, 0, 0, 0]"] ;
297 -> 298 ;
299 [label="gini = 0.0\nsamples = 1\nvalue = [0, 0, 1, 0, 0, 0, 0]"] ;
297 -> 299 ;
300 [label="gini = 0.0\nsamples = 1\nvalue = [0, 0, 1, 0, 0, 0, 0]"] ;
296 -> 300 ;
301 [label="gini = 0.0\nsamples = 1\nvalue = [0, 0, 0, 0, 0, 0, 1]"] ;
295 -> 301 ;
302 [label="gini = 0.0\nsamples = 4\nvalue = [0, 0, 4, 0, 0, 0, 0]"] ;
294 -> 302 ;
303 [label="X[105] <= 0.147\ngini = 0.298\nsamples = 42\nvalue = [2, 0, 0, 2, 1, 35, 2]"] ;
1 -> 303 ;
304 [label="X[0] <= 0.458\ngini = 0.23\nsamples = 40\nvalue = [1, 0, 0, 1, 1, 35, 2]"] ;
303 -> 304 ;
305 [label="X[55] <= 0.333\ngini = 0.191\nsamples = 39\nvalue = [1, 0, 0, 1, 0, 35, 2]"] ;
304 -> 305 ;
306 [label="X[14] <= 0.234\ngini = 0.148\nsamples = 38\nvalue = [1, 0, 0, 0, 0, 35, 2]"] ;
305 -> 306 ;
307 [label="X[75] <= 0.238\ngini = 0.102\nsamples = 37\nvalue = [0, 0, 0, 0, 0, 35, 2]"] ;
306 -> 307 ;
308 [label="X[120] <= 0.264\ngini = 0.054\nsamples = 36\nvalue = [0, 0, 0, 0, 0, 35, 1]"] ;
307 -> 308 ;
309 [label="gini = 0.0\nsamples = 35\nvalue = [0, 0, 0, 0, 0, 35, 0]"] ;
308 -> 309 ;
310 [label="gini = 0.0\nsamples = 1\nvalue = [0, 0, 0, 0, 0, 0, 1]"] ;
308 -> 310 ;
311 [label="gini = 0.0\nsamples = 1\nvalue = [0, 0, 0, 0, 0, 0, 1]"] ;
307 -> 311 ;
312 [label="gini = 0.0\nsamples = 1\nvalue = [1, 0, 0, 0, 0, 0, 0]"] ;
306 -> 312 ;
313 [label="gini = 0.0\nsamples = 1\nvalue = [0, 0, 0, 1, 0, 0, 0]"] ;
305 -> 313 ;
314 [label="gini = 0.0\nsamples = 1\nvalue = [0, 0, 0, 0, 1, 0, 0]"] ;
304 -> 314 ;
315 [label="X[122] <= 0.129\ngini = 0.5\nsamples = 2\nvalue = [1, 0, 0, 1, 0, 0, 0]"] ;
303 -> 315 ;
316 [label="gini = 0.0\nsamples = 1\nvalue = [1, 0, 0, 0, 0, 0, 0]"] ;
315 -> 316 ;
317 [label="gini = 0.0\nsamples = 1\nvalue = [0, 0, 0, 1, 0, 0, 0]"] ;
315 -> 317 ;
318 [label="X[139] <= 0.118\ngini = 0.348\nsamples = 92\nvalue = [4, 0, 1, 73, 0, 1, 13]"] ;
0 -> 318 [labeldistance=2.5, labelangle=-45, headlabel="False"] ;
319 [label="X[112] <= 0.138\ngini = 0.26\nsamples = 83\nvalue = [4, 0, 1, 71, 0, 1, 6]"] ;
318 -> 319 ;
320 [label="X[84] <= 0.424\ngini = 0.208\nsamples = 80\nvalue = [4, 0, 1, 71, 0, 1, 3]"] ;
319 -> 320 ;
321 [label="X[66] <= 0.201\ngini = 0.169\nsamples = 78\nvalue = [2, 0, 1, 71, 0, 1, 3]"] ;
320 -> 321 ;
322 [label="X[93] <= 0.355\ngini = 0.125\nsamples = 76\nvalue = [1, 0, 0, 71, 0, 1, 3]"] ;
321 -> 322 ;
323 [label="X[28] <= 0.425\ngini = 0.102\nsamples = 75\nvalue = [0, 0, 0, 71, 0, 1, 3]"] ;
322 -> 323 ;
324 [label="X[88] <= 0.153\ngini = 0.078\nsamples = 74\nvalue = [0, 0, 0, 71, 0, 0, 3]"] ;
323 -> 324 ;
325 [label="X[121] <= 0.226\ngini = 0.053\nsamples = 73\nvalue = [0, 0, 0, 71, 0, 0, 2]"] ;
324 -> 325 ;
326 [label="X[77] <= 0.461\ngini = 0.027\nsamples = 72\nvalue = [0, 0, 0, 71, 0, 0, 1]"] ;
325 -> 326 ;
327 [label="gini = 0.0\nsamples = 71\nvalue = [0, 0, 0, 71, 0, 0, 0]"] ;
326 -> 327 ;
328 [label="gini = 0.0\nsamples = 1\nvalue = [0, 0, 0, 0, 0, 0, 1]"] ;
326 -> 328 ;
329 [label="gini = 0.0\nsamples = 1\nvalue = [0, 0, 0, 0, 0, 0, 1]"] ;
325 -> 329 ;
330 [label="gini = 0.0\nsamples = 1\nvalue = [0, 0, 0, 0, 0, 0, 1]"] ;
324 -> 330 ;
331 [label="gini = 0.0\nsamples = 1\nvalue = [0, 0, 0, 0, 0, 1, 0]"] ;
323 -> 331 ;
332 [label="gini = 0.0\nsamples = 1\nvalue = [1, 0, 0, 0, 0, 0, 0]"] ;
322 -> 332 ;
333 [label="X[45] <= 0.223\ngini = 0.5\nsamples = 2\nvalue = [1, 0, 1, 0, 0, 0, 0]"] ;
321 -> 333 ;
334 [label="gini = 0.0\nsamples = 1\nvalue = [1, 0, 0, 0, 0, 0, 0]"] ;
333 -> 334 ;
335 [label="gini = 0.0\nsamples = 1\nvalue = [0, 0, 1, 0, 0, 0, 0]"] ;
333 -> 335 ;
336 [label="gini = 0.0\nsamples = 2\nvalue = [2, 0, 0, 0, 0, 0, 0]"] ;
320 -> 336 ;
337 [label="gini = 0.0\nsamples = 3\nvalue = [0, 0, 0, 0, 0, 0, 3]"] ;
319 -> 337 ;
338 [label="X[19] <= 0.207\ngini = 0.346\nsamples = 9\nvalue = [0, 0, 0, 2, 0, 0, 7]"] ;
318 -> 338 ;
339 [label="gini = 0.0\nsamples = 7\nvalue = [0, 0, 0, 0, 0, 0, 7]"] ;
338 -> 339 ;
340 [label="gini = 0.0\nsamples = 2\nvalue = [0, 0, 0, 2, 0, 0, 0]"] ;
338 -> 340 ;
}
